svm_type c_svc
kernel_type linear
nr_class 2
total_sv 2607
rho -1.00067
label 1 -1
nr_sv 1509 1098
SV
0.04671396345220812 11567:1 13534:1 14310:1 16075:1 20372:1 21331:1 25617:1 25660:1 25972:1 32163:1 32269:1 34196:1 40591:1 47105:1 48846:1 49590:1 53624:1 55613:1 59641:1 61041:13 61042:-0.905 61043:-0.972 61044:-0.49 61045:25 61046:5.006 61047:1.171 61048:0.19 61049:2 61050:2 61051:2 61052:3 61053:3 61057:1 61060:1 61061:1 
0.0107419152782492 1844:1 2221:1 3698:1 3962:1 4243:1 7546:1 15851:1 19302:1 19749:1 20046:1 21325:1 21457:1 21881:1 22557:1 23751:1 24488:1 25584:1 33511:1 35731:1 47961:1 49176:1 49763:1 57034:1 57881:1 61041:11 61042:3.039 61043:1.489 61044:0.256 61045:32 61046:-2.03 61047:-1.313 61048:0.11 61049:3 61050:2 61051:2 61052:2 61053:2 61055:4 61056:1 61057:1 61059:3 61060:1 
0.03207663563452002 1170:1 6759:1 7134:1 9086:1 9223:1 10874:1 14310:1 15511:1 19460:1 20388:1 22733:1 24152:1 31024:1 32943:1 34090:1 37955:1 39094:1 40609:1 49042:1 56513:1 57881:1 61041:14 61042:6.916 61043:5 61044:0.635 61045:28 61046:-1.274 61047:1.171 61048:-1.025 61049:2 61050:3 61051:8 61053:1 61054:2 61055:5 61056:1 61058:2 61059:1 61061:2 61064:27 
0.03683850190406619 4128:1 4937:1 10894:1 15551:1 25482:1 25573:1 25828:1 27495:1 28655:1 29197:1 31381:1 31450:1 35632:1 36332:1 37172:1 38651:1 43119:1 44733:1 45054:1 47446:1 48404:1 52058:1 55162:1 55675:1 55947:1 57881:1 60566:1 61041:9 61042:0.107 61043:-1.165 61044:0.86 61045:36 61046:-5.283 61047:-4.999 61048:-0.328 61049:5 61050:3 61051:7 61052:4 61053:1 61055:4 61056:2 61058:1 61059:1 61060:3 
0.0279236392616 2174:1 4176:1 4480:1 5339:1 5672:1 8970:1 10660:1 14580:1 15041:1 18344:1 19863:1 25621:1 26491:1 28199:1 34178:1 34895:1 35232:1 35707:1 38834:1 39310:1 42871:1 43542:1 43794:1 44053:1 44251:1 45534:1 46995:1 47001:1 47244:1 47353:1 51409:1 58687:1 61041:20 61042:2.24 61043:1.51 61044:0.782 61045:29 61046:2.93 61047:1.722 61048:-1.256 61049:9 61050:5 61051:5 61052:3 61053:2 61054:2 61055:2 61056:1 61060:1 61061:2 61064:10 
0.03677368221834252 488:1 1999:1 21789:1 24761:1 26011:1 28729:1 33189:1 36062:1 37605:1 39223:1 39463:1 43673:1 44323:1 52244:1 52401:1 52571:1 52602:1 57717:1 61041:10 61042:1.104 61043:0.56 61044:0.102 61045:28 61046:-6.578 61047:-1.13 61048:-0.392 61049:1 61050:1 61051:3 61052:5 61053:3 61055:1 61056:1 61058:1 61060:1 61062:1 61063:1 
0.02997042915602849 4226:1 11283:1 11548:1 13977:1 14685:1 28314:1 33954:1 36062:1 41758:1 54122:1 54544:1 56636:1 57881:1 61041:12 61042:-1.901 61043:-1.337 61044:0.693 61045:23 61046:0.35 61047:-1.13 61048:-0.129 61049:1 61050:3 61051:3 61052:1 61053:2 61055:2 61056:1 61059:1 61060:2 
0.0006677901013475094 4848:1 7612:1 9619:1 11584:1 11740:1 11853:1 13275:1 17164:1 23675:1 25056:1 26211:1 27361:1 29129:1 32429:1 32543:1 33728:1 34694:1 35333:1 44260:1 45291:1 46733:1 49618:1 50138:1 50465:1 51403:1 60939:1 61015:1 61041:19 61042:4.557 61043:1.435 61044:-0.466 61045:16 61046:7.276 61047:2.018 61048:0.463 61049:2 61050:2 61051:3 61052:5 61053:1 61054:1 61056:1 61057:1 61060:1 61061:1 
0.01441211515405274 1194:1 2172:1 2678:1 6038:1 18939:1 19839:1 20845:1 21208:1 23349:1 25355:1 28487:1 29573:1 30699:1 30887:1 34624:1 34868:1 35424:1 38458:1 41850:1 42333:1 44166:1 50250:1 50814:1 52922:1 59292:1 60275:1 61041:15 61042:-0.092 61043:1.147 61044:-0.356 61045:38 61046:-1.642 61047:-4.999 61048:0.19 61049:3 61050:2 61051:4 61052:4 61053:4 61054:3 61055:1 61058:1 61059:2 61060:1 61063:1 
0.0327402724103914 1129:1 1708:1 2027:1 2623:1 2715:1 2716:1 6071:1 13519:1 14682:1 15857:1 16720:1 22137:1 27361:1 27731:1 27922:1 31568:1 32275:1 35326:1 42923:1 51595:1 56486:1 61041:11 61042:-0.331 61043:-0.665 61044:0.064 61045:33 61046:1.698 61047:5 61048:0.882 61049:1 61050:3 61051:4 61052:3 61053:3 61054:1 61055:2 61060:2 61062:1 
0.03362633107372462 3922:1 4185:1 4872:1 11557:1 16173:1 17841:1 19302:1 20076:1 21441:1 22860:1 23780:1 25822:1 28661:1 32448:1 32970:1 33653:1 35168:1 37680:1 42319:1 42398:1 42451:1 43895:1 47366:1 47542:1 48950:1 52447:1 54469:1 54774:1 56074:1 56393:1 59072:1 61041:23 61042:0.319 61043:-1.828 61044:-0.375 61045:38 61046:-7.473 61047:-2.277 61048:-1.005 61049:2 61050:2 61051:5 61052:2 61053:2 61054:1 61055:2 61056:4 61058:1 61060:2 61061:3 
0.04204519915955276 248:1 552:1 5103:1 8929:1 14918:1 19556:1 33950:1 36740:1 38966:1 47827:1 48339:1 50156:1 51207:1 55000:1 58084:1 59925:1 61041:12 61042:2.057 61043:0.667 61044:0.049 61045:19 61046:-1.404 61047:-1.313 61048:-1.313 61050:2 61051:3 61052:2 61053:2 61060:1 61063:1 
0.001347842899209995 638:1 1409:1 2499:1 3076:1 9238:1 10690:1 10739:1 14334:1 14827:1 16567:1 17194:1 20369:1 26855:1 27063:1 30385:1 35495:1 37677:1 39062:1 43794:1 44200:1 44816:1 46306:1 47115:1 47737:1 52785:1 52832:1 53526:1 55975:1 58443:1 59841:1 61041:21 61042:0.976 61043:-1.161 61044:-0.643 61045:22 61046:7.085 61047:1.577 61048:0.442 61049:2 61050:3 61051:4 61052:8 61053:4 61054:1 61060:2 
0.01528756255921463 384:1 1633:1 1999:1 4075:1 4748:1 11854:1 12604:1 17291:1 19940:1 22073:1 23196:1 23827:1 25083:1 26545:1 28539:1 29306:1 32787:1 33782:1 34154:1 37923:1 38478:1 42635:1 43465:1 46528:1 47351:1 47561:1 49299:1 49923:1 52217:1 53172:1 57830:1 59765:1 61041:19 61042:3.077 61043:2.189 61044:-0.832 61045:49 61046:2.09 61047:-2.314 61048:1.573 61049:7 61050:3 61051:2 61052:5 61053:2 61054:1 61055:1 61058:1 61060:2 61062:1 61063:1 
0.05248844920197688 1763:1 8055:1 12360:1 21131:1 22073:1 25345:1 31886:1 32243:1 38478:1 49923:1 53172:1 55804:1 55933:1 56125:1 57196:1 57565:1 59412:1 61041:12 61042:2.811 61043:1.301 61044:1.03 61045:17 61046:3.168 61047:1.864 61048:-0.039 61049:2 61050:2 61051:3 61052:2 61054:3 61055:1 61057:1 61058:1 
0.084354736182515 4226:1 7532:1 7911:1 7968:1 10408:1 12919:1 19771:1 20080:1 20098:1 21030:1 22943:1 25834:1 26468:1 27361:1 28806:1 28815:1 30852:1 32702:1 38078:1 40182:1 40248:1 40387:1 44325:1 44526:1 49534:1 49993:1 50328:1 53578:1 59403:1 61041:23 61042:-1.127 61043:-2.202 61044:-0.294 61045:33 61046:-1.55 61047:-1.313 61048:-0.445 61049:2 61050:1 61051:7 61052:5 61053:3 61055:1 61056:1 61058:1 61059:1 61060:3 
0.007695621900326641 4243:1 6631:1 7306:1 10014:1 10375:1 10900:1 18838:1 19005:1 19321:1 19961:1 21169:1 22794:1 25030:1 27399:1 30625:1 34178:1 36465:1 37008:1 39323:1 42246:1 44888:1 45125:1 46025:1 46528:1 46791:1 54004:1 61041:16 61042:4.986 61043:2.3 61044:0.667 61045:50 61046:-2.844 61047:1.171 61048:0.185 61049:4 61050:1 61051:2 61052:4 61053:3 61055:1 61057:1 61060:1 61061:1 61062:1 61063:2 
0.0408482692687434 958:1 1645:1 2096:1 2461:1 3300:1 3528:1 5816:1 7581:1 9435:1 10806:1 15614:1 15871:1 16873:1 20536:1 21457:1 23853:1 25613:1 27143:1 28832:1 29222:1 29660:1 34773:1 40427:1 41639:1 41699:1 42230:1 45438:1 48269:1 49817:1 50524:1 52055:1 59285:1 61041:10 61042:-0.123 61043:0.454 61044:0.044 61045:47 61046:-12.689 61047:-4.999 61048:-0.273 61049:7 61050:2 61051:3 61052:4 61053:3 61055:4 61056:1 61058:2 61059:2 
0.07860600845632441 434:1 3057:1 4907:1 5843:1 8187:1 10289:1 11350:1 12210:1 21131:1 21288:1 21645:1 25007:1 26548:1 28360:1 29959:1 31730:1 35337:1 35691:1 36062:1 38740:1 39697:1 41727:1 42243:1 43597:1 43774:1 47137:1 47426:1 54979:1 57234:1 59144:1 59151:1 61041:24 61042:0.223 61043:1.232 61044:-0.313 61045:23 61046:1.677 61047:1.766 61048:-0.62 61049:2 61050:6 61051:4 61052:1 61053:3 61054:3 61055:1 61056:1 61060:3 61061:2 61064:4 
0.02268028713209061 1271:1 3748:1 13609:1 15305:1 15513:1 15767:1 18937:1 19353:1 22621:1 29138:1 30845:1 31492:1 31540:1 36062:1 36857:1 38334:1 42473:1 48395:1 51691:1 59206:1 61041:10 61042:2.837 61043:1.12 61044:0.438 61045:34 61046:1.398 61047:1.982 61048:0.478 61049:3 61050:3 61051:3 61052:3 61053:2 61054:1 61055:3 61056:2 61057:1 61059:1 61060:1 
0.07405296962175147 1915:1 2882:1 10078:1 16173:1 16329:1 17280:1 22394:1 24037:1 24952:1 25367:1 25372:1 28225:1 30153:1 32088:1 36463:1 39863:1 42398:1 44169:1 47003:1 48923:1 49329:1 54019:1 57367:1 57822:1 60179:1 60385:1 61041:17 61042:-2.607 61043:-4.999 61044:-0.572 61045:27 61046:1.113 61047:1.864 61048:0.567 61049:2 61050:6 61051:5 61053:3 61055:1 61056:3 61060:5 61064:13 
0.07599607204087291 1406:1 3235:1 5103:1 24877:1 25314:1 25372:1 26852:1 27168:1 31209:1 31311:1 33441:1 39201:1 39634:1 40982:1 47115:1 47559:1 48698:1 50359:1 50752:1 51154:1 55316:1 56783:1 61041:13 61042:0.155 61043:1.33 61044:1.33 61045:41 61046:-11.69 61047:-4.999 61048:-4.999 61049:2 61050:3 61051:4 61052:1 61053:1 61055:3 61056:3 61060:1 61063:1 
0.0251039675297063 321:1 981:1 1329:1 2031:1 5257:1 7854:1 8654:1 9484:1 10456:1 11461:1 18866:1 20124:1 21357:1 21379:1 26915:1 27997:1 28580:1 28735:1 30480:1 31691:1 38231:1 38737:1 39323:1 41420:1 42999:1 43384:1 44646:1 45797:1 47386:1 50725:1 55200:1 55289:1 55613:1 61003:1 61041:21 61042:1.019 61043:-4.999 61044:0.049 61045:22 61046:4.904 61047:1.12 61048:0.522 61049:4 61050:3 61051:3 61052:5 61053:3 61054:1 61056:1 61059:2 61060:2 61061:1 
0.07111579910660339 4116:1 10644:1 13315:1 18246:1 18526:1 23820:1 30186:1 31047:1 31088:1 32459:1 42878:1 45213:1 53048:1 53232:1 54059:1 57112:1 60244:1 60961:1 61041:12 61042:2.78 61043:1.435 61044:0.459 61045:23 61046:0.904 61047:5 61048:0.454 61049:1 61050:3 61051:5 61052:2 61053:2 61054:1 61055:1 61056:3 61057:1 61058:1 61060:2 61061:1 61064:18 
0.01585600304692734 415:1 1966:1 3390:1 8498:1 10138:1 14573:1 15511:1 23842:1 24042:1 29015:1 29116:1 33018:1 33136:1 35583:1 38151:1 38269:1 42156:1 44992:1 46829:1 46983:1 48156:1 49759:1 50201:1 52485:1 59044:1 59706:1 61041:13 61042:-0.24 61043:0.619 61044:0.619 61045:25 61046:3.9 61047:-1.313 61048:0.615 61049:4 61050:3 61051:2 61052:4 61053:1 61058:1 61060:2 61063:1 
0.004037141660789352 2418:1 5103:1 18185:1 18763:1 20214:1 23296:1 23905:1 27361:1 27865:1 27898:1 39669:1 39809:1 42207:1 43527:1 49102:1 50645:1 57118:1 57881:1 59778:1 61041:14 61042:0.828 61043:5 61044:5 61045:79 61046:-4.588 61047:1.171 61048:0.33 61049:1 61050:4 61051:5 61053:2 61055:4 61056:1 61058:2 61059:1 61060:1 
0.004317195105090932 2132:1 5672:1 7103:1 8345:1 8383:1 10999:1 11926:1 13191:1 13248:1 13628:1 14262:1 14610:1 15411:1 15585:1 18873:1 21671:1 22444:1 22531:1 23022:1 23827:1 24858:1 25094:1 25625:1 26055:1 26468:1 28638:1 30845:1 32296:1 33207:1 35452:1 37591:1 42393:1 42495:1 45131:1 50433:1 51428:1 51620:1 52512:1 53268:1 56541:1 56752:1 61041:30 61042:-1.258 61043:-4.999 61044:1.583 61045:29 61046:5.232 61047:1.22 61048:0.883 61049:8 61050:5 61051:4 61052:4 61053:3 61054:1 61055:1 61056:2 61057:2 61060:2 
0.02133533551004525 156:1 3755:1 4717:1 4984:1 5083:1 8576:1 11558:1 17449:1 19353:1 20295:1 21126:1 25032:1 25589:1 29978:1 31528:1 33093:1 34112:1 35566:1 37172:1 37476:1 41716:1 42527:1 42964:1 47768:1 49934:1 50539:1 52024:1 55330:1 60372:1 60434:1 61041:13 61042:2.116 61043:1.004 61044:0.049 61045:37 61046:-2.446 61047:0.948 61048:0.072 61049:5 61050:2 61051:2 61052:5 61053:2 61056:1 61060:1 61061:1 61062:1 61063:1 
0.07056768292629599 1905:1 7286:1 7761:1 10894:1 17023:1 24752:1 25573:1 28145:1 30229:1 35990:1 36152:1 41450:1 46432:1 50298:1 50306:1 50566:1 50810:1 54677:1 55675:1 60637:1 61041:9 61042:-3.777 61043:-1.363 61044:-0.041 61045:17 61046:-3.762 61047:2.087 61048:-0.774 61049:1 61050:1 61051:5 61052:3 61054:3 61055:2 61056:2 61059:1 61064:7 
0.06959467754501648 104:1 2574:1 4310:1 12709:1 16206:1 17087:1 17850:1 18132:1 19241:1 21457:1 23901:1 26283:1 28139:1 29952:1 33104:1 33798:1 34903:1 39804:1 47988:1 48678:1 49175:1 51872:1 61041:10 61042:-3.384 61043:-1.811 61044:0.017 61045:19 61046:-5.972 61047:-4.999 61048:-0.761 61049:2 61050:4 61051:4 61052:1 61053:1 61054:2 61055:1 61057:1 61058:1 61059:2 61060:3 
0.07493702182437838 5798:1 8730:1 12234:1 12361:1 19849:1 25046:1 26468:1 29015:1 43148:1 53621:1 59969:1 61041:9 61042:-4.066 61043:-1.812 61044:-0.116 61045:15 61046:-1.304 61047:-1.13 61048:0.62 61050:1 61051:3 61052:2 61053:2 61055:1 61059:1 61060:1 
0.04948321680587314 5962:1 9693:1 11175:1 12241:1 13538:1 22499:1 34957:1 35322:1 35412:1 42388:1 44628:1 50183:1 51986:1 52565:1 54794:1 57881:1 57890:1 60363:1 61041:15 61042:-0.94 61043:-1.723 61044:-0.356 61045:28 61046:0.724 61047:1.864 61048:1.864 61049:2 61050:3 61051:4 61052:1 61053:3 61054:2 61055:2 61056:1 61057:2 61059:1 61060:2 
0.03026753993295259 149:1 1996:1 2140:1 4216:1 5089:1 5956:1 19439:1 21390:1 22254:1 24886:1 25425:1 28330:1 30906:1 32109:1 36869:1 40781:1 42100:1 43002:1 48873:1 58759:1 61041:14 61042:-4.65 61043:-1.56 61044:0.372 61045:29 61046:-0.453 61047:1.171 61048:-0.62 61049:2 61050:1 61051:3 61052:2 61053:2 61055:2 61056:1 61057:1 61059:1 61062:1 
0.05268029879622115 3976:1 5103:1 6012:1 7339:1 8664:1 12397:1 13519:1 13534:1 14310:1 15240:1 20193:1 20322:1 20382:1 21188:1 21331:1 23187:1 24624:1 25372:1 29038:1 31804:1 32281:1 38425:1 39413:1 41226:1 42322:1 45687:1 49590:1 50781:1 51245:1 53412:1 53555:1 54596:1 57631:1 61041:23 61042:2.927 61043:-4.999 61044:2.124 61045:30 61046:3.335 61047:1.301 61048:-0.711 61049:3 61050:3 61051:9 61052:2 61053:4 61055:4 61056:2 61061:1 
0.04522252489697235 1812:1 2968:1 6235:1 6826:1 9562:1 11065:1 12013:1 12182:1 12975:1 13096:1 13979:1 14982:1 24062:1 24312:1 25257:1 25573:1 25622:1 29950:1 32473:1 32733:1 36127:1 36421:1 36863:1 37985:1 39203:1 40211:1 45179:1 47627:1 52553:1 55675:1 59398:1 61041:17 61042:0.246 61043:-1.221 61044:0.171 61045:36 61046:1.822 61047:1.552 61048:0.008 61049:3 61050:8 61051:6 61052:1 61053:3 61054:1 61055:1 61056:1 61057:2 61060:4 61064:6 
0.0376812091652371 3127:1 5103:1 22364:1 28627:1 31664:1 39864:1 44992:1 45877:1 50297:1 55934:1 61041:7 61042:0.568 61043:0.742 61044:0.742 61045:12 61046:0.487 61047:0.883 61048:0.478 61049:1 61050:2 61051:4 61052:2 61053:1 61055:1 61056:1 
0.0522983197202411 829:1 6945:1 10685:1 10720:1 16451:1 16608:1 17616:1 22645:1 23229:1 23573:1 24475:1 27547:1 27813:1 28101:1 29094:1 32138:1 34699:1 34940:1 39398:1 40006:1 42300:1 42831:1 43794:1 49120:1 50695:1 56414:1 56775:1 56810:1 56918:1 57230:1 59803:1 61041:19 61042:-6.707 61043:-2.754 61044:-0.376 61045:39 61046:-10.398 61047:-4.999 61048:-0.72 61049:4 61050:5 61051:1 61052:4 61053:3 61054:1 61056:2 61058:1 61060:2 61062:1 
0.04398443628067144 1729:1 3495:1 4684:1 5103:1 5458:1 5672:1 8559:1 9484:1 9776:1 12467:1 14635:1 16274:1 22164:1 25573:1 28655:1 30440:1 32226:1 32346:1 35746:1 41650:1 41966:1 48957:1 49419:1 51944:1 58656:1 59992:1 61041:16 61042:1.057 61043:0.974 61044:-0.289 61045:26 61046:2.186 61047:1.3 61048:1.052 61049:5 61050:4 61051:3 61052:1 61053:1 61054:1 61055:2 61059:1 61060:3 61061:2 
0.04357494306479331 1431:1 4525:1 4611:1 5103:1 7231:1 8559:1 9001:1 10967:1 12597:1 17433:1 23735:1 27361:1 30718:1 32816:1 34823:1 35478:1 36152:1 37230:1 38967:1 49113:1 49760:1 49988:1 50559:1 56207:1 56727:1 58630:1 58640:1 58847:1 59778:1 59992:1 61041:19 61042:1.948 61043:1.436 61044:-0.356 61045:32 61046:3.907 61047:1.052 61048:0.072 61049:2 61050:6 61051:6 61052:3 61053:5 61055:3 61059:1 61060:3 61061:1 61064:6 
0.04016899169477519 104:1 2060:1 3566:1 3655:1 9068:1 11570:1 11660:1 13492:1 13494:1 15230:1 15500:1 15584:1 18155:1 18392:1 22301:1 24411:1 25114:1 26313:1 26407:1 26819:1 26833:1 27672:1 27869:1 30824:1 32376:1 33438:1 35951:1 38123:1 40711:1 46179:1 48135:1 48149:1 51486:1 56558:1 56767:1 57085:1 60255:1 61041:24 61042:-0.539 61043:1.723 61044:-1.049 61045:35 61046:-0.611 61047:-4.999 61048:-0.232 61049:5 61050:10 61051:5 61052:1 61053:5 61054:3 61060:1 
0.02232151909615452 63:1 270:1 364:1 2224:1 5103:1 10610:1 12381:1 13293:1 14081:1 15781:1 18387:1 18591:1 21336:1 23067:1 26467:1 30633:1 30791:1 31358:1 33752:1 35140:1 37108:1 40834:1 40879:1 50659:1 51102:1 51916:1 53318:1 54510:1 56964:1 58932:1 59743:1 60744:1 61041:23 61042:0.585 61043:-4.999 61044:2.919 61045:38 61046:-1.698 61047:1.731 61048:0.284 61049:3 61050:6 61051:7 61053:5 61054:1 61055:2 61057:1 61058:2 61059:1 
0.05136344711268084 2337:1 6155:1 10859:1 11090:1 13743:1 18200:1 18246:1 21959:1 26945:1 27057:1 28087:1 30625:1 31088:1 31709:1 48477:1 49534:1 49993:1 52783:1 53204:1 56804:1 57112:1 60404:1 61041:14 61042:0.188 61043:-1.154 61044:-1.049 61045:42 61046:0.388 61047:1.289 61048:-0.001 61049:2 61050:2 61051:3 61052:6 61053:4 61054:1 61055:2 61060:2 61062:1 
0.002544632499550956 189:1 2690:1 3764:1 3918:1 5121:1 8864:1 11851:1 17955:1 18392:1 20970:1 21348:1 22873:1 23827:1 25325:1 27956:1 35479:1 39210:1 48188:1 56102:1 56365:1 57057:1 57881:1 59048:1 61041:14 61042:0.007 61043:-0.683 61044:-0.176 61045:26 61046:-1.598 61047:1.577 61048:0.609 61049:1 61050:1 61051:3 61052:6 61053:3 61054:1 61055:2 61059:1 61063:1 
0.0299587325371947 3120:1 8899:1 16972:1 18324:1 25851:1 27484:1 29966:1 31647:1 36098:1 37325:1 37693:1 38526:1 42953:1 48809:1 53078:1 53795:1 59464:1 61041:10 61042:4.465 61043:1.41 61044:0.961 61045:36 61046:-2.428 61047:-1.438 61048:0.861 61049:2 61050:1 61051:5 61052:2 61053:3 61054:2 61055:3 61056:2 61058:1 61059:1 61064:15 
0.001476275378902945 978:1 1342:1 3390:1 4124:1 5343:1 10483:1 13347:1 15002:1 17346:1 20911:1 21219:1 23455:1 26297:1 26965:1 28401:1 29621:1 32305:1 36816:1 38305:1 41182:1 43258:1 43314:1 46589:1 46989:1 49534:1 50134:1 53963:1 55190:1 56931:1 57647:1 61041:22 61042:4.722 61043:1.553 61044:0.049 61045:33 61046:1.063 61047:1.171 61048:-0.214 61049:1 61050:1 61051:6 61052:8 61053:4 61054:4 61055:1 61058:1 61060:2 
0.03267456167157408 889:1 990:1 1028:1 1812:1 4789:1 5677:1 6235:1 10197:1 13188:1 13294:1 13780:1 14911:1 16228:1 16676:1 20004:1 21684:1 23050:1 24820:1 26191:1 29862:1 34602:1 38178:1 39078:1 41420:1 43395:1 44591:1 48215:1 49081:1 49418:1 51002:1 53319:1 57667:1 61041:19 61042:3.443 61043:1.435 61044:0.765 61045:24 61046:-8.419 61047:-4.999 61048:-0.758 61049:4 61050:4 61051:3 61052:3 61053:4 61054:2 61056:1 61060:3 
0.0509903429534184 11851:1 17955:1 21348:1 25257:1 25711:1 29950:1 30764:1 33532:1 34206:1 36765:1 38767:1 46889:1 52726:1 61041:8 61042:-2.315 61043:-1.896 61044:0.568 61045:11 61046:-4.963 61047:-2.465 61048:-0.02 61049:1 61050:3 61051:1 61052:1 61053:1 61054:2 61060:1 
0.05114205956119219 3894:1 6432:1 12970:1 18715:1 20358:1 23000:1 26405:1 30900:1 34764:1 38690:1 40604:1 44763:1 45924:1 47573:1 49673:1 50710:1 54400:1 56054:1 56326:1 59226:1 61041:10 61042:3.19 61043:1.078 61044:0.854 61045:28 61046:1.215 61047:1.334 61048:0.149 61049:2 61050:4 61051:7 61053:3 61054:2 61055:3 61056:5 61057:1 61058:1 61061:1 61064:17 
0.03820867917239726 4480:1 4952:1 5044:1 5947:1 11299:1 11853:1 17226:1 20523:1 21235:1 35357:1 37407:1 42959:1 43666:1 43794:1 44266:1 48443:1 51254:1 52928:1 52982:1 55349:1 58424:1 59882:1 61041:12 61042:-0.772 61043:-2.202 61044:0.097 61045:24 61046:5.327 61047:2.311 61048:0.818 61049:3 61050:4 61051:1 61052:3 61053:1 61054:1 61058:1 61061:1 
0.1103615416152139 491:1 2274:1 3693:1 4229:1 5597:1 6766:1 13098:1 17305:1 21307:1 22413:1 23187:1 23861:1 24535:1 27361:1 31372:1 33061:1 33588:1 41478:1 41797:1 43794:1 43899:1 44056:1 48285:1 48495:1 49318:1 52176:1 53906:1 56675:1 61041:19 61042:-8.92 61043:-4.999 61044:0.385 61045:28 61046:-4.502 61047:1.601 61048:0.335 61049:2 61050:1 61051:3 61052:4 61053:3 61054:2 61056:3 61059:1 61062:1 61063:1 
0.04373913073128452 2998:1 5672:1 6597:1 8213:1 13963:1 14481:1 15185:1 16977:1 17367:1 17419:1 21751:1 22725:1 22789:1 25567:1 25569:1 28308:1 31131:1 31424:1 32761:1 34289:1 35326:1 35432:1 35989:1 38494:1 41633:1 41714:1 42291:1 42609:1 44866:1 45722:1 45841:1 45994:1 46365:1 47418:1 48219:1 48889:1 49256:1 54586:1 57133:1 60604:1 61041:22 61042:0.749 61043:-1.56 61044:0.872 61045:37 61046:-1.383 61047:-4.999 61048:-0.484 61049:10 61050:8 61051:5 61052:1 61053:2 61055:1 61056:1 61060:5 61064:3 
0.081531039033453 3147:1 5103:1 5688:1 6015:1 8554:1 8970:1 13602:1 14253:1 18263:1 18531:1 19309:1 20754:1 22504:1 25444:1 25573:1 26527:1 27803:1 30210:1 32675:1 34175:1 34823:1 35954:1 37126:1 37361:1 38305:1 38503:1 39879:1 46589:1 49760:1 50559:1 51335:1 51442:1 51926:1 53880:1 53906:1 57421:1 61041:27 61042:-10.164 61043:-2.452 61044:-2.452 61045:34 61046:3.49 61047:2.557 61048:0.1 61049:4 61050:7 61051:3 61052:2 61053:3 61054:2 61055:1 61056:3 61058:1 61060:2 61061:1 
0.2666662456220234 5920:1 6112:1 13538:1 13936:1 14268:1 14948:1 16812:1 17746:1 19862:1 20869:1 20882:1 26220:1 26773:1 28292:1 30625:1 31439:1 33834:1 34895:1 36497:1 39221:1 42871:1 43421:1 43542:1 44963:1 48047:1 49841:1 54202:1 60190:1 61041:15 61042:2.3 61043:1.147 61044:0.023 61045:29 61046:0.273 61047:1.577 61048:0.37 61049:1 61050:5 61051:1 61052:6 61053:2 61054:1 61060:1 61062:1 
0.001202480099048112 309:1 1560:1 2885:1 4208:1 5160:1 5324:1 6659:1 6702:1 8680:1 9619:1 11397:1 12280:1 15710:1 16274:1 17034:1 17776:1 29058:1 29537:1 29663:1 38721:1 38880:1 40253:1 48234:1 51282:1 54369:1 55074:1 60471:1 61041:16 61042:2.33 61043:1.147 61044:0.742 61045:27 61046:9.303 61047:2.27 61048:1.171 61049:1 61050:4 61051:5 61052:4 61053:2 61054:1 61057:1 61060:1 
0.02492957338787143 1207:1 4952:1 5364:1 5625:1 5672:1 7020:1 7689:1 12312:1 13538:1 14481:1 15668:1 16956:1 18201:1 18495:1 21738:1 22840:1 28655:1 29290:1 31305:1 32285:1 33752:1 35389:1 35478:1 44588:1 46804:1 47245:1 50799:1 54609:1 55321:1 55330:1 56940:1 57739:1 57890:1 58395:1 59787:1 61041:23 61042:6.017 61043:1.227 61044:0.101 61045:36 61046:-1.732 61047:-1.217 61048:0.478 61049:7 61050:4 61051:4 61052:2 61053:2 61055:2 61056:1 61060:3 61061:3 
0.04167417360822753 3127:1 5103:1 9926:1 14472:1 16012:1 24028:1 28627:1 34664:1 39650:1 45877:1 50297:1 54993:1 61041:7 61042:-0.719 61043:0.772 61044:-0.307 61045:9 61046:4.645 61047:1.784 61048:1.171 61050:3 61051:4 61052:1 61054:1 61056:1 61060:1 
0.01718241018275063 11558:1 12477:1 13538:1 20309:1 26033:1 27361:1 27454:1 29966:1 33337:1 34603:1 35989:1 37994:1 39127:1 41732:1 43014:1 52838:1 53078:1 53227:1 54785:1 61041:15 61042:-0.06 61043:-0.896 61044:-0.041 61045:26 61046:3.003 61047:1.577 61048:1.266 61049:1 61050:2 61051:2 61052:3 61053:2 61054:1 61055:1 61058:1 61059:1 61060:1 61061:1 
0.01984692787735169 2504:1 4907:1 10481:1 31627:1 34630:1 36209:1 42257:1 46666:1 50440:1 54363:1 58537:1 59655:1 60176:1 61041:5 61042:0.727 61043:0.933 61044:-0.356 61045:20 61046:-1.411 61047:-1.467 61048:-0.82 61049:2 61050:2 61053:2 61054:1 61057:1 61059:1 61060:1 
0.04926648645812357 1099:1 2501:1 7293:1 7812:1 8081:1 11851:1 12061:1 14744:1 17955:1 21348:1 22847:1 25655:1 27333:1 27617:1 34206:1 36505:1 42964:1 46889:1 48454:1 52726:1 52901:1 54279:1 54922:1 58932:1 59199:1 59978:1 60619:1 61041:12 61042:-2.645 61043:-1.896 61044:-0.51 61045:33 61046:-5.7 61047:-2.465 61048:-1.6 61049:1 61050:3 61051:2 61052:3 61053:3 61054:2 61055:1 61056:1 61057:1 61059:1 61060:5 61061:1 61063:2 
0.07551503783277969 444:1 5471:1 5562:1 6396:1 17457:1 22165:1 23827:1 34089:1 36662:1 49093:1 51794:1 52064:1 52801:1 53038:1 56293:1 56580:1 61041:12 61042:1.496 61043:-1.337 61044:0.049 61045:25 61046:-1.868 61047:-1.467 61048:0.754 61050:2 61051:4 61052:5 61053:4 61054:1 61055:2 61056:1 61060:5 
0.05491072564077131 109:1 394:1 3203:1 6357:1 8431:1 8708:1 9259:1 13609:1 14105:1 15305:1 19353:1 22500:1 25573:1 30152:1 30774:1 32745:1 36833:1 38206:1 38208:1 38818:1 39272:1 42473:1 42869:1 43197:1 43444:1 44494:1 44746:1 48324:1 55178:1 57977:1 61041:16 61042:-1.243 61043:-1.01 61044:0.272 61045:29 61046:-0.035 61047:-1.467 61048:0.478 61049:3 61050:4 61051:6 61052:5 61053:3 61054:2 61055:1 61060:1 
0.03867272485684473 397:1 528:1 532:1 1222:1 1828:1 4579:1 11570:1 13605:1 14722:1 20567:1 23385:1 23820:1 24946:1 25573:1 33038:1 36949:1 37822:1 40931:1 41442:1 42998:1 43777:1 46034:1 47183:1 55723:1 56299:1 56558:1 56768:1 57056:1 60931:1 61041:15 61042:-0.545 61043:-0.72 61044:0.473 61045:37 61046:4.206 61047:1.577 61048:0.842 61049:4 61050:5 61051:4 61053:3 61054:2 61055:3 61056:2 61057:1 61060:2 61063:1 
0.01986841083382986 189:1 1896:1 2990:1 4356:1 8903:1 17695:1 18392:1 19093:1 20369:1 21841:1 25561:1 25579:1 27111:1 28934:1 34583:1 35896:1 37787:1 38181:1 48389:1 49388:1 53469:1 58564:1 59526:1 61041:18 61042:-4.404 61043:-2.09 61044:0.537 61045:32 61046:-0.927 61047:-1.13 61048:0.547 61049:3 61050:2 61051:5 61052:3 61053:3 61055:4 61060:2 61064:5 
0.03818069894036177 2548:1 7519:1 8068:1 8599:1 10830:1 11211:1 13735:1 13983:1 17489:1 19582:1 20720:1 21720:1 23964:1 30625:1 34308:1 35140:1 36167:1 37352:1 38302:1 38310:1 38403:1 39644:1 43506:1 45137:1 49597:1 50891:1 51450:1 51729:1 55578:1 56307:1 61041:14 61042:-6.825 61043:-2.353 61044:1.147 61045:40 61046:-0.502 61047:1.209 61048:0.478 61049:4 61050:2 61051:3 61052:7 61053:3 61054:2 61057:1 61060:1 61062:1 
0.0283910598090661 4184:1 4664:1 7773:1 7776:1 9457:1 11110:1 11980:1 15172:1 16584:1 17694:1 18990:1 25621:1 34895:1 37976:1 38309:1 38383:1 38834:1 39092:1 40712:1 42119:1 42871:1 43542:1 48459:1 49519:1 51015:1 52623:1 54330:1 58664:1 60594:1 60837:1 61041:13 61042:0.472 61043:-0.992 61044:0.742 61045:24 61046:0.426 61047:1.171 61048:-0.316 61049:4 61050:5 61051:1 61052:5 61054:3 61056:1 61058:1 61060:1 61062:1 61064:4 
0.05729506607853727 320:1 1024:1 1170:1 1286:1 2637:1 8646:1 11171:1 11570:1 13064:1 13124:1 15959:1 16281:1 20190:1 21441:1 22304:1 22499:1 25573:1 28391:1 31881:1 34173:1 34553:1 38880:1 40870:1 41823:1 44088:1 44560:1 44832:1 46007:1 47774:1 50183:1 52479:1 56558:1 56767:1 58885:1 61015:1 61041:20 61042:1.573 61043:1.196 61044:-0.173 61045:38 61046:-2.479 61047:2.087 61048:2.087 61049:6 61050:2 61051:5 61052:2 61053:5 61054:1 61055:2 61056:3 61057:1 61058:1 61060:2 61061:1 
0.0133828271762244 332:1 5103:1 5109:1 5458:1 11836:1 14923:1 15332:1 16082:1 19779:1 20417:1 22459:1 30829:1 31804:1 35320:1 36691:1 38362:1 39164:1 39382:1 40182:1 40666:1 42527:1 47018:1 48055:1 48070:1 50518:1 50778:1 54608:1 57163:1 57992:1 59769:1 61041:21 61042:2.018 61043:5 61044:0.902 61045:26 61046:3.137 61047:2.446 61048:2.446 61049:2 61050:3 61051:5 61052:3 61053:3 61054:3 61055:2 61056:2 61059:1 61060:2 
0.05998003397511404 459:1 866:1 4474:1 6013:1 6286:1 14363:1 14797:1 15042:1 17701:1 19407:1 22035:1 23370:1 23412:1 26305:1 30164:1 30625:1 33035:1 39136:1 39304:1 41053:1 42494:1 43535:1 44083:1 46568:1 48696:1 49717:1 51892:1 51901:1 52276:1 56328:1 58682:1 58753:1 61041:13 61042:-0.548 61043:1.435 61044:0.742 61045:29 61046:-1.485 61047:1.109 61048:-0.214 61049:4 61050:2 61051:3 61052:5 61053:1 61054:2 61057:1 61060:1 61062:1 
0.05716603715849924 1147:1 1243:1 5285:1 8548:1 11079:1 13181:1 18344:1 18380:1 22676:1 25665:1 30476:1 32035:1 32275:1 33772:1 35814:1 36740:1 39598:1 41489:1 43248:1 45470:1 45738:1 46943:1 49310:1 54692:1 55657:1 56952:1 57575:1 58351:1 61041:17 61042:-1.033 61043:-4.999 61044:0.295 61045:32 61046:-4.71 61047:1.707 61048:0.108 61049:1 61050:4 61051:3 61052:3 61053:2 61054:1 61055:1 61060:3 61061:1 61062:1 
0.05989526694879418 730:1 4965:1 5103:1 8466:1 11926:1 12361:1 16836:1 16983:1 17598:1 20095:1 24136:1 25255:1 25372:1 25573:1 27056:1 27143:1 28329:1 28330:1 28655:1 29131:1 43001:1 43002:1 52283:1 53985:1 55482:1 55555:1 56541:1 61041:12 61042:-2.116 61043:0.991 61044:-0.802 61045:47 61046:0.265 61047:1.107 61048:-0.14 61049:9 61050:6 61051:5 61052:1 61053:2 61055:4 61060:1 
0.02743453650120388 96:1 930:1 2568:1 4959:1 6411:1 9110:1 10430:1 12207:1 13538:1 16189:1 16277:1 18550:1 21531:1 24090:1 29573:1 33371:1 33898:1 38021:1 40193:1 41924:1 44114:1 45668:1 47484:1 47723:1 48203:1 48941:1 53435:1 53452:1 53824:1 55415:1 56910:1 57917:1 57994:1 59108:1 60463:1 61041:20 61042:2.499 61043:0.98 61044:0.049 61045:25 61046:-4.035 61047:-4.999 61048:0.281 61049:2 61050:7 61052:5 61053:4 61054:4 61056:1 61058:1 61060:2 
0.008173218956699681 1694:1 2615:1 4750:1 7531:1 8182:1 9514:1 15068:1 17573:1 18032:1 18160:1 20042:1 21428:1 23788:1 26818:1 32239:1 32512:1 34569:1 41970:1 42358:1 42434:1 45179:1 47093:1 51763:1 54454:1 56787:1 59435:1 60770:1 61041:12 61042:4.174 61043:1.476 61044:0.336 61045:26 61046:1.839 61047:1.266 61048:0.168 61049:2 61050:2 61051:2 61052:4 61053:1 61054:2 61055:1 61057:1 61058:1 61059:1 61060:2 61063:1 
0.09616542071443333 1250:1 1345:1 3845:1 6292:1 9282:1 9875:1 11836:1 14253:1 14448:1 18508:1 19419:1 21803:1 31664:1 34481:1 44992:1 45013:1 48375:1 50534:1 61041:11 61042:-6.801 61043:-2.071 61044:-2.071 61045:19 61046:-2.425 61047:-1.718 61048:-0.056 61049:2 61050:2 61051:5 61052:3 61053:2 61055:1 61056:1 61060:2 61064:8 
0.01349528123056214 152:1 1170:1 5463:1 7406:1 9117:1 9836:1 14214:1 15511:1 16626:1 17214:1 18392:1 18985:1 23398:1 31665:1 33810:1 33820:1 36740:1 38030:1 38906:1 40905:1 44727:1 45049:1 50200:1 51828:1 56990:1 57296:1 59654:1 61041:11 61042:0.929 61043:0.633 61044:0.049 61045:29 61046:-1.554 61047:-0.907 61048:-0.032 61049:2 61050:3 61051:8 61052:3 61053:2 61054:3 61055:3 61056:2 61057:1 61058:3 
0.01400437913507581 1020:1 5672:1 9243:1 9484:1 18887:1 19564:1 20673:1 23773:1 25573:1 27351:1 28374:1 35746:1 38880:1 41801:1 44034:1 48191:1 61041:6 61042:2.176 61043:1.1 61044:0.498 61045:43 61046:-1.602 61047:-0.551 61048:0.011 61049:4 61050:1 61051:2 61052:3 61053:2 61055:3 61056:2 61059:1 
0.04392165795596313 4046:1 5103:1 5740:1 6501:1 8064:1 8773:1 10848:1 12182:1 14580:1 23269:1 29089:1 33185:1 37172:1 38733:1 40834:1 42850:1 49468:1 50339:1 55437:1 61041:12 61042:-3.135 61043:-1.399 61044:-1.399 61045:18 61046:0.399 61047:1.459 61048:-0.314 61049:2 61050:4 61051:4 61053:3 61055:3 61056:1 61064:2 
0.06754275133108245 2246:1 8638:1 9433:1 11570:1 15511:1 18619:1 21939:1 27377:1 40755:1 43014:1 46775:1 56558:1 60633:1 61041:4 61042:0.401 61043:0.522 61044:0.049 61045:24 61046:-4.013 61047:-0.809 61048:-0.437 61049:4 61050:1 61051:1 61052:1 61054:2 61055:1 61058:2 61059:1 61060:1 
0.04607928819565552 2722:1 2734:1 3571:1 3918:1 7214:1 8970:1 9484:1 9944:1 11371:1 23827:1 27865:1 29043:1 29839:1 31361:1 31875:1 32175:1 32209:1 33013:1 35746:1 39477:1 40101:1 43209:1 47237:1 47458:1 49299:1 58135:1 59068:1 59786:1 61041:18 61042:-0.461 61043:-1.648 61044:0.698 61045:30 61046:-1.001 61047:1.41 61048:1.41 61049:3 61050:4 61051:4 61052:3 61053:4 61054:1 61055:2 61059:3 61060:2 
0.04569021097091481 1083:1 1784:1 2732:1 5103:1 5458:1 5544:1 5672:1 8769:1 9872:1 9885:1 16028:1 16173:1 16733:1 21131:1 23895:1 25372:1 28236:1 30625:1 40851:1 41057:1 43198:1 47824:1 47949:1 51515:1 52569:1 53906:1 54062:1 54370:1 56923:1 60071:1 61041:17 61042:3.705 61043:1.571 61044:0.924 61045:42 61046:-0.725 61047:1.864 61048:-0.124 61049:7 61050:6 61051:4 61052:1 61054:1 61055:2 61060:1 61062:1 
0.02405162415175256 405:1 1537:1 2041:1 5798:1 7370:1 9641:1 10404:1 12045:1 12180:1 14104:1 17598:1 19980:1 20523:1 21765:1 22087:1 23827:1 25255:1 26468:1 26692:1 31668:1 33635:1 40079:1 41909:1 43412:1 44628:1 45025:1 47305:1 47888:1 50395:1 53775:1 53859:1 54459:1 54776:1 55236:1 56791:1 61041:21 61042:-0.919 61043:-1.812 61044:0.336 61045:27 61046:-3.454 61047:-1.13 61048:-0.005 61049:1 61050:2 61051:7 61052:7 61053:3 61054:1 61055:3 
0.05307462187423063 1864:1 2707:1 4988:1 5598:1 10669:1 15354:1 15997:1 16713:1 22286:1 23987:1 24732:1 25573:1 26402:1 27242:1 29130:1 29810:1 32122:1 32186:1 33170:1 33301:1 33954:1 34221:1 34811:1 36133:1 41492:1 44628:1 47963:1 51174:1 51822:1 53527:1 53598:1 54367:1 54570:1 55236:1 56591:1 60425:1 61041:19 61042:-1.118 61043:-0.978 61044:-0.643 61045:40 61046:-6.846 61047:-1.963 61048:-1.963 61049:5 61050:4 61051:6 61052:3 61053:6 61054:1 61055:3 61056:1 61059:1 61060:1 61061:1 
0.01727389348198957 3261:1 5560:1 6172:1 8685:1 12308:1 15940:1 19702:1 20275:1 21515:1 23827:1 25068:1 26136:1 26408:1 29767:1 30334:1 33522:1 38767:1 42821:1 43358:1 43875:1 48920:1 53812:1 54185:1 54712:1 55362:1 55812:1 57787:1 58311:1 58708:1 58836:1 59562:1 61041:21 61042:2.16 61043:1.435 61044:0.519 61045:30 61046:3.91 61047:1.171 61048:1.171 61049:2 61050:3 61051:3 61052:7 61053:3 61054:1 61060:1 61061:1 61063:1 
0.02228322781005337 3718:1 5557:1 11558:1 12997:1 13248:1 14987:1 15547:1 20971:1 23664:1 30625:1 33900:1 34122:1 35633:1 35916:1 36505:1 36947:1 37061:1 39127:1 40491:1 42388:1 44838:1 45837:1 46515:1 58637:1 58836:1 61041:13 61042:3.23 61043:1.147 61044:1.147 61045:22 61046:-0.61 61047:-0.91 61048:0.383 61049:1 61050:4 61051:3 61052:2 61053:1 61054:2 61057:1 61060:2 61062:1 
0.05106466439524776 3460:1 4578:1 8975:1 9282:1 11558:1 13538:1 14600:1 15115:1 15379:1 20181:1 22799:1 23666:1 26153:1 27361:1 39127:1 39782:1 41661:1 45233:1 46467:1 52428:1 53528:1 55643:1 57032:1 57324:1 59604:1 61041:14 61042:0.32 61043:-1.049 61044:-0.931 61045:27 61046:-0.69 61047:1.171 61048:-0.62 61049:2 61050:2 61051:3 61052:5 61053:4 61054:1 61055:3 61056:1 61059:1 61061:1 
0.06916972389450392 1318:1 4329:1 10934:1 10980:1 13859:1 21528:1 21728:1 25542:1 27326:1 33667:1 33710:1 41011:1 42075:1 42805:1 43105:1 46223:1 46927:1 47951:1 52586:1 57857:1 60556:1 61041:12 61042:1.387 61043:0.965 61044:-0.867 61045:34 61046:-5.39 61047:-4.999 61048:0.478 61049:2 61050:3 61051:6 61052:3 61053:3 61054:1 61055:2 61056:2 61057:2 61058:1 61059:1 61060:2 61064:20 
0.01334305128291886 4084:1 4205:1 5103:1 5672:1 6703:1 8078:1 9056:1 9587:1 10020:1 10644:1 11559:1 11953:1 13585:1 14668:1 14828:1 19485:1 20970:1 24189:1 24775:1 25372:1 26162:1 30955:1 32054:1 33687:1 33957:1 36690:1 37544:1 37932:1 38467:1 46019:1 47061:1 56934:1 59995:1 60902:1 61041:22 61042:10.161 61043:1.84 61044:0.742 61045:22 61046:-6.752 61047:-4.999 61048:0.478 61049:4 61050:3 61051:5 61052:4 61053:3 61054:2 61055:3 61060:2 61061:1 
0.009600703777518335 1881:1 8697:1 13049:1 18002:1 18566:1 20046:1 21457:1 21517:1 23694:1 29955:1 30016:1 33844:1 34122:1 38758:1 39518:1 42769:1 43840:1 44318:1 46329:1 46432:1 48773:1 50702:1 53965:1 57747:1 57881:1 58637:1 58836:1 61041:14 61042:2.248 61043:0.639 61044:0.336 61045:26 61046:-1.648 61047:0.883 61048:-0.62 61049:1 61050:3 61051:5 61052:1 61053:1 61054:2 61055:3 61056:1 61059:2 61060:2 
0.02803096679225651 3388:1 4091:1 4225:1 5564:1 6494:1 8269:1 17754:1 22371:1 26127:1 28162:1 33516:1 33786:1 33932:1 34478:1 35424:1 36332:1 39977:1 40135:1 43632:1 44170:1 47791:1 49361:1 52313:1 54267:1 55915:1 57284:1 58360:1 58830:1 61041:19 61042:-3.798 61043:-2.148 61044:0.049 61045:25 61046:8.553 61047:1.641 61048:-0.774 61049:4 61050:2 61051:7 61052:3 61053:1 61054:2 61055:1 61056:3 61060:1 
0.03070215530370402 1875:1 3170:1 3470:1 4513:1 12184:1 13104:1 13853:1 18462:1 19025:1 21826:1 22184:1 22849:1 24515:1 25314:1 25573:1 25761:1 25825:1 27692:1 32693:1 34738:1 35129:1 35290:1 35338:1 35437:1 37885:1 38540:1 41714:1 44322:1 45956:1 46589:1 46981:1 49534:1 49708:1 49811:1 50359:1 50794:1 51076:1 52838:1 53078:1 55960:1 56322:1 61041:31 61042:-7.734 61043:-3.018 61044:0.676 61045:49 61046:6.54 61047:1.436 61048:1.436 61049:5 61050:4 61051:4 61052:5 61053:6 61054:1 61055:2 61056:1 61057:1 61058:1 61060:4 
0.03823505486994543 343:1 3390:1 4579:1 5419:1 7155:1 12000:1 14793:1 21416:1 22345:1 28655:1 29127:1 33040:1 33871:1 34130:1 41249:1 41420:1 41464:1 42876:1 43804:1 45108:1 45125:1 48808:1 50903:1 51906:1 52242:1 55834:1 56558:1 61041:19 61042:2.799 61043:1.007 61044:-0.173 61045:34 61046:-4.783 61047:-4.999 61048:-0.154 61049:1 61050:4 61051:4 61052:2 61053:3 61054:2 61055:3 61056:1 61058:1 61059:1 61060:3 61061:3 
0.04532973324778391 415:1 3390:1 3661:1 3957:1 5977:1 6631:1 7708:1 7925:1 9587:1 10900:1 11396:1 12234:1 16651:1 18004:1 18703:1 19627:1 20106:1 25573:1 26106:1 29015:1 29053:1 29159:1 31561:1 33944:1 39323:1 39566:1 42196:1 46456:1 47445:1 48360:1 49455:1 51735:1 52120:1 53906:1 56768:1 61041:22 61042:0.478 61043:-1.297 61044:0.017 61045:44 61046:2.723 61047:2.017 61048:-0.361 61049:5 61050:3 61051:4 61052:5 61053:3 61054:2 61055:3 61056:2 61057:2 61058:1 61060:1 
0.02241217087510974 1170:1 9484:1 11738:1 12289:1 18200:1 18735:1 20060:1 21785:1 24208:1 24872:1 26468:1 27534:1 28158:1 28593:1 30845:1 31079:1 32330:1 34178:1 36031:1 38098:1 44430:1 45648:1 47238:1 50840:1 53578:1 54330:1 58903:1 61041:13 61042:3.435 61043:2.064 61044:-0.402 61045:46 61046:-8.84 61047:-0.91 61048:-0.725 61049:4 61050:1 61051:6 61052:4 61054:1 61055:3 61056:1 61057:1 61058:2 61059:1 61060:1 61062:1 
0.156483099930354 3390:1 7518:1 10922:1 11570:1 21364:1 23096:1 28658:1 32214:1 38880:1 41172:1 41823:1 42930:1 44134:1 45187:1 47252:1 47579:1 56558:1 61041:12 61042:-2.003 61043:-1.049 61044:-1.049 61045:15 61046:6.056 61047:1.325 61048:0.908 61049:2 61050:5 61052:1 61053:2 61054:1 61057:1 61058:1 61060:1 
0.01087043257937084 2136:1 13607:1 17211:1 23827:1 27380:1 32285:1 34262:1 35953:1 36042:1 36355:1 39990:1 54651:1 58063:1 58129:1 59215:1 61041:8 61042:2.151 61043:-1.457 61044:0.611 61045:22 61046:10.012 61047:2.152 61048:0.562 61049:2 61050:2 61051:1 61052:3 61053:2 61054:1 61058:1 61060:2 61063:1 
0.05213244871852413 1522:1 2804:1 5460:1 5672:1 10297:1 11968:1 12007:1 13899:1 16828:1 17255:1 19121:1 20617:1 28556:1 29508:1 29738:1 30625:1 33715:1 34933:1 36711:1 37172:1 38171:1 40570:1 40804:1 41003:1 41372:1 46821:1 47136:1 48666:1 51086:1 52230:1 52776:1 58098:1 59324:1 61041:16 61042:-1.74 61043:-1.943 61044:0.727 61045:41 61046:0.007 61047:1.114 61048:0.478 61049:4 61050:3 61051:5 61052:6 61053:2 61054:2 61060:3 61062:1 
0.05288842024950326 1170:1 4386:1 7711:1 7981:1 15929:1 17608:1 23579:1 24214:1 27387:1 28954:1 49048:1 49807:1 53937:1 56453:1 57364:1 59122:1 61041:11 61042:-4.248 61043:-1.896 61044:0.049 61045:14 61046:-0.194 61047:-0.62 61048:0.618 61049:2 61050:2 61051:4 61052:1 61054:1 61055:1 61058:2 61060:1 
0.01996732963772983 1170:1 2565:1 3315:1 4277:1 5763:1 6756:1 11209:1 17616:1 19201:1 28544:1 30710:1 31934:1 34466:1 37343:1 38593:1 39342:1 43497:1 47172:1 49238:1 52642:1 53097:1 53194:1 54380:1 55812:1 57119:1 58023:1 61041:12 61042:-0.163 61043:-1.15 61044:0.454 61045:41 61046:-1.409 61047:-1.483 61048:0.478 61049:4 61050:3 61051:3 61052:2 61053:5 61054:1 61055:2 61056:3 61057:3 61058:1 61059:1 61060:1 61061:2 
0.01404080045046528 506:1 545:1 3495:1 4119:1 4388:1 4482:1 4495:1 5672:1 6685:1 7355:1 9484:1 11230:1 14918:1 20736:1 23544:1 26683:1 35205:1 35746:1 37825:1 38767:1 41052:1 45015:1 45533:1 45975:1 46798:1 46840:1 51877:1 52994:1 55122:1 61041:12 61042:5.985 61043:2.246 61044:-0.392 61045:36 61046:-9.043 61047:-4.999 61048:-0.122 61049:4 61050:3 61051:1 61052:3 61053:5 61055:1 61057:2 61058:1 61059:1 61060:5 61061:1 61063:1 
0.03799641465162945 2050:1 5103:1 7668:1 8312:1 10056:1 20366:1 21024:1 21048:1 21682:1 22620:1 23709:1 24973:1 28828:1 32598:1 33752:1 35666:1 39834:1 40591:1 44654:1 46381:1 46910:1 47097:1 52949:1 61041:18 61042:3.023 61043:2.128 61044:-0.643 61045:24 61046:-4.259 61047:-4.999 61048:-1.313 61049:2 61050:5 61051:5 61052:1 61053:1 61054:1 61055:2 61056:2 61059:1 61060:3 
0.002892458771417604 735:1 2243:1 2906:1 9484:1 11889:1 13078:1 14759:1 15430:1 16657:1 23654:1 25165:1 25341:1 25526:1 27373:1 29448:1 30164:1 32175:1 33136:1 34154:1 36415:1 37241:1 38275:1 40758:1 41945:1 42156:1 47730:1 49018:1 51443:1 55119:1 61041:14 61042:2.807 61043:-2.148 61044:-0.526 61045:28 61046:2.858 61047:2.301 61048:-0.62 61049:4 61050:2 61051:4 61052:5 61053:3 61054:2 61055:1 61057:1 61059:1 
0.01961229665978909 2418:1 3127:1 4185:1 5103:1 10644:1 12723:1 15163:1 15379:1 17962:1 18744:1 18796:1 19399:1 19689:1 22364:1 27865:1 32953:1 38467:1 38758:1 44992:1 45877:1 47069:1 47426:1 48234:1 48589:1 48924:1 54503:1 54800:1 55847:1 58686:1 58830:1 58837:1 61041:26 61042:-7.665 61043:-4.999 61044:0.452 61045:29 61046:-1.751 61047:1.171 61048:0.868 61049:3 61050:5 61051:3 61052:2 61053:2 61055:2 61056:1 61058:2 61059:1 61060:3 61061:2 
0.05820452411522931 1249:1 2010:1 2123:1 5103:1 7877:1 22525:1 34260:1 35993:1 45494:1 45977:1 54087:1 61041:9 61042:-0.132 61043:-1.103 61044:0.636 61045:12 61046:-0.245 61047:-1.199 61048:0.883 61050:4 61051:3 61053:1 61055:1 61056:1 61060:1 
0.08707133937894766 3495:1 8318:1 9579:1 12983:1 19724:1 20105:1 23110:1 23268:1 23820:1 28379:1 29599:1 42214:1 55675:1 61041:6 61042:-0.736 61043:-0.353 61044:0.179 61045:25 61046:-2.508 61047:1.171 61048:-0.485 61049:2 61050:3 61051:4 61052:1 61053:5 61054:1 61055:1 61057:1 61060:4 61061:1 
0.02060713165498263 5381:1 7280:1 8849:1 9587:1 10300:1 13861:1 15953:1 16382:1 17135:1 22866:1 23187:1 28062:1 29537:1 37601:1 41172:1 42225:1 46822:1 49634:1 53414:1 55164:1 56266:1 56796:1 61041:14 61042:2.327 61043:1.658 61044:0.272 61045:24 61046:1.259 61047:2.509 61048:2.509 61049:2 61050:1 61051:5 61052:3 61053:2 61054:1 61055:1 61056:1 61057:1 61060:1 61061:1 61064:2 
0.004739157905101357 189:1 725:1 2436:1 2651:1 4290:1 7510:1 9947:1 12016:1 12443:1 16617:1 18392:1 19394:1 20473:1 21175:1 21339:1 22599:1 24804:1 25573:1 26622:1 29655:1 30241:1 34742:1 37351:1 39598:1 41405:1 48584:1 50704:1 53102:1 57153:1 57539:1 57912:1 61041:18 61042:3.638 61043:1.189 61044:1.147 61045:18 61046:1.208 61047:1.982 61048:1.982 61049:1 61050:4 61051:3 61052:5 61053:3 61054:1 61055:3 61060:2 
0.03101786402636621 3751:1 3851:1 5442:1 5623:1 11023:1 11733:1 13531:1 14705:1 16151:1 17230:1 19731:1 21374:1 23827:1 27274:1 27417:1 32686:1 33121:1 34058:1 36355:1 40139:1 43655:1 46439:1 51118:1 54185:1 58932:1 61041:14 61042:2.178 61043:2.128 61044:2.128 61045:23 61046:-4.725 61047:-4.999 61048:0.562 61049:2 61050:1 61051:4 61052:5 61053:2 61054:1 61055:2 61056:1 
0.02019948690599681 313:1 3170:1 8105:1 9848:1 11173:1 13293:1 14133:1 16376:1 17558:1 18775:1 19861:1 23067:1 25573:1 26964:1 28822:1 35282:1 39860:1 42898:1 50659:1 51028:1 53906:1 54034:1 54219:1 56334:1 56767:1 56804:1 61041:17 61042:1.632 61043:-1.651 61044:-1.651 61045:31 61046:-1.791 61047:-1.636 61048:0.811 61049:4 61050:3 61051:5 61052:2 61053:3 61054:3 61055:1 61056:3 61060:2 61064:4 
0.01530704677990555 3094:1 4397:1 4806:1 5918:1 6923:1 7026:1 7706:1 9638:1 10491:1 11558:1 14275:1 20774:1 23314:1 23927:1 24838:1 25161:1 25393:1 29416:1 34179:1 36718:1 41628:1 42743:1 48600:1 50112:1 54360:1 56768:1 60909:1 61041:17 61042:4.154 61043:1.658 61044:-0.068 61045:34 61046:1.028 61047:2.27 61048:0.008 61049:2 61050:2 61051:4 61052:5 61053:4 61054:3 61055:2 61056:1 61057:1 61058:1 61060:2 
0.003373743028715578 2818:1 6466:1 20596:1 22444:1 22504:1 26055:1 29309:1 38876:1 51428:1 52692:1 61041:6 61042:0.249 61043:1.348 61044:-1.272 61045:11 61046:4.188 61047:2.637 61048:0.118 61050:2 61051:4 61052:2 61053:2 61054:1 61056:1 61060:1 
0.01982098695727486 2418:1 4216:1 14093:1 18763:1 19961:1 21556:1 23083:1 23368:1 24162:1 26205:1 27865:1 28690:1 34603:1 35989:1 44434:1 49666:1 51234:1 51693:1 58759:1 58862:1 59841:1 60201:1 61041:20 61042:-6.08 61043:-2.044 61044:-1.33 61045:22 61046:-1.254 61047:1.137 61048:-0.83 61050:1 61051:3 61052:2 61053:3 61055:3 61056:2 61059:1 
0.05356392081030392 4620:1 11272:1 12342:1 12991:1 13020:1 16452:1 16880:1 19519:1 21171:1 21239:1 24729:1 24793:1 25809:1 28655:1 29354:1 29922:1 30577:1 31136:1 31591:1 35116:1 39376:1 40989:1 44741:1 47105:1 47109:1 48920:1 52379:1 55482:1 61041:22 61042:1.082 61043:1.553 61044:1.342 61045:38 61046:1.695 61047:2.127 61048:0.65 61049:2 61050:5 61051:7 61052:4 61053:3 61054:1 61055:3 61056:1 61058:3 61060:3 61064:1 
0.08450740461760407 1170:1 4803:1 5103:1 7659:1 13450:1 23808:1 25372:1 31934:1 35777:1 43957:1 52104:1 61041:6 61042:3.357 61043:1.658 61044:1.658 61045:16 61046:-1.762 61047:-0.643 61048:-0.437 61049:2 61050:2 61051:3 61052:1 61053:2 61055:2 61058:1 61059:1 61060:1 61061:1 
0.003436709406771204 444:1 2678:1 3390:1 5740:1 6382:1 8929:1 10183:1 11546:1 12657:1 14389:1 15465:1 18562:1 21457:1 24151:1 25465:1 27604:1 27869:1 33909:1 35424:1 36740:1 39236:1 41205:1 45050:1 45883:1 51794:1 57085:1 61041:16 61042:6.273 61043:1.575 61044:0.049 61045:40 61046:-0.712 61047:1.208 61048:0.596 61049:2 61050:3 61051:4 61052:2 61053:4 61054:2 61056:2 61059:2 61060:3 
0.0579937989228894 5672:1 7285:1 12827:1 16106:1 16775:1 17643:1 17808:1 18223:1 19832:1 20328:1 23817:1 31082:1 31215:1 31906:1 37011:1 42867:1 44391:1 45305:1 45873:1 47135:1 49110:1 49558:1 51431:1 53202:1 55065:1 56558:1 56947:1 58435:1 61041:13 61042:3.728 61043:1.253 61044:1.147 61045:34 61046:2.67 61047:5 61048:0.072 61049:8 61050:2 61051:4 61052:6 61053:1 61055:1 61056:2 61059:1 
0.03280114055073116 5962:1 9282:1 9587:1 13428:1 13556:1 17012:1 18145:1 18458:1 19255:1 19284:1 19922:1 21457:1 23546:1 27254:1 27361:1 28811:1 29189:1 30489:1 31038:1 38745:1 42965:1 43383:1 48302:1 48380:1 49695:1 52648:1 54794:1 55004:1 60333:1 61041:15 61042:3.188 61043:-1.56 61044:1.03 61045:24 61046:0.458 61047:-1.13 61048:0.883 61049:2 61050:6 61051:4 61052:1 61053:3 61054:2 61057:1 61059:2 61060:2 
0.03244519688643465 522:1 707:1 1978:1 5103:1 8970:1 13953:1 17289:1 19961:1 20326:1 21169:1 21598:1 22394:1 23672:1 24344:1 25372:1 25942:1 32285:1 34328:1 34868:1 35458:1 37814:1 40052:1 42365:1 44251:1 47504:1 53169:1 54277:1 55135:1 56807:1 58924:1 60252:1 61041:14 61042:0.686 61043:1.51 61044:-0.133 61045:31 61046:1.63 61047:1.722 61048:1.722 61049:3 61050:6 61051:2 61052:1 61053:6 61054:1 61056:1 61057:2 61060:1 61061:1 61063:1 
0.02729955594085126 5947:1 11050:1 15940:1 21235:1 24535:1 27361:1 35453:1 42600:1 43115:1 43794:1 44684:1 51003:1 52358:1 55349:1 55812:1 61041:11 61042:1.455 61043:-1.049 61044:0.284 61045:13 61046:4.648 61047:2.311 61048:2.311 61050:4 61051:1 61052:1 61053:2 61060:2 61063:1 
0.01981283863306247 2544:1 2712:1 4513:1 4744:1 5335:1 5743:1 10639:1 11112:1 13528:1 14521:1 15522:1 16737:1 19302:1 21426:1 22623:1 22820:1 24766:1 25408:1 25573:1 28936:1 29645:1 30164:1 32857:1 33781:1 34928:1 38975:1 39986:1 46135:1 50256:1 51192:1 51815:1 53837:1 54831:1 55465:1 56775:1 58747:1 60820:1 60864:1 61041:23 61042:3.796 61043:-2.515 61044:-0.135 61045:44 61046:2.438 61047:-1.33 61048:0.227 61049:7 61050:2 61051:5 61052:5 61053:6 61054:2 61055:2 61056:2 61060:2 
0.04444225609261853 376:1 2136:1 6841:1 9971:1 10672:1 11590:1 13683:1 15028:1 15511:1 17210:1 20836:1 23112:1 23827:1 30625:1 30681:1 31233:1 33909:1 36329:1 36355:1 41205:1 41638:1 42388:1 42997:1 43253:1 49044:1 51707:1 53379:1 53787:1 55974:1 60535:1 61041:18 61042:2.086 61043:-1.987 61044:0.519 61045:43 61046:-5.223 61047:-4.999 61048:-4.999 61049:4 61050:2 61051:5 61052:5 61053:1 61058:1 61060:4 61062:1 
0.02786649104475821 240:1 4848:1 5319:1 8401:1 10456:1 14084:1 15959:1 22013:1 27377:1 28330:1 30519:1 31226:1 32812:1 34488:1 35074:1 37296:1 38232:1 38902:1 43395:1 45054:1 45274:1 48056:1 50565:1 52539:1 53671:1 61041:18 61042:1.161 61043:-1.713 61044:-0.712 61045:36 61046:-3.491 61047:-4.999 61048:0.061 61049:2 61050:4 61051:4 61052:2 61053:2 61054:3 61055:1 61056:1 61058:1 61059:1 61060:4 61061:1 61064:9 
0.05315823568219983 339:1 2418:1 2952:1 5103:1 6471:1 10547:1 11285:1 11317:1 12366:1 15425:1 18200:1 18514:1 19998:1 20747:1 21474:1 24355:1 25372:1 27865:1 29821:1 29919:1 34119:1 36213:1 36725:1 38767:1 42095:1 44001:1 46353:1 46562:1 46642:1 50490:1 50657:1 54675:1 55968:1 61041:23 61042:-7.72 61043:-3.169 61044:1.147 61045:25 61046:-2.778 61047:-2.086 61048:0.478 61049:3 61050:4 61051:5 61052:2 61053:2 61054:1 61055:2 61056:5 61058:1 61060:1 
0.003543464215785908 716:1 1555:1 6235:1 8372:1 9346:1 11558:1 12013:1 12394:1 12905:1 15729:1 16050:1 19167:1 24356:1 27603:1 29663:1 29765:1 30625:1 31709:1 37721:1 38263:1 39127:1 41626:1 42114:1 42814:1 50909:1 52964:1 53460:1 53910:1 55636:1 56859:1 57823:1 61041:19 61042:3.819 61043:0.978 61044:-0.774 61045:38 61046:-1.03 61047:2.183 61048:0.478 61049:3 61050:4 61051:2 61052:8 61053:2 61054:1 61058:1 61060:3 61062:1 
0.02819115976210507 966:1 4190:1 4907:1 5440:1 6161:1 8187:1 8695:1 12845:1 13467:1 13479:1 27186:1 35167:1 37000:1 37191:1 38740:1 42604:1 43774:1 44155:1 48311:1 53856:1 55750:1 55860:1 57202:1 57234:1 61041:16 61042:-2.9 61043:-2.073 61044:-2.073 61045:50 61046:-0.737 61047:1.766 61048:-0.573 61049:3 61050:2 61051:4 61052:1 61053:4 61054:2 61055:3 61056:1 61058:1 61059:1 61060:1 
0.06367792626903335 706:1 926:1 1106:1 2933:1 5103:1 15871:1 22951:1 23293:1 23687:1 24946:1 33070:1 34715:1 35349:1 39224:1 46156:1 46526:1 51190:1 56558:1 58258:1 61041:15 61042:2.598 61043:1.658 61044:0.351 61045:29 61046:-6.115 61047:-4.999 61048:-4.999 61049:1 61050:4 61051:7 61052:1 61053:7 61054:1 61055:2 61056:2 61058:1 61060:2 61063:1 
0.02745480880005985 5068:1 6078:1 13538:1 16250:1 17388:1 20475:1 21980:1 22126:1 23365:1 24214:1 26751:1 32814:1 33301:1 34755:1 35257:1 35452:1 35694:1 40242:1 40599:1 41408:1 42161:1 42179:1 42997:1 43642:1 49948:1 53914:1 54071:1 56671:1 57273:1 59358:1 60124:1 61041:19 61042:1.891 61043:1.563 61044:1.563 61045:21 61046:1.415 61047:1.712 61048:-0.326 61049:1 61050:4 61051:5 61052:5 61053:6 61054:1 61055:1 61056:1 61057:1 61060:1 
0.06279976544762578 56:1 4216:1 8055:1 9154:1 10844:1 12954:1 13281:1 14014:1 14026:1 16956:1 19897:1 25573:1 28314:1 28370:1 28784:1 31685:1 36062:1 38394:1 38822:1 39398:1 40349:1 40874:1 41127:1 43297:1 45213:1 45367:1 46514:1 47105:1 51544:1 55629:1 56810:1 59868:1 61041:26 61042:-11.026 61043:-4.999 61044:-0.643 61045:21 61046:3.019 61047:1.066 61048:-0.314 61049:1 61050:4 61051:4 61052:1 61053:4 61054:1 61055:1 61056:1 61058:1 61059:1 61060:4 
0.0009071653706231306 1999:1 5060:1 6823:1 8365:1 9744:1 11558:1 12492:1 13609:1 15305:1 19353:1 20448:1 20716:1 26525:1 31875:1 33769:1 36852:1 37622:1 37797:1 39226:1 42692:1 45725:1 47905:1 50429:1 54824:1 55222:1 57813:1 61041:13 61042:4.188 61043:1.301 61044:1.301 61045:42 61046:-0.76 61047:1.171 61048:0.034 61049:3 61051:6 61052:4 61053:1 61054:1 61055:1 61058:2 61059:2 61060:2 61062:1 61063:1 
0.04758779679122779 192:1 1666:1 1962:1 7926:1 8260:1 9587:1 10960:1 13889:1 14490:1 14705:1 15199:1 16644:1 18715:1 19234:1 20719:1 23892:1 30795:1 32330:1 36347:1 37705:1 40270:1 42378:1 42956:1 46432:1 52179:1 52837:1 54972:1 58638:1 60299:1 61041:17 61042:1.636 61043:1.384 61044:1.384 61045:27 61046:-1.527 61047:-1.053 61048:-0.31 61049:3 61050:3 61051:4 61052:3 61053:3 61054:3 61056:1 61059:1 61060:3 
0.08426944786908387 730:1 12795:1 14078:1 14705:1 16857:1 20508:1 26848:1 29804:1 32330:1 39047:1 40270:1 47224:1 48513:1 48937:1 50397:1 52837:1 57839:1 61041:7 61042:1.519 61043:1.03 61044:-0.643 61045:22 61046:-8.513 61047:-1.661 61048:0.267 61049:2 61050:2 61051:5 61052:3 61053:2 61054:2 61055:3 61060:2 
0.02684902820385079 15959:1 18619:1 20206:1 44288:1 54645:1 56558:1 60678:1 61041:6 61042:2.635 61043:1.196 61044:0.508 61045:14 61046:-0.454 61047:1.982 61048:0.19 61049:2 61050:1 61051:2 61053:1 61054:1 61055:1 61057:1 61060:1 
0.02169651526849175 50:1 8697:1 9387:1 10219:1 11646:1 16104:1 20326:1 24734:1 25951:1 33155:1 38984:1 40334:1 41300:1 46461:1 47348:1 49736:1 53084:1 55713:1 55890:1 56200:1 56830:1 57091:1 61041:9 61042:0.952 61043:1.812 61044:-1.56 61045:21 61046:2.932 61047:2.183 61048:-0.077 61049:1 61050:2 61051:5 61052:2 61053:2 61054:1 61055:3 61059:1 61061:1 61063:2 
0.07085780311566946 4907:1 9668:1 10030:1 13519:1 14923:1 17424:1 17803:1 20610:1 23859:1 23908:1 26127:1 26927:1 27420:1 27682:1 27891:1 30622:1 33412:1 35293:1 35313:1 36706:1 38740:1 40182:1 41510:1 43774:1 44493:1 47105:1 47443:1 47976:1 52454:1 54006:1 54559:1 55812:1 57007:1 57234:1 59170:1 59290:1 61041:27 61042:-3.473 61043:-2.004 61044:1.293 61045:26 61046:1.816 61047:1.766 61048:-0.632 61049:2 61050:7 61051:6 61052:1 61053:3 61054:2 61056:1 61058:2 61060:5 
0.007510442857317049 1170:1 4821:1 4871:1 5840:1 17348:1 17539:1 18118:1 22013:1 22154:1 25465:1 25621:1 27359:1 29903:1 30625:1 31318:1 32012:1 39383:1 44267:1 45092:1 46093:1 46648:1 49792:1 54094:1 61041:12 61042:3.513 61043:0.59 61044:0.454 61045:37 61046:-3.327 61047:1.289 61048:0.478 61049:3 61050:1 61051:4 61052:3 61054:2 61055:1 61056:1 61058:2 61060:3 61062:1 
0.0267697026494402 1929:1 5048:1 5140:1 5987:1 7580:1 14119:1 17795:1 19212:1 20970:1 21817:1 24827:1 28756:1 33100:1 33182:1 34088:1 35815:1 36062:1 39143:1 41653:1 42388:1 42974:1 49273:1 54615:1 55382:1 56769:1 58738:1 60281:1 61041:18 61042:1.651 61043:-0.98 61044:0.55 61045:23 61046:-2.522 61047:-1.313 61048:0.36 61049:3 61050:2 61051:3 61052:5 61053:2 61055:1 61057:1 61060:1 61061:1 
0.008436876777584208 8517:1 10755:1 10955:1 14591:1 15575:1 17394:1 20120:1 21165:1 21441:1 22232:1 22497:1 25573:1 28501:1 30062:1 32940:1 33124:1 34603:1 35501:1 35989:1 36812:1 43014:1 43622:1 43814:1 46775:1 47513:1 47949:1 48523:1 49650:1 52294:1 55243:1 56392:1 57468:1 61041:13 61042:4.492 61043:1.84 61044:-0.356 61045:46 61046:-10.963 61047:-1.872 61048:0.072 61049:8 61050:2 61051:4 61053:2 61055:4 61058:2 61059:1 61061:2 
0.01683161268614645 18265:1 18619:1 18994:1 20204:1 22116:1 25483:1 31565:1 40344:1 42219:1 44057:1 46336:1 56558:1 61041:10 61042:3.922 61043:1.995 61044:0.579 61045:17 61046:2.023 61047:1.552 61048:1.552 61050:2 61051:2 61052:2 61053:2 61054:2 61056:1 61057:1 61058:1 61060:2 61061:1 61064:11 
0.01083698494539875 730:1 3570:1 4382:1 5103:1 9444:1 11234:1 11926:1 12082:1 12776:1 12912:1 15511:1 18072:1 25372:1 26661:1 27039:1 27361:1 30194:1 30475:1 36062:1 36454:1 36857:1 38767:1 39477:1 40814:1 42886:1 43857:1 44260:1 45458:1 53268:1 56086:1 56541:1 58435:1 60538:1 61041:23 61042:-2.924 61043:-2.286 61044:-2.009 61045:38 61046:9.795 61047:2.223 61048:-0.551 61049:4 61050:7 61051:3 61052:3 61053:5 61054:3 61055:1 61056:1 61058:1 61060:3 
0.3188059597370747 1045:1 2050:1 5920:1 6112:1 13538:1 14268:1 16812:1 17746:1 18449:1 19862:1 20869:1 20882:1 26220:1 26773:1 30625:1 31439:1 33834:1 34895:1 35131:1 36497:1 39221:1 42009:1 42871:1 43421:1 43542:1 44963:1 54081:1 60190:1 61041:15 61042:2.648 61043:1.147 61044:0.16 61045:29 61046:-0.058 61047:1.577 61048:-0.62 61049:2 61050:7 61051:1 61052:6 61053:2 61054:1 61060:1 61062:1 
0.03303163266230477 4367:1 19433:1 20296:1 21193:1 22850:1 24002:1 26113:1 26925:1 29820:1 48332:1 52356:1 56558:1 60586:1 61041:11 61042:1.475 61043:0.791 61044:0.285 61045:13 61046:4.469 61047:1.336 61048:1.018 61049:1 61050:6 61051:2 61053:1 61060:1 61061:1 61064:5 
0.01220245897964615 2548:1 4415:1 4903:1 7136:1 7428:1 8721:1 9966:1 10934:1 11763:1 13518:1 14460:1 14582:1 15230:1 15374:1 16085:1 16950:1 17413:1 19437:1 23923:1 24602:1 27800:1 30336:1 30651:1 36338:1 39001:1 47634:1 48035:1 50376:1 50891:1 55674:1 61041:18 61042:2.701 61043:1.84 61044:0.416 61045:21 61046:3.543 61047:2.047 61048:2.047 61049:1 61050:4 61051:4 61052:2 61053:4 61054:5 61055:1 61056:1 61057:1 61059:1 61060:1 
0.03344195055366249 4027:1 4382:1 5537:1 8987:1 10711:1 11006:1 11754:1 16435:1 18392:1 18853:1 22951:1 24367:1 29659:1 30646:1 32175:1 32841:1 36590:1 45542:1 47105:1 50676:1 54027:1 56008:1 56370:1 61041:12 61042:2.456 61043:1.063 61044:-0.867 61045:20 61046:-5.898 61047:-4.999 61048:0.883 61049:1 61050:1 61051:2 61052:6 61053:2 61055:1 61059:1 61060:2 
0.01753604474729264 2274:1 9902:1 10821:1 11624:1 16042:1 21974:1 23897:1 25923:1 27377:1 32369:1 33285:1 36062:1 38018:1 43069:1 48355:1 51035:1 53761:1 55076:1 58562:1 59504:1 59556:1 60450:1 61041:12 61042:-0.2 61043:-0.435 61044:0.049 61045:20 61046:0.278 61047:-1.431 61048:-1.431 61049:3 61050:4 61051:2 61052:3 61053:2 61054:2 61055:2 61060:2 
0.03273103011281861 377:1 5558:1 5749:1 7449:1 7794:1 8068:1 11607:1 11747:1 11775:1 17489:1 19582:1 20648:1 21355:1 24629:1 30625:1 38241:1 40171:1 44685:1 48948:1 49534:1 49993:1 52099:1 53244:1 61041:9 61042:2.09 61043:1.201 61044:1.201 61045:26 61046:-2.41 61047:-0.91 61048:0.883 61050:2 61051:2 61052:4 61053:3 61060:4 61062:1 
0.02971397896911575 2010:1 4184:1 4599:1 6488:1 11823:1 11843:1 12932:1 14716:1 15439:1 17998:1 19437:1 21622:1 22525:1 29374:1 32428:1 32506:1 32577:1 34069:1 34163:1 34213:1 34356:1 38083:1 39352:1 39442:1 39469:1 39923:1 45323:1 47674:1 49835:1 56060:1 57037:1 59278:1 61041:20 61042:4.883 61043:1.399 61044:1.399 61045:20 61046:-1.933 61047:-0.91 61048:-0.62 61049:2 61050:6 61051:2 61052:3 61053:2 61054:3 61056:1 61060:3 
0.02678226843750022 313:1 3478:1 4327:1 4397:1 5051:1 6082:1 7261:1 8307:1 9505:1 11235:1 16848:1 27530:1 31847:1 33585:1 33607:1 38460:1 39495:1 48198:1 58054:1 58252:1 58452:1 61041:17 61042:0.487 61043:-4.999 61044:0.292 61045:29 61046:0.728 61047:1.109 61048:0.478 61050:1 61051:6 61052:2 61053:1 61054:1 61055:1 61056:2 61060:2 61064:6 
0.004820659074312305 1160:1 1694:1 3127:1 4327:1 8149:1 8623:1 11558:1 12606:1 17886:1 18009:1 19342:1 26430:1 34664:1 37721:1 38494:1 38839:1 39127:1 40434:1 42998:1 43081:1 45877:1 51862:1 51970:1 52553:1 54111:1 54428:1 56318:1 57031:1 60842:1 61041:18 61042:5.702 61043:1.484 61044:0.742 61045:22 61046:7.296 61047:1.552 61048:0.19 61049:3 61050:3 61051:4 61052:5 61053:5 61054:1 61057:1 61058:1 61060:2 
0.07397763014133513 5103:1 5458:1 9555:1 13539:1 17704:1 18619:1 19386:1 21939:1 22525:1 25170:1 25372:1 28740:1 30845:1 33211:1 34287:1 36404:1 40701:1 44595:1 50175:1 54644:1 56558:1 60025:1 60545:1 61041:17 61042:3.749 61043:1.658 61044:0.662 61045:22 61046:-2.191 61047:-1.718 61048:-0.072 61049:1 61050:4 61051:6 61052:1 61053:2 61055:3 61056:1 61060:1 
0.02815386349037396 440:1 4045:1 7231:1 8078:1 9619:1 11570:1 12210:1 17121:1 18619:1 21405:1 21457:1 25573:1 28275:1 29484:1 29663:1 33975:1 36062:1 37159:1 37605:1 39178:1 39545:1 40755:1 41420:1 52810:1 53831:1 55074:1 55465:1 56558:1 59388:1 61041:19 61042:-0.823 61043:0.844 61044:-0.146 61045:40 61046:0.688 61047:-1.13 61048:0.034 61049:4 61050:2 61051:6 61052:1 61053:3 61054:2 61055:2 61056:2 61057:1 61059:2 61060:2 61061:2 
0.01979236857507702 50:1 539:1 2371:1 3044:1 10806:1 15511:1 16001:1 18914:1 20848:1 21091:1 23340:1 25115:1 28655:1 31165:1 39226:1 41840:1 43277:1 45895:1 48615:1 50659:1 53416:1 53570:1 57284:1 59141:1 61041:14 61042:0.219 61043:-4.999 61044:0.049 61045:36 61046:-4.62 61047:-4.999 61048:1.171 61049:3 61051:3 61052:6 61053:2 61055:1 61057:1 61058:2 61060:2 61062:1 
0.01542101652992279 2043:1 2721:1 7060:1 9828:1 15695:1 20369:1 23225:1 23558:1 24685:1 27192:1 30195:1 30200:1 35138:1 43963:1 44676:1 44915:1 48031:1 48933:1 49534:1 49993:1 56804:1 59127:1 61041:17 61042:1.311 61043:0.649 61044:-0.416 61045:18 61046:-5.237 61047:-4.999 61048:0.546 61049:1 61050:3 61051:1 61052:5 61053:3 61060:2 
0.04279956769245982 2406:1 10247:1 12297:1 13216:1 16421:1 20081:1 20523:1 20602:1 21171:1 26806:1 30096:1 34720:1 35087:1 35116:1 40097:1 41594:1 45896:1 45944:1 47205:1 47777:1 47990:1 49534:1 49825:1 50805:1 54268:1 55768:1 61041:18 61042:0.726 61043:-2.253 61044:0.742 61045:30 61046:-3.928 61047:-1.467 61048:-0.774 61049:2 61050:4 61051:2 61052:3 61053:2 61054:2 61055:1 61059:1 61060:2 61062:1 
0.01973952232598603 1165:1 1740:1 1929:1 3390:1 4185:1 4243:1 6255:1 13285:1 22825:1 23215:1 24630:1 26736:1 28962:1 31730:1 36062:1 37818:1 42733:1 45213:1 54363:1 59628:1 60073:1 60450:1 61041:16 61042:2.297 61043:-1.233 61044:0.339 61045:29 61046:4.783 61047:2.27 61048:-0.024 61049:5 61050:3 61051:3 61053:1 61054:1 61055:2 61056:1 61057:1 61060:2 
0.1204678474921656 2531:1 8712:1 9554:1 9965:1 10844:1 13538:1 14807:1 16752:1 27361:1 29803:1 36888:1 37818:1 41732:1 43134:1 44260:1 45213:1 46716:1 47709:1 55047:1 55396:1 60073:1 61041:16 61042:-10.233 61043:-4.999 61044:-4.999 61045:18 61046:7.086 61047:1.581 61048:0.478 61049:1 61050:6 61051:2 61052:1 61053:3 61058:1 61060:2 
0.01362542044298231 142:1 1971:1 3390:1 5103:1 6883:1 8648:1 20183:1 22841:1 23288:1 23968:1 25372:1 31019:1 31571:1 34203:1 37811:1 38478:1 41777:1 42286:1 42852:1 43107:1 45663:1 45865:1 47949:1 53255:1 54918:1 57310:1 60156:1 61041:15 61042:6.222 61043:1.544 61044:-0.684 61045:39 61046:-1.923 61047:1.982 61048:-0.775 61049:5 61050:5 61051:3 61052:2 61053:2 61054:1 61055:2 61056:1 61058:2 61060:3 61061:1 61062:1 61064:5 
0.007559499731985851 2564:1 7454:1 7756:1 8043:1 13390:1 13538:1 14384:1 15965:1 22423:1 24072:1 26511:1 29978:1 35389:1 35440:1 36602:1 36878:1 39348:1 42527:1 44618:1 49004:1 50144:1 51051:1 52746:1 59470:1 61041:15 61042:0.928 61043:0.813 61044:-0.795 61045:23 61046:2.087 61047:-1.824 61048:0.883 61049:1 61050:3 61051:2 61052:5 61053:4 61054:1 61057:2 61060:1 
0.1178463857115526 5103:1 8984:1 12968:1 16075:1 16613:1 17492:1 18088:1 20068:1 21300:1 32025:1 36647:1 40973:1 41331:1 43552:1 57228:1 57309:1 58054:1 58716:1 61041:11 61042:-9.269 61043:-4.999 61044:-0.889 61045:25 61046:-0.975 61047:0.741 61048:0.158 61050:1 61051:4 61053:2 61054:1 61055:2 61057:1 61060:1 61061:2 61063:2 
0.01133373507489961 616:1 3261:1 3371:1 4513:1 4698:1 5103:1 6177:1 7527:1 9484:1 10545:1 16254:1 16794:1 18246:1 19244:1 20071:1 22164:1 25349:1 25372:1 26678:1 30289:1 31088:1 32310:1 32459:1 34154:1 37304:1 41877:1 46782:1 50908:1 53487:1 57112:1 59028:1 60729:1 61041:18 61042:5.784 61043:1.76 61044:-1.154 61045:40 61046:5.673 61047:2.301 61048:0.478 61049:7 61050:5 61051:3 61052:4 61053:2 61054:2 61055:1 61059:1 61061:2 
0.02621520142077933 111:1 3390:1 5487:1 7362:1 9348:1 11281:1 18476:1 20151:1 21814:1 23827:1 23947:1 26155:1 27122:1 27295:1 28759:1 31105:1 32285:1 40052:1 40139:1 41689:1 42467:1 47111:1 49138:1 54185:1 61041:16 61042:1.547 61043:2.128 61044:-0.643 61045:24 61046:1.288 61047:-1.467 61048:1.084 61049:2 61050:5 61051:2 61052:2 61053:2 61054:1 61057:1 61060:1 61063:1 
0.02319014074161154 1996:1 3322:1 4052:1 6599:1 8213:1 10000:1 13538:1 14083:1 14408:1 16270:1 17426:1 21112:1 24651:1 26335:1 26840:1 27025:1 29090:1 30625:1 33045:1 33127:1 36322:1 39933:1 41170:1 45954:1 49190:1 51578:1 56558:1 58637:1 59213:1 59819:1 61041:20 61042:5.374 61043:2.128 61044:2.128 61045:72 61046:-3.934 61047:2.27 61048:-0.631 61049:1 61050:3 61051:4 61052:4 61053:1 61054:2 61055:1 61056:1 61057:1 61060:2 61062:1 
0.02907606197875256 25:1 65:1 5103:1 6350:1 9311:1 11313:1 15458:1 15545:1 19131:1 19662:1 20404:1 21121:1 24588:1 31604:1 34414:1 35139:1 36324:1 41655:1 42388:1 44516:1 50415:1 50952:1 52785:1 55857:1 59628:1 60535:1 61041:22 61042:-3.539 61043:2.821 61044:0.123 61045:29 61046:6.923 61047:1.577 61048:1.443 61049:3 61050:4 61051:4 61052:2 61053:4 61054:2 61055:1 61057:1 61058:1 61060:2 
0.07911844530744314 784:1 2227:1 3390:1 3476:1 13509:1 22436:1 24123:1 24439:1 28485:1 32636:1 36062:1 42733:1 45213:1 51841:1 60450:1 61041:10 61042:1.202 61043:-1.742 61044:-1.742 61045:11 61046:-0.187 61047:-0.551 61048:-0.14 61049:2 61050:2 61051:1 61052:1 61053:2 61054:1 61060:2 
0.01763826038381469 432:1 1694:1 2148:1 2223:1 4163:1 4397:1 5401:1 6012:1 6205:1 8559:1 10561:1 12234:1 12939:1 14022:1 16593:1 16977:1 17479:1 18639:1 20190:1 21709:1 25624:1 25676:1 29015:1 29896:1 30730:1 34326:1 35992:1 37012:1 38896:1 43081:1 44273:1 45388:1 50412:1 53684:1 58301:1 58924:1 59866:1 61041:19 61042:7.81 61043:5 61044:0.531 61045:46 61046:8.178 61047:5 61048:1.459 61049:8 61050:3 61051:5 61052:3 61053:3 61054:3 61055:2 61056:3 61057:1 61060:3 61061:1 
0.01659555779085646 483:1 503:1 7726:1 9971:1 10503:1 13317:1 14294:1 16073:1 17210:1 22170:1 25720:1 30681:1 33909:1 35224:1 35762:1 35989:1 38400:1 39039:1 39383:1 41205:1 41780:1 44786:1 46093:1 49295:1 50024:1 50677:1 53787:1 56787:1 57372:1 61041:19 61042:-1.422 61043:-4.999 61044:-0.01 61045:29 61046:-4.536 61047:-1.279 61048:-0.725 61049:1 61050:1 61051:5 61052:3 61053:1 61054:2 61055:4 61056:3 61058:2 61060:4 61061:1 
0.04162073552230048 3544:1 3924:1 7813:1 10524:1 11304:1 13299:1 14481:1 16891:1 20854:1 23328:1 23799:1 26985:1 28005:1 28440:1 33796:1 34850:1 36062:1 39243:1 40979:1 44767:1 45269:1 47234:1 47949:1 49932:1 50990:1 53181:1 61041:16 61042:-0.756 61043:-1.454 61044:-0.908 61045:23 61046:-0.454 61047:-1.076 61048:0.417 61049:1 61050:2 61051:4 61052:2 61053:5 61054:3 61055:3 61056:3 61057:1 61060:3 
0.01725599134794469 313:1 972:1 5743:1 7758:1 8921:1 14013:1 17959:1 19595:1 19861:1 20334:1 25355:1 25573:1 30887:1 32390:1 34624:1 35226:1 39778:1 39949:1 40464:1 41850:1 42702:1 46866:1 48321:1 49846:1 50468:1 56132:1 60350:1 61041:15 61042:4.153 61043:1.589 61044:0.56 61045:43 61046:-9.769 61047:-4.999 61048:-0.865 61049:4 61050:3 61051:5 61052:4 61053:4 61054:1 61055:2 61060:2 61063:2 61064:4 
0.02737318271175419 50:1 263:1 1654:1 2109:1 2591:1 2787:1 3265:1 4994:1 8181:1 9615:1 11808:1 15392:1 16751:1 19401:1 22349:1 24557:1 25799:1 26840:1 27361:1 33045:1 34384:1 40517:1 42831:1 45486:1 45607:1 45873:1 47597:1 51737:1 51836:1 52164:1 53993:1 56507:1 56558:1 57879:1 58806:1 61041:19 61042:1.396 61043:1.388 61044:-1.049 61045:44 61046:0.829 61047:-1.919 61048:0.19 61049:4 61050:7 61051:3 61052:4 61053:4 61055:2 61057:1 61059:1 61060:5 
0.0795196371957957 5061:1 11570:1 12586:1 12978:1 13464:1 15959:1 29537:1 33683:1 38880:1 38940:1 40870:1 41823:1 56558:1 56767:1 59658:1 61041:5 61042:-0.724 61043:1.196 61044:-1.049 61045:19 61046:-4.14 61047:1.066 61048:-0.662 61049:3 61050:1 61051:2 61052:1 61054:1 61055:2 61056:1 61057:1 
0.0629318825087021 10359:1 11570:1 13064:1 14978:1 15959:1 18003:1 25573:1 32656:1 38880:1 39107:1 40870:1 41172:1 41823:1 44111:1 45183:1 45804:1 50944:1 56239:1 56558:1 57860:1 61041:10 61042:-2.288 61043:1.196 61044:-0.548 61045:16 61046:0.65 61047:1.171 61048:1.171 61049:4 61050:3 61051:2 61052:1 61053:1 61054:1 61055:2 
0.03893828895243813 440:1 1566:1 3636:1 5103:1 7962:1 8216:1 9351:1 9637:1 11525:1 13248:1 15829:1 17511:1 20430:1 23329:1 24585:1 25372:1 25573:1 25622:1 30420:1 30541:1 34438:1 35108:1 36062:1 41031:1 41362:1 42467:1 53899:1 54357:1 55298:1 55371:1 61041:15 61042:3.645 61043:0.916 61044:0.916 61045:34 61046:1.567 61047:0.795 61048:-0.074 61049:4 61050:4 61051:4 61052:3 61053:4 61054:3 61055:2 61057:1 61060:2 61063:1 
0.03130601209941248 3918:1 12084:1 15478:1 15648:1 16075:1 16228:1 21607:1 21822:1 23827:1 34378:1 41076:1 42766:1 49299:1 50603:1 61041:9 61042:0.233 61043:1.147 61044:-0.643 61045:23 61046:5.141 61047:1.552 61048:-0.134 61049:2 61051:3 61052:3 61053:3 61054:1 61055:1 61056:1 61059:1 61061:1 
0.0324258713317714 1205:1 4586:1 5279:1 5310:1 6072:1 7961:1 8855:1 9484:1 12313:1 16778:1 22053:1 22890:1 27403:1 29121:1 30164:1 31873:1 35746:1 37828:1 39817:1 40075:1 40162:1 41661:1 42198:1 46647:1 48188:1 50875:1 52207:1 52783:1 56336:1 58278:1 58435:1 60016:1 60111:1 60404:1 61041:15 61042:5.393 61043:2.574 61044:0.095 61045:30 61046:-1.277 61047:-1.221 61048:-1.221 61049:1 61050:2 61051:3 61052:6 61053:3 61054:1 61056:1 61057:1 61059:1 61060:1 61063:2 
0.01746251373261439 3045:1 3261:1 5103:1 13866:1 13918:1 15664:1 17368:1 19689:1 20149:1 28213:1 36636:1 37172:1 37576:1 39285:1 40834:1 45883:1 46003:1 48444:1 51236:1 53680:1 58409:1 58442:1 60307:1 61041:16 61042:0.027 61043:-4.999 61044:0.452 61045:15 61046:3.273 61047:1.266 61048:0.868 61049:2 61050:4 61051:3 61052:1 61054:2 61056:1 61060:1 61061:1 61063:1 
0.03828915652048992 3350:1 7231:1 15669:1 19839:1 21457:1 22733:1 27763:1 34823:1 49760:1 50559:1 61041:6 61042:0.519 61043:-1.049 61044:0.511 61045:20 61046:2.664 61047:1.171 61048:0.766 61049:2 61050:1 61051:2 61052:2 61053:1 61054:1 61055:1 61056:2 61059:4 61061:1 
0.01424957065670329 2750:1 3323:1 3496:1 4025:1 4436:1 5103:1 5759:1 7896:1 8046:1 9088:1 10163:1 18190:1 22844:1 25372:1 30625:1 38534:1 40351:1 44198:1 47884:1 48990:1 49819:1 52035:1 53718:1 54096:1 59509:1 59629:1 60182:1 60347:1 61041:20 61042:-2.445 61043:-1.541 61044:-0.299 61045:35 61046:5.684 61047:1.777 61048:1.606 61049:3 61050:6 61051:4 61052:1 61053:3 61054:1 61058:3 61060:2 61062:1 
0.0742840926675844 1170:1 1694:1 9117:1 10406:1 16446:1 20364:1 21457:1 21929:1 22116:1 22219:1 29548:1 30285:1 32632:1 35122:1 39398:1 40306:1 53969:1 56768:1 59141:1 61041:7 61042:-1.332 61043:-0.617 61044:-0.025 61045:28 61046:0.367 61047:1.109 61048:-0.432 61049:2 61050:4 61051:6 61052:1 61053:4 61055:1 61056:1 61058:1 61059:3 61060:1 61061:1 61064:3 
0.02944710234056553 3390:1 10922:1 11570:1 24946:1 28658:1 31510:1 32214:1 33002:1 36062:1 38297:1 41172:1 41362:1 42930:1 44134:1 56558:1 60893:1 61041:10 61042:4.407 61043:1.845 61044:0.916 61045:15 61046:5.929 61047:2.557 61048:0.795 61049:2 61050:4 61052:1 61053:1 61054:1 61056:1 61057:1 61060:2 61063:1 
0.04193507580114757 981:1 1330:1 2116:1 11468:1 13538:1 16693:1 16847:1 19053:1 23598:1 24123:1 26529:1 29142:1 30625:1 35324:1 35588:1 43628:1 45716:1 47494:1 48107:1 50324:1 51179:1 56854:1 61041:11 61042:0.204 61043:-1.337 61044:0.512 61045:49 61046:-6.659 61047:-0.91 61048:0.841 61049:2 61050:3 61052:5 61053:1 61054:3 61060:1 61062:1 
0.0307723104415408 5:1 4387:1 5002:1 5619:1 6957:1 11324:1 13160:1 13586:1 15483:1 16852:1 18963:1 26509:1 29357:1 30294:1 30628:1 36233:1 37998:1 43492:1 43639:1 47073:1 53123:1 53732:1 54649:1 55062:1 56106:1 56558:1 61041:12 61042:0.715 61043:0.872 61044:0.872 61045:19 61046:1.076 61047:1.23 61048:1.23 61049:2 61050:5 61051:1 61052:4 61053:3 61054:1 61055:1 61057:1 61060:3 
0.02642911282443713 7060:1 10141:1 13708:1 17676:1 22134:1 25477:1 25587:1 32545:1 34399:1 34527:1 35598:1 35944:1 37998:1 38282:1 40600:1 41613:1 43768:1 43866:1 47961:1 50248:1 57628:1 58932:1 61041:13 61042:4.662 61043:1.117 61044:0.123 61045:35 61046:-3.698 61047:-1.115 61048:0.051 61049:2 61050:4 61051:6 61052:1 61053:3 61054:2 61055:2 61056:3 61059:1 61060:2 61064:2 
0.09831843201170419 759:1 3664:1 6070:1 9936:1 12050:1 15570:1 25573:1 27213:1 33229:1 36970:1 38086:1 38962:1 39080:1 43088:1 44350:1 47366:1 47513:1 47771:1 53357:1 58603:1 58919:1 61041:11 61042:1.21 61043:1.294 61044:0.378 61045:34 61046:2.065 61047:2.363 61048:-0.556 61049:1 61050:3 61051:8 61052:3 61053:2 61054:3 61055:4 61058:1 61059:1 61060:1 61064:23 
0.07113059968387836 809:1 3537:1 7500:1 9282:1 11859:1 14779:1 14863:1 16763:1 19946:1 20012:1 20239:1 30806:1 33041:1 33049:1 33849:1 36231:1 37913:1 46732:1 58122:1 58628:1 58870:1 59457:1 61041:8 61042:0.152 61043:1.25 61044:-0.643 61045:27 61046:-7.75 61047:-4.999 61048:-4.999 61049:2 61050:4 61051:4 61053:3 61054:2 61056:1 61057:2 61059:1 61060:4 61064:4 
0.006697925949426608 1106:1 1750:1 5103:1 5688:1 6209:1 7602:1 8630:1 10449:1 14119:1 15621:1 20625:1 21822:1 22254:1 23719:1 28409:1 35470:1 40582:1 42130:1 42190:1 43260:1 47660:1 52004:1 52435:1 54128:1 54819:1 55426:1 55617:1 61041:19 61042:3.55 61043:1.03 61044:0.405 61045:38 61046:-1.173 61047:-1.313 61048:-1.313 61049:2 61050:3 61051:5 61052:3 61053:3 61055:5 61056:3 61060:2 61061:1 
0.0151248763175772 618:1 2246:1 4167:1 6756:1 8916:1 10705:1 13519:1 18321:1 21786:1 27365:1 27377:1 27637:1 28381:1 28633:1 35993:1 37666:1 40770:1 43788:1 45133:1 45977:1 48920:1 51080:1 51877:1 52937:1 53065:1 55041:1 59743:1 61041:15 61042:-2.126 61043:-4.999 61044:0.56 61045:33 61046:2.585 61047:1.365 61048:0.457 61049:5 61050:2 61051:4 61052:3 61053:2 61054:2 61056:5 61057:1 61058:1 61059:1 61060:2 
0.0415962250615616 1679:1 10821:1 10871:1 16162:1 16451:1 16863:1 19727:1 19918:1 20747:1 24917:1 28519:1 28705:1 30750:1 32873:1 34230:1 34597:1 36392:1 36697:1 38767:1 39486:1 40059:1 40975:1 45196:1 46122:1 46961:1 52596:1 55568:1 58444:1 59290:1 60644:1 61041:15 61042:-2.541 61043:-1.337 61044:-0.034 61045:28 61046:-2.772 61047:-1.718 61048:-0.214 61049:3 61050:8 61051:4 61053:3 61056:1 61057:1 61058:1 61059:1 61060:1 
0.02744348392251207 857:1 2580:1 3338:1 11663:1 16610:1 17715:1 18053:1 18123:1 20989:1 21355:1 22452:1 23846:1 25341:1 28039:1 31268:1 32144:1 36818:1 39483:1 41422:1 45226:1 48121:1 53223:1 53530:1 59237:1 61041:12 61042:0.553 61043:-1.609 61044:-0.081 61045:27 61046:0.836 61047:1.519 61048:-0.443 61049:3 61050:3 61051:4 61052:1 61053:5 61054:1 61055:4 61056:3 61059:1 61060:1 61064:5 
0.1004139965435684 440:1 517:1 571:1 1694:1 5672:1 9359:1 9637:1 12727:1 20247:1 23246:1 24990:1 25315:1 25573:1 25924:1 28226:1 28487:1 35505:1 47719:1 48987:1 51099:1 51847:1 52165:1 54618:1 59484:1 60532:1 61041:13 61042:0.675 61043:-1.924 61044:0.541 61045:21 61046:-3.508 61047:-1.025 61048:-0.757 61049:4 61050:4 61051:8 61052:1 61053:3 61054:1 61055:2 61056:3 61058:1 61059:1 61060:1 61064:4 
0.0187678621726917 495:1 716:1 1165:1 1170:1 1555:1 2580:1 9150:1 9907:1 12366:1 14199:1 15640:1 16581:1 18200:1 19155:1 21848:1 24356:1 26029:1 30642:1 32585:1 41891:1 43381:1 44766:1 45983:1 46888:1 48247:1 50457:1 50490:1 53736:1 53779:1 54177:1 55751:1 61041:17 61042:4.748 61043:1.177 61044:0.511 61045:28 61046:-6.869 61047:-1.256 61048:-0.707 61049:3 61050:3 61051:7 61052:3 61053:3 61054:1 61055:2 61056:2 61057:2 61058:1 61061:1 61064:4 
0.03718866728591998 574:1 1946:1 11786:1 14013:1 15986:1 17850:1 18379:1 19394:1 20822:1 21492:1 22599:1 23390:1 25899:1 26622:1 26869:1 27407:1 29526:1 34455:1 35424:1 36295:1 40719:1 48708:1 49595:1 50205:1 51875:1 52010:1 53126:1 53477:1 54736:1 55664:1 59996:1 60158:1 61041:10 61042:2.243 61043:2.534 61044:-0.643 61045:15 61046:-0.911 61047:-0.865 61048:-0.865 61049:5 61050:3 61051:4 61052:5 61053:3 61054:3 61056:1 
0.01856168561896406 1932:1 3366:1 4480:1 7205:1 8883:1 10816:1 15696:1 19204:1 21824:1 24727:1 25264:1 26346:1 29183:1 30625:1 35452:1 36769:1 40754:1 43794:1 44205:1 46896:1 48410:1 50915:1 51335:1 52314:1 53723:1 58025:1 61041:10 61042:2.04 61043:0.742 61044:0.742 61045:37 61046:-1.877 61047:1.552 61048:-0.18 61049:4 61050:4 61051:5 61052:4 61053:3 61054:1 61056:1 61060:2 61062:1 
0.04822576491912526 104:1 319:1 453:1 2748:1 5103:1 5473:1 8261:1 8330:1 11472:1 13155:1 16734:1 19041:1 19559:1 21490:1 23478:1 24475:1 25372:1 28101:1 28724:1 29094:1 31171:1 32813:1 37994:1 38317:1 38911:1 41530:1 42831:1 42974:1 44246:1 46085:1 54308:1 58669:1 60890:1 61041:26 61042:-1.507 61043:-1.822 61044:-0.521 61045:62 61046:-10.115 61047:-2.006 61048:-1.025 61049:2 61050:4 61051:6 61052:4 61053:3 61054:1 61055:3 61056:1 61058:1 61060:1 61061:1 
0.006942212354934548 2371:1 9974:1 10712:1 11558:1 13058:1 13791:1 17008:1 27361:1 28581:1 32377:1 34399:1 35003:1 37721:1 40298:1 46306:1 47115:1 53474:1 59596:1 59641:1 61041:11 61042:5.361 61043:2.73 61044:0.742 61045:31 61046:1.827 61047:0.93 61048:0.675 61049:1 61050:4 61051:4 61052:2 61053:4 61054:1 61055:3 61060:3 61062:1 
0.04360720311559579 4225:1 9620:1 11504:1 11629:1 17311:1 19593:1 23333:1 24245:1 24623:1 28245:1 30607:1 32077:1 34609:1 37475:1 37513:1 39738:1 40638:1 45187:1 46287:1 46371:1 51733:1 56558:1 61041:17 61042:-1.946 61043:-2.41 61044:0.74 61045:33 61046:8.352 61047:1.577 61048:1.389 61049:4 61050:3 61051:5 61052:1 61053:3 61054:1 61056:1 61059:1 61060:2 61061:2 61064:11 
0.02875650697939338 2136:1 2406:1 4022:1 7937:1 9176:1 9444:1 10821:1 11417:1 11578:1 12451:1 15511:1 19556:1 20018:1 21375:1 22510:1 23029:1 23827:1 26248:1 26661:1 27246:1 32151:1 35809:1 36355:1 38767:1 41798:1 45226:1 49127:1 50553:1 52639:1 54017:1 55923:1 57484:1 61041:20 61042:4.513 61043:1.653 61044:1.113 61045:33 61046:-4.607 61047:-4.999 61048:-1.718 61049:3 61050:4 61051:5 61052:3 61053:1 61054:1 61055:1 61056:1 61057:1 61058:2 61059:1 61060:3 61061:1 
0.02263196669101985 1485:1 7610:1 7980:1 15385:1 19221:1 20326:1 30311:1 33635:1 35067:1 35333:1 37198:1 37940:1 41923:1 47105:1 48796:1 51464:1 53453:1 53624:1 54185:1 56212:1 59894:1 61041:13 61042:2.596 61043:-0.931 61044:0.3 61045:23 61046:3.486 61047:1.682 61048:0.478 61049:2 61050:2 61051:3 61052:3 61053:2 61055:2 61059:1 61060:1 61061:1 
0.05099191200479183 3845:1 4948:1 5368:1 8032:1 12860:1 14534:1 19419:1 19925:1 20042:1 21565:1 23798:1 26312:1 26963:1 30893:1 32098:1 34206:1 35318:1 35638:1 38241:1 41420:1 43837:1 45013:1 47277:1 49797:1 52726:1 55552:1 59429:1 61041:19 61042:2.21 61043:-1.896 61044:-1.896 61045:25 61046:-7.905 61047:-2.465 61048:-0.907 61049:1 61050:6 61051:5 61052:2 61053:5 61054:1 61056:1 61060:4 
0.005626288166237027 1062:1 3390:1 4648:1 5269:1 11018:1 11789:1 17751:1 20499:1 22040:1 22944:1 23827:1 29068:1 30625:1 30764:1 34032:1 34291:1 35664:1 37800:1 38767:1 39552:1 40149:1 40603:1 45906:1 48188:1 52783:1 56283:1 56336:1 57057:1 60404:1 61041:14 61042:2.377 61043:1.376 61044:0.095 61045:35 61046:-0.251 61047:2.087 61048:-0.437 61049:3 61050:3 61051:2 61052:4 61053:2 61058:1 61060:3 61062:1 61063:3 
0.00029340448771695 4527:1 4907:1 8187:1 8970:1 11570:1 12693:1 13772:1 13913:1 20364:1 23185:1 24157:1 27288:1 28330:1 35904:1 36692:1 38740:1 41842:1 43002:1 43774:1 49534:1 50114:1 54324:1 56558:1 57234:1 61041:19 61042:-1.013 61043:1.104 61044:1.104 61045:28 61046:8.766 61047:1.978 61048:0.682 61049:2 61050:3 61051:4 61052:2 61053:3 61054:1 61055:1 61058:1 61060:1 61061:2 
0.1029972266582861 440:1 4133:1 5066:1 5647:1 6067:1 7385:1 12765:1 22174:1 24256:1 24776:1 26858:1 30625:1 33023:1 38542:1 40285:1 43761:1 49951:1 50843:1 59695:1 61041:15 61042:3.507 61043:-1.149 61044:0.049 61045:35 61046:-11.125 61047:-4.999 61048:-0.987 61049:2 61050:2 61051:9 61053:1 61055:3 61058:1 61060:2 61061:2 61062:1 61064:12 
0.08453002297139486 2401:1 4526:1 5672:1 6948:1 11649:1 12104:1 12719:1 17457:1 19556:1 20944:1 23827:1 26248:1 28021:1 28440:1 30625:1 32363:1 32667:1 33790:1 33850:1 35809:1 39395:1 41860:1 45019:1 45222:1 46499:1 47007:1 49091:1 49543:1 51274:1 51816:1 51820:1 52094:1 56900:1 61041:18 61042:-3.668 61043:-1.909 61044:0.272 61045:35 61046:-4.573 61047:-0.975 61048:0.182 61049:5 61050:4 61051:4 61052:4 61053:4 61054:1 61056:1 61060:1 61062:1 
0.05637436536783369 4546:1 5376:1 5782:1 8300:1 11838:1 24054:1 24196:1 28924:1 29663:1 31541:1 38187:1 38330:1 38467:1 40760:1 43731:1 44344:1 45153:1 45449:1 46356:1 47260:1 48284:1 48876:1 51259:1 52407:1 53001:1 54525:1 56189:1 57458:1 57924:1 59568:1 60211:1 61041:22 61042:-10.951 61043:-4.999 61044:1.02 61045:20 61046:-2.311 61047:1.171 61048:0.367 61050:2 61051:4 61052:5 61053:4 61054:1 61055:3 61057:1 61058:3 
0.01400616856713981 1343:1 3044:1 7566:1 11607:1 12037:1 18982:1 19394:1 22599:1 23263:1 23390:1 25583:1 26622:1 26850:1 26869:1 30625:1 33581:1 35694:1 36067:1 36295:1 36861:1 38235:1 38809:1 39598:1 41532:1 43794:1 47349:1 48835:1 49771:1 61041:14 61042:5.729 61043:1.735 61044:0.454 61045:32 61046:0.167 61047:1.433 61048:-0.214 61049:3 61050:3 61051:2 61052:6 61053:2 61054:2 61055:1 61056:1 61060:1 61062:1 
0.07977144251305593 1418:1 12938:1 13538:1 14716:1 14967:1 15439:1 15581:1 19801:1 23008:1 23660:1 24144:1 24555:1 24644:1 27126:1 28055:1 28671:1 32061:1 37642:1 43475:1 43992:1 48936:1 51741:1 52922:1 59452:1 61041:14 61042:-3.76 61043:-1.896 61044:-0.643 61045:20 61046:-0.681 61047:1.171 61048:0.189 61049:1 61050:6 61051:3 61052:5 61053:3 61054:3 61055:2 61056:1 61059:1 61060:2 61064:13 
0.01199044261287052 1271:1 1510:1 1893:1 2320:1 6013:1 9091:1 14302:1 14363:1 14652:1 15042:1 16954:1 19407:1 21526:1 21589:1 26263:1 29608:1 30164:1 30625:1 35291:1 35697:1 35708:1 39136:1 39426:1 41053:1 42494:1 45361:1 46568:1 49717:1 50438:1 52276:1 53406:1 54245:1 56558:1 58753:1 59037:1 61041:17 61042:2.164 61043:2.2 61044:-0.206 61045:40 61046:-0.729 61047:2.493 61048:0.201 61049:5 61050:4 61051:2 61052:4 61053:1 61054:1 61055:1 61057:1 61060:1 61062:1 
0.03607428443356785 3055:1 10096:1 10815:1 10963:1 11570:1 13064:1 13774:1 15959:1 24769:1 25579:1 31540:1 33155:1 33664:1 38880:1 40141:1 40870:1 41823:1 46719:1 48114:1 52398:1 56558:1 61041:11 61042:-2.213 61043:1.196 61044:0.742 61045:21 61046:-1.175 61047:-1.718 61048:-0.05 61049:4 61050:1 61052:1 61053:2 61054:2 61055:1 61056:2 61057:1 61060:1 61061:1 61064:6 
0.02939315933664858 306:1 2917:1 3083:1 3586:1 12817:1 15959:1 16512:1 21984:1 24342:1 26208:1 29015:1 29734:1 31296:1 35120:1 38274:1 39007:1 41414:1 48188:1 54170:1 54447:1 56570:1 61041:12 61042:-1.072 61043:1.495 61044:-0.356 61045:24 61046:-4.618 61047:-4.999 61048:-0.126 61049:1 61050:2 61051:1 61052:4 61053:3 61054:1 61060:3 61062:1 
0.04268790370604967 912:1 1170:1 4680:1 6631:1 10900:1 12229:1 19950:1 21160:1 23464:1 24447:1 29620:1 36718:1 37952:1 39323:1 42365:1 44230:1 47570:1 52330:1 61041:9 61042:0.095 61043:1.435 61044:-0.739 61045:19 61046:2.99 61047:1.731 61048:1.731 61049:2 61050:3 61051:4 61052:2 61053:1 61054:2 61057:1 61058:1 61060:2 
0.02475760286175888 3390:1 4025:1 6205:1 6366:1 8970:1 9088:1 18715:1 19302:1 22592:1 27427:1 31042:1 31123:1 38202:1 38534:1 38930:1 39398:1 39401:1 39935:1 40432:1 40888:1 42342:1 43334:1 44197:1 44947:1 45564:1 47624:1 48990:1 53646:1 56412:1 61039:1 61041:24 61042:8.297 61043:1.285 61044:0.959 61045:38 61046:7.606 61047:1.767 61048:0.621 61049:3 61050:4 61051:10 61054:1 61055:3 61056:3 61058:2 61060:4 61061:1 61064:6 
0.08978141371996949 977:1 7044:1 7813:1 11570:1 13294:1 14084:1 15959:1 18619:1 21563:1 22637:1 23416:1 23444:1 33012:1 40616:1 42997:1 43395:1 44288:1 49280:1 50733:1 55421:1 56127:1 56558:1 57566:1 57941:1 59605:1 60450:1 61041:17 61042:-0.13 61043:1.435 61044:-0.712 61045:43 61046:-4.739 61047:-1.423 61048:-0.081 61049:5 61050:6 61051:5 61052:1 61053:5 61054:2 61055:4 61060:2 
0.01253069593381165 2678:1 13096:1 15002:1 16182:1 17346:1 18390:1 29550:1 29997:1 32733:1 35424:1 52553:1 61041:10 61042:1.036 61043:-1.221 61044:0.742 61045:20 61046:-0.614 61047:0.727 61048:-0.081 61050:1 61051:3 61052:2 61053:2 61055:2 61058:1 61060:1 61061:1 61063:1 61064:7 
0.04029682171068608 1128:1 1170:1 1851:1 2246:1 2585:1 8983:1 10797:1 12713:1 13075:1 14474:1 16107:1 20100:1 23333:1 24580:1 25243:1 30831:1 31581:1 34263:1 37482:1 37734:1 37847:1 39773:1 40371:1 41881:1 42847:1 48509:1 50745:1 51455:1 54038:1 54394:1 56232:1 56997:1 59935:1 61041:18 61042:0.849 61043:-1.337 61044:1.184 61045:52 61046:-13.234 61047:-4.999 61048:-1.467 61049:4 61050:3 61051:2 61052:3 61053:4 61054:2 61055:1 61058:1 61059:1 61060:4 61061:3 
0.06014009741751546 4717:1 4848:1 18852:1 33869:1 34001:1 34110:1 36716:1 37180:1 37252:1 39786:1 45291:1 48031:1 49618:1 54272:1 54421:1 58395:1 58435:1 61041:12 61042:2.921 61043:-1.277 61044:-1.277 61045:24 61046:2.734 61047:1.864 61048:-0.7 61049:3 61050:4 61051:2 61052:2 61053:1 61054:1 61055:1 61056:1 61060:3 
0.01803260549097491 2209:1 5030:1 5044:1 5419:1 5552:1 7135:1 7459:1 8062:1 8646:1 10946:1 10982:1 11283:1 12145:1 12931:1 14119:1 18949:1 19344:1 27643:1 31314:1 31414:1 32351:1 39143:1 41500:1 45264:1 48926:1 50173:1 51560:1 53755:1 55382:1 55749:1 56558:1 56741:1 61041:27 61042:0.337 61043:1.942 61044:1.013 61045:28 61046:3.375 61047:1.306 61048:0.632 61049:3 61050:4 61051:4 61052:2 61053:3 61054:2 61058:1 61059:1 61060:2 
0.02294851749711584 784:1 1045:1 1996:1 1999:1 2246:1 6891:1 10681:1 10806:1 13509:1 21594:1 23677:1 24439:1 36194:1 37194:1 40305:1 48375:1 54356:1 54648:1 58464:1 58623:1 61041:13 61042:3.197 61043:-2.051 61044:1.435 61045:35 61046:-2.156 61047:0.999 61048:0.308 61049:3 61050:3 61051:2 61052:4 61053:3 61057:2 61060:2 61062:1 61064:14 
0.08876330810747782 1170:1 4803:1 9607:1 11108:1 12763:1 12947:1 18715:1 24588:1 25035:1 28161:1 30495:1 32947:1 49334:1 58177:1 61041:5 61042:-0.614 61043:-0.888 61044:0.428 61045:21 61046:-0.917 61047:0.907 61048:0.907 61049:1 61050:1 61051:7 61052:2 61053:2 61054:1 61055:1 61056:1 61058:1 61059:1 61060:1 
0.02432500688148877 1343:1 3390:1 8657:1 11107:1 11517:1 13538:1 13666:1 15588:1 16462:1 26453:1 27361:1 28312:1 30486:1 35863:1 37960:1 38206:1 38286:1 40094:1 41732:1 47168:1 47418:1 48664:1 55976:1 56767:1 60567:1 61041:14 61042:-1.261 61043:-1.22 61044:1.112 61045:25 61046:4.933 61047:1.093 61048:0.901 61049:4 61050:3 61051:2 61052:2 61053:2 61054:1 61056:1 61058:1 61060:2 61063:3 
0.02844496968396071 4608:1 6915:1 12497:1 12522:1 12597:1 12822:1 13249:1 14119:1 16586:1 17795:1 24766:1 25422:1 30141:1 31271:1 34258:1 35077:1 35171:1 35478:1 37280:1 39143:1 41094:1 41612:1 42572:1 42974:1 44233:1 52553:1 53664:1 53956:1 53981:1 54615:1 54974:1 55382:1 57001:1 60281:1 61041:14 61042:-0.365 61043:1.162 61044:1.162 61045:33 61046:-0.126 61047:0.883 61048:-0.06 61049:6 61050:1 61051:5 61052:9 61053:2 61054:2 61058:2 61060:1 61061:1 61064:2 
0.01307800442316698 1083:1 2500:1 3608:1 5049:1 6075:1 6817:1 6876:1 10218:1 11215:1 11607:1 16733:1 20633:1 21889:1 21939:1 23895:1 25275:1 25941:1 27361:1 28670:1 29223:1 34583:1 34807:1 35906:1 37567:1 38512:1 40279:1 41057:1 41216:1 41637:1 42898:1 43031:1 44430:1 47010:1 47773:1 47989:1 48576:1 50471:1 50572:1 50659:1 52320:1 53438:1 53786:1 54062:1 56371:1 56406:1 57370:1 57737:1 61041:22 61042:6.025 61043:1.119 61044:-0.104 61045:80 61046:-7.446 61047:1.864 61048:0.66 61049:6 61050:8 61051:2 61052:5 61053:1 61054:3 61055:1 61057:3 61060:1 
0.0195984546223243 4897:1 12378:1 15382:1 23827:1 27361:1 28312:1 28501:1 36150:1 43622:1 45473:1 46487:1 61041:8 61042:0.548 61043:0.575 61044:-0.352 61045:20 61046:3.408 61047:1.171 61048:-0.62 61049:1 61050:1 61051:2 61052:2 61053:2 61055:1 61059:1 
0.03618362928067506 1106:1 2586:1 2863:1 4367:1 5103:1 5458:1 7451:1 9776:1 10329:1 11348:1 11570:1 11588:1 17234:1 20326:1 21193:1 22850:1 26113:1 28418:1 33446:1 37941:1 40396:1 41326:1 48332:1 48408:1 50766:1 50926:1 51176:1 53406:1 53527:1 53905:1 56420:1 56558:1 61041:27 61042:1.373 61043:-1.268 61044:0.681 61045:27 61046:7.407 61047:2.675 61048:0.682 61049:2 61050:5 61051:6 61052:1 61053:2 61054:1 61055:1 61056:1 61058:1 61060:2 61061:1 
0.04006116274194014 2224:1 3077:1 4034:1 6305:1 6469:1 8594:1 13293:1 15511:1 21085:1 23067:1 26195:1 29928:1 30593:1 31048:1 35132:1 35828:1 40834:1 41191:1 41420:1 41527:1 42781:1 46003:1 47931:1 50521:1 50659:1 53318:1 53755:1 57845:1 61041:26 61042:3.999 61043:-1.184 61044:0.023 61045:33 61046:-13.211 61047:-4.999 61048:-1.258 61049:1 61050:7 61051:5 61053:4 61054:3 61055:1 61058:2 61060:5 61061:1 
0.03692317336822713 1267:1 5113:1 6235:1 7526:1 7775:1 8533:1 16524:1 17841:1 17924:1 18159:1 19832:1 21007:1 21185:1 24842:1 25160:1 26468:1 27762:1 34686:1 35927:1 36469:1 37635:1 39703:1 41140:1 41509:1 42136:1 42467:1 44520:1 45049:1 45308:1 51054:1 52346:1 52585:1 52823:1 53631:1 53942:1 55256:1 56074:1 60141:1 61041:23 61042:1.512 61043:1.435 61044:-0.413 61045:28 61046:-3.885 61047:-2.457 61048:0.478 61049:2 61050:8 61051:3 61052:4 61053:3 61054:1 61056:1 61057:2 61058:2 61060:1 
0.00930457428888946 7494:1 12624:1 15511:1 16818:1 18003:1 19556:1 23827:1 24371:1 26248:1 28879:1 32656:1 34142:1 35809:1 36355:1 38165:1 38767:1 39020:1 39552:1 48188:1 50209:1 53298:1 60902:1 61041:14 61042:4.064 61043:1.12 61044:0.3 61045:30 61046:2.007 61047:2.087 61048:0.365 61049:1 61050:1 61051:3 61052:5 61053:2 61055:2 61058:1 61060:1 61062:1 
0.003607210324487505 1106:1 3654:1 4900:1 5103:1 8562:1 21939:1 24800:1 32279:1 41070:1 43622:1 46007:1 46055:1 53609:1 56265:1 59128:1 61041:10 61042:6.722 61043:1.995 61044:1.117 61045:24 61046:-2.125 61047:-2.006 61048:-0.368 61049:2 61050:1 61051:2 61052:1 61053:1 61054:1 61060:1 
0.006424738290972818 5103:1 7530:1 8891:1 10096:1 10539:1 11282:1 11285:1 15419:1 19689:1 22598:1 23057:1 25649:1 25955:1 27930:1 30502:1 44592:1 53840:1 56558:1 57714:1 58836:1 61041:13 61042:1.424 61043:0.742 61044:0.452 61045:32 61046:-0.187 61047:-2.086 61048:0.868 61049:2 61050:5 61051:2 61052:1 61053:3 61054:1 61059:1 61060:1 
0.01488771436752586 2107:1 2642:1 3987:1 4185:1 4989:1 6436:1 8344:1 17282:1 18619:1 20155:1 24028:1 32050:1 34289:1 35989:1 36062:1 39585:1 41310:1 42652:1 43065:1 47075:1 47440:1 52901:1 56558:1 58493:1 59975:1 60211:1 61041:20 61042:1.613 61043:-0.915 61044:0.281 61045:32 61046:-1.162 61047:1.731 61048:-0.334 61049:3 61050:4 61051:6 61052:1 61053:2 61054:1 61055:3 61056:1 61058:1 61060:3 61061:1 
0.001616518224782103 5103:1 5251:1 7775:1 7921:1 12628:1 14680:1 16401:1 16941:1 18924:1 19745:1 21185:1 23992:1 25372:1 27338:1 28279:1 29638:1 29912:1 30721:1 30764:1 33752:1 38767:1 39188:1 46688:1 47755:1 49105:1 51097:1 52585:1 52868:1 60557:1 61041:20 61042:3.093 61043:5 61044:0.734 61045:30 61046:10.959 61047:-2.457 61048:-1.13 61049:3 61050:5 61051:5 61052:2 61053:4 61054:2 61058:1 61060:4 61063:1 
0.08215636037519272 1310:1 5659:1 8018:1 8770:1 10633:1 10655:1 14368:1 15038:1 15549:1 42812:1 45305:1 45864:1 47881:1 47917:1 53138:1 53940:1 58158:1 61041:7 61042:0.671 61043:1.589 61044:1.589 61045:43 61046:-4.542 61047:-2.195 61048:-0.168 61049:3 61050:2 61051:4 61052:2 61053:4 61054:1 61055:3 61056:6 61057:1 61058:3 61060:2 61061:2 61063:1 61064:14 
0.06455242193205758 5103:1 7107:1 12896:1 13322:1 23447:1 25341:1 25372:1 29922:1 31016:1 32304:1 41105:1 41294:1 43890:1 51259:1 52932:1 59841:1 61041:10 61042:-2.829 61043:1.152 61044:-0.41 61045:18 61046:2.72 61047:0.883 61048:0.461 61049:1 61050:3 61051:4 61052:1 61053:2 61054:1 61056:1 61060:2 61063:1 
0.02226164644619951 1475:1 3845:1 3981:1 6855:1 9307:1 11239:1 11355:1 20300:1 23515:1 23827:1 25342:1 26857:1 27805:1 30706:1 36290:1 38767:1 39050:1 39552:1 40941:1 43280:1 47199:1 49963:1 50121:1 50780:1 51647:1 53579:1 54596:1 57878:1 61041:16 61042:1.06 61043:1.979 61044:-0.784 61045:22 61046:-1.826 61047:2.087 61048:-1.04 61049:1 61050:1 61051:5 61052:6 61053:2 61054:1 61055:2 61058:1 61060:1 61063:1 
0.05292076896351129 50:1 189:1 336:1 1392:1 2449:1 7701:1 10138:1 12299:1 17413:1 18392:1 18660:1 21161:1 25480:1 25573:1 26652:1 26689:1 26690:1 26897:1 27679:1 27704:1 33136:1 35768:1 42156:1 43339:1 44178:1 49691:1 50470:1 50636:1 51210:1 52618:1 60003:1 61041:18 61042:-4.973 61043:-2.215 61044:-0.004 61045:41 61046:2.823 61047:1.459 61048:-0.907 61049:4 61050:3 61051:6 61052:5 61053:3 61054:1 61055:3 61059:1 61060:2 
0.04276887061053229 2288:1 3335:1 6031:1 10357:1 11851:1 11914:1 15889:1 17955:1 17964:1 19505:1 20621:1 20706:1 21348:1 22913:1 24602:1 27416:1 28579:1 36954:1 39034:1 39476:1 41420:1 42433:1 48172:1 49166:1 50998:1 54023:1 55254:1 56608:1 57057:1 60841:1 61041:17 61042:-0.147 61043:1.658 61044:-0.173 61045:28 61046:0.793 61047:1.552 61048:-1.14 61049:1 61050:6 61051:4 61052:3 61053:4 61054:4 61060:4 61063:2 
0.04789119579493053 190:1 543:1 1516:1 3137:1 5560:1 6751:1 7980:1 9444:1 11258:1 11851:1 15866:1 19098:1 19356:1 19913:1 20464:1 21022:1 22936:1 23827:1 24763:1 25656:1 29425:1 31158:1 34265:1 36245:1 48188:1 52783:1 53038:1 54185:1 56336:1 56815:1 58836:1 59742:1 60404:1 61041:20 61042:-2.929 61043:-1.896 61044:-0.238 61045:31 61046:3.528 61047:1.171 61048:-0.508 61049:2 61051:5 61052:10 61053:3 61055:2 61057:1 61058:3 61060:2 
0.05473989429263659 473:1 5087:1 6582:1 10088:1 20219:1 20880:1 21717:1 22522:1 23333:1 30448:1 31475:1 32908:1 35294:1 35480:1 41618:1 45529:1 47857:1 48127:1 57286:1 61041:13 61042:-0.94 61043:-1.447 61044:1.118 61045:21 61046:0.663 61047:-1.298 61048:0.706 61049:2 61050:3 61051:4 61052:1 61053:3 61054:3 61055:2 61056:2 61060:1 61061:1 61064:8 
0.02302621398593326 2246:1 3261:1 18570:1 21864:1 22689:1 24151:1 25465:1 25639:1 26878:1 27389:1 29089:1 29596:1 30039:1 30703:1 31560:1 32459:1 32757:1 35452:1 36062:1 39017:1 43673:1 45551:1 45598:1 47008:1 47824:1 50490:1 52194:1 53738:1 61041:14 61042:3.456 61043:0.965 61044:-0.307 61045:33 61046:-3.701 61047:-1.342 61048:-0.283 61049:3 61050:4 61051:7 61052:2 61053:3 61054:3 61055:2 61056:3 61057:1 61058:1 61064:5 
0.0376307394126348 90:1 1366:1 1539:1 1747:1 22027:1 22038:1 28135:1 28794:1 29873:1 30625:1 32590:1 37194:1 41300:1 50189:1 55726:1 56010:1 59508:1 59768:1 61041:9 61042:1.922 61043:-1.473 61044:-0.238 61045:37 61046:-5.119 61047:1.275 61048:0.242 61049:2 61050:2 61051:4 61052:1 61053:4 61054:2 61060:2 61061:1 61062:1 61064:11 
0.002435497898359294 5103:1 6109:1 6111:1 7971:1 8273:1 8424:1 10051:1 15451:1 19131:1 20694:1 21870:1 25185:1 27865:1 28487:1 30965:1 36324:1 36991:1 37337:1 37982:1 42977:1 43758:1 45162:1 48060:1 50952:1 51451:1 54342:1 55222:1 57988:1 58827:1 61041:17 61042:-2.929 61043:-1.648 61044:0.792 61045:31 61046:6.508 61047:1.721 61048:-0.31 61049:1 61050:3 61051:7 61053:2 61054:1 61055:3 61056:3 61058:1 61059:2 61060:1 
0.02472686977845578 5962:1 13538:1 20530:1 20824:1 26591:1 32611:1 34190:1 34565:1 35389:1 36659:1 48869:1 49354:1 54794:1 54819:1 54941:1 56891:1 57445:1 59409:1 60161:1 60981:1 61041:12 61042:0.455 61043:-0.761 61044:0.049 61045:24 61046:1.46 61047:1.6 61048:-0.58 61049:3 61050:3 61051:1 61052:4 61053:2 61054:2 61056:1 61057:2 61060:2 
0.01348666932902056 1704:1 2448:1 2623:1 6793:1 11811:1 12182:1 12701:1 15003:1 15959:1 25649:1 26211:1 27343:1 27361:1 27930:1 28556:1 30076:1 34166:1 37172:1 38754:1 42850:1 42884:1 43490:1 47212:1 49534:1 49543:1 49688:1 50270:1 51878:1 57954:1 58836:1 61041:23 61042:4.841 61043:1.995 61044:-0.466 61045:37 61046:-5.639 61047:-2.086 61048:0.701 61049:2 61050:6 61051:2 61052:4 61053:4 61054:1 61060:3 61062:1 
0.05150405125460195 117:1 6743:1 11319:1 11835:1 12186:1 20046:1 20747:1 23413:1 23459:1 23513:1 23694:1 24214:1 24433:1 25255:1 25357:1 30719:1 30764:1 36511:1 37051:1 38767:1 38800:1 41439:1 43942:1 44115:1 46353:1 51780:1 53088:1 53145:1 53849:1 61041:26 61042:-11.772 61043:-4.999 61044:0.132 61045:20 61046:4.401 61047:3.311 61048:-0.545 61050:6 61051:8 61053:1 61054:1 61055:3 61056:1 61058:1 61060:3 
0.02534677151345055 1132:1 2579:1 9065:1 12617:1 13537:1 14312:1 14567:1 20993:1 21024:1 23067:1 24123:1 39830:1 43794:1 44324:1 45020:1 51152:1 51405:1 61041:10 61042:0.483 61043:0.965 61044:-0.158 61045:27 61046:-6.155 61047:-1.467 61048:-0.871 61049:1 61050:1 61051:1 61052:5 61053:3 61055:1 61056:1 61060:2 61062:1 
0.05081540879772355 1674:1 2058:1 2834:1 3390:1 4719:1 5103:1 10878:1 11993:1 15940:1 17283:1 22344:1 23521:1 26338:1 27470:1 30764:1 38767:1 44657:1 46098:1 55812:1 61041:11 61042:0.518 61043:1.147 61044:1.147 61045:30 61046:-3.929 61047:-1.467 61048:-1.467 61049:2 61050:2 61051:2 61052:3 61053:2 61054:1 61058:1 61060:3 61061:1 61062:1 
0.02295893173766943 439:1 965:1 1522:1 1694:1 7060:1 7479:1 12240:1 13996:1 22824:1 25499:1 26080:1 29624:1 32656:1 38409:1 40570:1 40804:1 42210:1 43081:1 47189:1 49280:1 58335:1 58951:1 59711:1 60229:1 61041:17 61042:10.9 61043:1.995 61044:0.438 61045:18 61046:0.356 61047:-0.907 61048:-0.907 61049:1 61050:6 61051:4 61053:1 61054:3 61056:1 61058:2 61060:4 
0.003950600542223745 5088:1 6823:1 8487:1 9928:1 11558:1 11853:1 16892:1 19278:1 21841:1 23948:1 24755:1 26415:1 26466:1 26999:1 27016:1 29249:1 30502:1 30625:1 39140:1 40340:1 42945:1 43572:1 48382:1 52421:1 53447:1 54765:1 55108:1 55580:1 57234:1 59179:1 59447:1 61041:20 61042:0.718 61043:-1.637 61044:0.965 61045:38 61046:2.062 61047:1.171 61048:-0.214 61049:3 61050:4 61051:1 61052:6 61053:2 61054:1 61060:3 61062:1 
0.03312236531069686 815:1 2197:1 3261:1 3781:1 6229:1 7483:1 8581:1 10141:1 10989:1 12063:1 12082:1 17998:1 19325:1 20169:1 22270:1 22855:1 24009:1 24577:1 28470:1 34213:1 34877:1 36184:1 37693:1 39469:1 40821:1 41357:1 44061:1 44446:1 45449:1 47459:1 47949:1 51304:1 53157:1 53320:1 55206:1 57826:1 61041:16 61042:-0.007 61043:-1.601 61044:0.049 61045:36 61046:-1.45 61047:1.171 61048:-0.154 61049:4 61050:3 61051:2 61052:7 61053:3 61054:2 61055:1 61056:1 61058:1 61060:2 61063:1 
0.06423437717247275 41:1 2950:1 4848:1 10784:1 11386:1 11729:1 18688:1 19104:1 21457:1 30730:1 32189:1 35406:1 37474:1 45291:1 49618:1 54489:1 55338:1 56375:1 56768:1 58812:1 61041:12 61042:4.041 61043:1.378 61044:-0.643 61045:27 61046:2.078 61047:1.407 61048:0.375 61049:1 61050:3 61051:7 61052:2 61053:2 61055:1 61056:2 61058:1 61059:2 61060:1 61061:1 61064:9 
0.02931301895243034 1996:1 2064:1 4953:1 8601:1 15037:1 18619:1 26389:1 27869:1 28602:1 31042:1 32690:1 33786:1 36332:1 37590:1 42988:1 43119:1 44508:1 45953:1 47155:1 56558:1 57811:1 60631:1 61041:14 61042:1.286 61043:1.522 61044:0.049 61045:27 61046:-3.676 61047:1.171 61048:0.138 61049:2 61050:2 61051:3 61052:2 61053:2 61055:3 61056:1 61057:1 61061:2 61063:1 
0.01246519721258496 171:1 4184:1 7178:1 9240:1 11447:1 12063:1 14628:1 15322:1 16036:1 16880:1 18541:1 19960:1 27347:1 28350:1 28547:1 30322:1 31191:1 34939:1 35777:1 35898:1 36062:1 37811:1 43661:1 44747:1 46407:1 49534:1 53320:1 55478:1 55809:1 59564:1 61041:24 61042:4.011 61043:-1.56 61044:0.588 61045:33 61046:-1.183 61047:-1.313 61048:0.37 61049:5 61050:9 61052:3 61053:2 61054:1 61060:2 61062:1 
0.01780372609644302 2532:1 5103:1 7111:1 8923:1 8945:1 10636:1 10774:1 12299:1 15290:1 15430:1 16869:1 18927:1 21024:1 23140:1 24169:1 24399:1 25341:1 25372:1 26834:1 27135:1 27420:1 29584:1 31523:1 36310:1 38301:1 40108:1 44906:1 48275:1 52468:1 52746:1 55375:1 57459:1 61041:14 61042:1.972 61043:1.255 61044:0.049 61045:28 61046:-1.778 61047:-2.086 61048:-2.086 61049:2 61050:2 61051:4 61052:5 61053:5 61054:1 61060:1 61063:3 
0.0935100839815526 2377:1 3478:1 4397:1 15871:1 18759:1 27051:1 34285:1 48198:1 57059:1 61041:7 61042:0.99 61043:0.983 61044:0.049 61045:8 61046:3.477 61047:1.784 61048:0.454 61049:1 61050:1 61051:3 61052:1 61053:1 61054:2 61057:1 61060:1 
0.05252713886882164 1916:1 2812:1 13304:1 18392:1 21042:1 21594:1 22156:1 25666:1 27315:1 27379:1 28296:1 29883:1 30837:1 31875:1 35446:1 37935:1 38921:1 47077:1 47428:1 48656:1 49534:1 49993:1 51973:1 54363:1 56804:1 58884:1 61041:13 61042:4.137 61043:1.669 61044:0.04 61045:24 61046:6.318 61047:5 61048:0.033 61049:1 61050:2 61051:8 61052:5 61053:3 61054:1 61055:1 61059:1 61060:1 61064:13 
0.02074018672461113 11895:1 13467:1 15680:1 17275:1 19302:1 34497:1 36535:1 38192:1 41301:1 42840:1 47515:1 55032:1 55750:1 61041:11 61042:2.696 61043:0.947 61044:0.325 61045:12 61046:-0.036 61047:-1.467 61048:-0.021 61050:2 61051:3 61052:2 61053:3 61054:1 
0.05377764904245712 5103:1 9484:1 11218:1 11824:1 13770:1 13953:1 19106:1 23362:1 25372:1 25710:1 31426:1 39105:1 46934:1 57672:1 61041:7 61042:1.835 61043:1.281 61044:-0.356 61045:24 61046:3.785 61047:2.27 61048:0.709 61049:2 61050:3 61051:3 61052:1 61053:2 61054:1 61055:3 61056:1 61059:1 61063:1 
0.08483916375584183 4578:1 14034:1 14775:1 17811:1 18697:1 19732:1 23458:1 23819:1 25573:1 26897:1 29150:1 31345:1 36400:1 43891:1 44628:1 45233:1 51986:1 52076:1 53020:1 60211:1 61041:6 61042:-1.926 61043:-1.723 61044:0.454 61045:32 61046:-4.552 61047:-0.705 61048:0.032 61049:4 61050:2 61051:7 61052:3 61053:3 61054:1 61055:2 61056:1 61057:1 
0.01689855001810645 5560:1 15136:1 15602:1 17319:1 19854:1 20743:1 21939:1 22575:1 23827:1 27377:1 30018:1 33869:1 36355:1 39213:1 41777:1 43799:1 49888:1 53173:1 54185:1 54245:1 55362:1 56148:1 56558:1 58836:1 61041:16 61042:3.334 61043:1.435 61044:1.435 61045:24 61046:3.463 61047:1.577 61048:0.562 61049:1 61050:2 61051:2 61052:5 61053:2 61054:2 61056:1 61058:1 61060:1 61063:2 
0.06957378070315694 8215:1 16107:1 16548:1 20208:1 29093:1 29192:1 33066:1 47733:1 49990:1 50104:1 54011:1 54363:1 58384:1 61041:12 61042:-0.99 61043:-1.896 61044:-1.896 61045:33 61046:-2.57 61047:-0.62 61048:0.19 61050:6 61051:3 61053:4 61054:2 61055:4 61057:2 61058:2 61059:1 61060:3 
0.0709310909726507 3045:1 4482:1 10794:1 11988:1 14918:1 18899:1 30392:1 31358:1 32290:1 38535:1 39247:1 42409:1 42443:1 43898:1 45883:1 48393:1 48486:1 50546:1 51877:1 53430:1 54161:1 61041:14 61042:2.392 61043:2.614 61044:2.614 61045:25 61046:-9.778 61047:-4.999 61048:0.169 61049:3 61050:1 61051:5 61052:3 61053:1 61054:3 61055:2 61056:2 61060:1 
0.02528140828741331 758:1 2406:1 4376:1 8908:1 12515:1 13139:1 13615:1 16268:1 18472:1 19465:1 20453:1 20950:1 24753:1 26521:1 33922:1 38030:1 38704:1 40182:1 51000:1 52963:1 55079:1 57044:1 57451:1 61041:11 61042:1.388 61043:2.064 61044:-0.574 61045:27 61046:-0.635 61047:-0.907 61048:0.391 61049:1 61050:3 61051:5 61052:2 61053:3 61054:1 61055:2 61056:3 61058:1 61059:1 61060:2 
0.03031072399298433 5511:1 5543:1 7112:1 9463:1 9739:1 12234:1 17413:1 19393:1 19771:1 20928:1 24308:1 27887:1 29015:1 29033:1 30042:1 30395:1 30625:1 31976:1 33787:1 35741:1 38241:1 38331:1 46674:1 48809:1 54719:1 54810:1 56428:1 61041:21 61042:5.635 61043:1.095 61044:0.56 61045:36 61046:-8.471 61047:-2.086 61048:0.611 61049:2 61050:4 61051:4 61052:4 61053:7 61054:1 61060:2 61062:1 
0.03787302877464259 11294:1 16852:1 17627:1 18040:1 18963:1 20661:1 26734:1 30628:1 31510:1 36651:1 37178:1 46347:1 47073:1 56558:1 57737:1 61041:8 61042:1.563 61043:1.313 61044:-0.133 61045:13 61046:-1.115 61047:-0.91 61048:0.883 61050:4 61052:2 61053:1 61054:1 61057:1 61062:1 
0.05226899197485405 178:1 3837:1 7978:1 9745:1 20478:1 20736:1 23023:1 24085:1 27085:1 29689:1 30319:1 31188:1 32844:1 34411:1 36108:1 36690:1 37570:1 38767:1 39305:1 40301:1 40935:1 42295:1 45423:1 48235:1 52397:1 59660:1 61041:7 61042:-1.323 61043:-0.962 61044:0.033 61045:23 61046:-6.095 61047:-4.999 61048:-0.171 61049:2 61050:3 61051:3 61052:3 61053:3 61054:3 61055:2 61056:1 61058:2 61059:1 61060:3 
