svm_type c_svc
kernel_type linear
nr_class 3
total_sv 7506
rho -1.29937 1.30843 1.01426
label 1 -1 0
probA -1.26757 -0.745508 -8.60665
probB 0.217992 -0.026192 -7.41861
nr_sv 2754 1205 3547
SV
100 100 1:13 2:-0.905 3:-0.972 4:-0.312 
0 100 1:17 2:2.465 3:1.723 4:-0.151 
0 100 1:11 2:3.039 3:1.489 4:-0.332 
0 100 1:23 2:7.584 3:5 4:0.359 
0 100 1:10 2:6.277 3:1.649 4:1.415 
0 100 1:25 2:4.603 3:5 4:-0.156 
0 100 1:19 2:4.45 3:1.658 4:0.122 
100 100 1:9 2:0.107 3:-1.165 4:0.276 
0 100 1:17 2:8.235 3:1.92 4:0.586 
0 100 1:13 2:3.872 3:1.435 4:-0.22 
0 100 1:12 2:3.997 3:1.147 4:0.22 
100 100 1:11 2:1.655 3:1.245 4:0.045 
0 100 1:24 2:4.007 3:0.948 4:0.51 
100 100 1:22 2:2.381 3:1.51 4:-0.59 
100 100 1:10 2:1.104 3:0.56 4:0.163 
0 100 1:17 2:8.46 3:2.447 4:1.979 
100 100 1:12 2:-1.901 3:-1.337 4:-0.442 
0 100 1:19 2:4.557 3:1.435 4:0.19 
100 100 1:15 2:1.098 3:-0.738 4:0.375 
100 100 1:15 2:-0.092 3:1.147 4:0.332 
100 100 1:11 2:-0.331 3:-0.665 4:0.19 
100 100 1:23 2:0.319 3:-1.828 4:0.789 
0 100 1:17 2:5.015 3:1.84 4:0.567 
0 100 1:25 2:11.098 3:1.723 4:0.316 
0 100 1:21 2:2.66 3:1.291 4:-0.041 
0 100 1:12 2:2.057 3:0.667 4:0.471 
100 100 1:21 2:0.976 3:-1.161 4:0.454 
0 100 1:16 2:8.588 3:1.75 4:0.06 
0 100 1:10 2:3.096 3:1.12 4:0.634 
0 100 1:19 2:3.077 3:2.189 4:-0.975 
0 100 1:12 2:2.811 3:1.301 4:-0.173 
100 100 1:22 2:-1.071 3:-2.202 4:0.205 
0 100 1:10 2:3.284 3:0.908 4:-0.059 
0 100 1:16 2:4.986 3:2.3 4:-0.206 
100 100 1:10 2:-0.123 3:0.454 4:0.122 
100 100 1:25 2:0.803 3:1.232 4:0.58 
0 100 1:11 2:3.479 3:1.147 4:-0.867 
0 100 1:21 2:15.44 3:5 4:0.448 
0 100 1:10 2:2.837 3:1.12 4:-0.446 
100 100 1:22 2:-4.762 3:-4.999 4:-0.151 
100 100 1:13 2:0.155 3:1.33 4:0.452 
100 100 1:21 2:1.019 3:-4.999 4:-1.337 
0 100 1:19 2:4.99 3:1.84 4:-0.076 
0 100 1:15 2:4.817 3:1.435 4:1.147 
0 100 1:15 2:3.095 3:1.493 4:0.371 
100 100 1:13 2:-0.24 3:0.619 4:0.005 
0 100 1:9 2:2.94 3:1.099 4:0.659 
100 100 1:14 2:0.828 3:5 4:0.19 
100 100 1:30 2:-1.258 3:-4.999 4:0.87 
0 100 1:17 2:2.519 3:-1.31 4:0.442 
0 100 1:13 2:2.116 3:1.004 4:0.185 
0 100 1:8 2:4.284 3:1.435 4:0.089 
0 100 1:13 2:4.725 3:1.348 4:1.348 
0 100 1:23 2:5.196 3:1.78 4:0.145 
100 100 1:13 2:-4.484 3:-1.363 4:0.267 
100 100 1:10 2:-3.384 3:-1.811 4:0.097 
100 100 1:9 2:-4.066 3:-1.812 4:0.005 
100 100 1:15 2:-0.94 3:-1.723 4:0.442 
0 100 1:15 2:10.259 3:2.598 4:-0.169 
0 100 1:15 2:7.307 3:1.576 4:0.919 
100 100 1:14 2:-4.65 3:-1.56 4:-0.387 
100 100 1:23 2:2.927 3:-4.999 4:1.699 
100 100 1:22 2:0.053 3:-1.221 4:0.58 
0 100 1:12 2:7.487 3:2.041 4:0.461 
0 100 1:6 2:8.782 3:5 4:0.974 
100 100 1:7 2:0.568 3:0.742 4:-0.039 
100 100 1:23 2:0.563 3:-1.7 4:0.674 
0 100 1:13 2:1.472 3:1.147 4:0.135 
100 100 1:8 2:1.726 3:0.965 4:0.398 
100 100 1:19 2:-6.707 3:-2.754 4:-0.375 
0 100 1:21 2:4.833 3:1.589 4:0.143 
100 100 1:18 2:-0.134 3:-1.154 4:0.119 
0 100 1:17 2:4.226 3:1.553 4:0.535 
100 100 1:21 2:1.265 3:1.436 4:0.627 
100 100 1:14 2:0.477 3:1.348 4:0.58 
0 100 1:27 2:11.813 3:1.319 4:1.226 
100 100 1:14 2:0.063 3:1.196 4:-0.072 
0 100 1:16 2:2.614 3:1.569 4:1.196 
0 100 1:17 2:3.521 3:-1.669 4:0.123 
100 100 1:24 2:-0.539 3:1.723 4:0.142 
100 100 1:23 2:0.585 3:-4.999 4:2.299 
100 100 1:14 2:0.188 3:-1.154 4:-0.356 
0 100 1:27 2:8.349 3:2.189 4:0.821 
100 100 1:14 2:0.007 3:-0.683 4:-0.002 
0 100 1:16 2:5.753 3:1.41 4:0.627 
0 100 1:22 2:4.722 3:1.553 4:-0.072 
0 100 1:19 2:3.443 3:1.435 4:-0.05 
100 100 1:8 2:-2.315 3:-1.896 4:0.045 
0 100 1:14 2:3.149 3:1.078 4:0.627 
100 100 1:12 2:-0.772 3:-2.202 4:0.085 
100 100 1:19 2:-8.92 3:-4.999 4:-0.28 
0 100 1:23 2:4.696 3:1.84 4:0.58 
100 100 1:27 2:-10.164 3:-2.452 4:-0.189 
0 100 1:14 2:6.733 3:1.813 4:0.461 
0 100 1:22 2:12.27 3:5 4:0.19 
0 100 1:18 2:2.684 3:-1.896 4:0.569 
0 100 1:15 2:2.3 3:1.147 4:0.135 
0 100 1:16 2:2.224 3:1.147 4:0.245 
0 100 1:13 2:6.386 3:1.589 4:-0.001 
0 100 1:19 2:15.38 3:5 4:0.879 
0 100 1:23 2:6.017 3:1.227 4:-0.021 
100 100 1:7 2:-0.719 3:0.772 4:0.772 
0 100 1:16 2:7.311 3:2.299 4:-0.766 
100 100 1:15 2:-0.06 3:-0.896 4:0.244 
100 100 1:5 2:0.727 3:0.933 4:0.086 
0 100 1:14 2:9.264 3:5 4:0.825 
100 100 1:12 2:-2.645 3:-1.896 4:0.223 
6.104475901361354 100 1:12 2:1.496 3:-1.337 4:0.636 
0 100 1:17 2:4.782 3:1.365 4:0.153 
100 100 1:16 2:-1.243 3:-1.01 4:-0.446 
100 100 1:15 2:-0.545 3:-0.72 4:0.442 
0 100 1:15 2:3.267 3:1.092 4:-0.077 
100 100 1:20 2:-4.827 3:-2.09 4:-0.614 
100 100 1:14 2:-6.825 3:-2.353 4:0.427 
0 100 1:22 2:7.599 3:1.245 4:0.866 
0 100 1:14 2:7.391 3:5 4:0.267 
0 100 1:19 2:3.964 3:1.92 4:1.083 
100 100 1:15 2:-0.564 3:-0.992 4:-0.382 
100 100 1:17 2:0.394 3:-1.129 4:0.039 
0 100 1:14 2:9.91 3:2.614 4:0.143 
100 100 1:20 2:1.573 3:1.196 4:0.442 
0 100 1:13 2:5.471 3:1.147 4:0.336 
0 100 1:20 2:4.574 3:-1.896 4:-0.194 
100 100 1:21 2:2.018 3:5 4:-0.104 
0 100 1:21 2:13.986 3:5 4:0.536 
0 100 1:10 2:2.487 3:1.196 4:0.042 
100 100 1:13 2:-0.548 3:1.435 4:0.439 
0 100 1:8 2:7.01 3:1.84 4:0.183 
0 100 1:17 2:12.392 3:3.044 4:0.244 
100 100 1:17 2:-1.033 3:-4.999 4:0.51 
100 100 1:11 2:-0.135 3:1.871 4:0.104 
0 100 1:19 2:7.291 3:1.49 4:-0.151 
100 100 1:15 2:-1.479 3:0.991 4:-0.372 
100 100 1:17 2:1.302 3:-1.454 4:-0.151 
0 100 1:21 2:3.241 3:0.98 4:-0.074 
0 100 1:9 2:4.181 3:1.81 4:1.81 
0 100 1:12 2:4.174 3:1.476 4:-0.396 
0 100 1:12 2:2.866 3:1.355 4:-0.25 
0 100 1:11 2:5.348 3:2.634 4:2.634 
0 100 1:17 2:6.663 3:1.84 4:-0.064 
100 100 1:13 2:-8.87 3:-2.071 4:-0.421 
100 100 1:11 2:0.929 3:0.633 4:0.249 
100 100 1:7 2:2.139 3:1.1 4:-0.643 
100 100 1:12 2:-3.135 3:-1.399 4:-0.002 
100 100 1:4 2:0.401 3:0.522 4:0.183 
0 100 1:19 2:6.495 3:1.262 4:0.886 
100 100 1:18 2:-0.461 3:-1.648 4:0.267 
0 100 1:17 2:3.705 3:1.571 4:-0.141 
100 100 1:21 2:-0.919 3:-1.812 4:0.319 
0 100 1:21 2:7.522 3:1.402 4:-0.151 
0 100 1:22 2:8.967 3:1.563 4:0.226 
0 100 1:16 2:1.388 3:1.049 4:1.049 
0 100 1:10 2:2.714 3:0.742 4:0.73 
100 100 1:19 2:-1.118 3:-0.978 4:0.245 
0 100 1:15 2:8.668 3:2.688 4:-0.054 
100 100 1:21 2:2.16 3:1.435 4:-0.402 
0 100 1:13 2:3.23 3:1.147 4:-0.077 
100 100 1:14 2:0.32 3:-1.049 4:0.816 
0 100 1:15 2:3.13 3:0.86 4:-0.059 
100 100 1:17 2:0.603 3:0.965 4:0.224 
0 100 1:14 2:2.248 3:0.639 4:0.639 
100 100 1:13 2:0.914 3:-4.999 4:-4.999 
0 100 1:19 2:9.684 3:5 4:-0.133 
100 100 1:19 2:-3.798 3:-2.148 4:-0.373 
100 100 1:31 2:-7.734 3:-3.018 4:-0.643 
0 100 1:19 2:2.799 3:1.007 4:0.411 
0 100 1:13 2:8.342 3:5 4:-0.097 
100 100 1:22 2:0.478 3:-1.297 4:-0.142 
0 100 1:13 2:3.435 3:2.064 4:0.123 
100 100 1:12 2:-2.003 3:-1.049 4:0.183 
0 100 1:24 2:7.457 3:1.675 4:0.52 
100 100 1:8 2:2.151 3:-1.457 4:1.301 
100 100 1:17 2:-0.893 3:-1.943 4:-1.943 
100 100 1:11 2:-4.248 3:-1.896 4:0.266 
100 100 1:12 2:-0.163 3:-1.15 4:-0.016 
0 100 1:13 2:6.034 3:2.246 4:0.267 
0 100 1:18 2:3.023 3:2.128 4:-0.228 
0 100 1:16 2:12.812 3:5 4:0.472 
0 100 1:11 2:2.996 3:1.485 4:-0.666 
0 100 1:15 2:3.821 3:2.026 4:0.52 
0 100 1:14 2:2.807 3:-2.148 4:-0.177 
100 100 1:20 2:-0.011 3:-4.999 4:0.203 
0 100 1:16 2:7.026 3:1.76 4:0.19 
0 100 1:12 2:2.083 3:1.07 4:-0.507 
0 100 1:17 2:4.059 3:1.359 4:0.454 
100 100 1:11 2:1.051 3:-1.174 4:-0.121 
100 100 1:26 2:-7.665 3:-4.999 4:-0.151 
0 100 1:28 2:8.743 3:5 4:-0.001 
100 100 1:9 2:-0.132 3:-1.103 4:-0.151 
0 100 1:19 2:7.425 3:1.15 4:0.95 
0 100 1:13 2:2.842 3:1.212 4:0.269 
0 100 1:24 2:7.312 3:1.533 4:0.442 
100 100 1:6 2:-0.736 3:-0.353 4:-0.353 
0 100 1:19 2:3.291 3:1.435 4:0.267 
0 100 1:15 2:2.741 3:1.658 4:0.414 
0 100 1:18 2:3.638 3:1.189 4:1.189 
0 100 1:14 2:7.926 3:2.688 4:-0.054 
0 100 1:14 2:2.178 3:2.128 4:0.267 
0 100 1:11 2:5.266 3:1.941 4:0.65 
5.038970076959691 100 1:19 2:2.129 3:-1.651 4:-0.072 
0 100 1:27 2:9.881 3:1.703 4:1.703 
100 100 1:8 2:0.955 3:0.636 4:-0.151 
0 100 1:17 2:4.154 3:1.658 4:0.091 
0 100 1:23 2:3.839 3:-4.999 4:0.066 
0 100 1:23 2:9.853 3:5 4:0.569 
100 100 1:6 2:0.249 3:1.348 4:-0.842 
100 100 1:20 2:-6.08 3:-2.044 4:-1.648 
0 100 1:28 2:12.055 3:2.375 4:0.266 
100 100 1:8 2:2.153 3:0.777 4:-0.151 
100 100 1:23 2:1.991 3:1.553 4:0.838 
0 100 1:6 2:3.357 3:1.658 4:-0.151 
0 100 1:13 2:5.837 3:5 4:0.433 
0 100 1:16 2:6.273 3:1.575 4:0.454 
0 100 1:13 2:8.78 3:1.806 4:1.087 
0 100 1:18 2:4.672 3:1.435 4:0.517 
100 100 1:13 2:-0.593 3:-1.818 4:0.547 
0 100 1:13 2:3.728 3:1.253 4:0.459 
0 100 1:20 2:4.308 3:1.485 4:0.28 
0 100 1:15 2:3.188 3:-1.56 4:-0.133 
0 100 1:12 2:3.457 3:2.128 4:0.287 
0 100 1:13 2:11.027 3:2.888 4:0.427 
100 100 1:14 2:0.686 3:1.51 4:-0.269 
0 100 1:14 2:6.229 3:1.777 4:0.985 
100 100 1:11 2:1.455 3:-1.049 4:0.085 
0 100 1:28 2:6.892 3:1.553 4:0.306 
0 100 1:23 2:3.796 3:-2.515 4:0.418 
0 100 1:22 2:3.807 3:0.965 4:0.864 
0 100 1:18 2:2.086 3:-1.987 4:0.587 
100 100 1:20 2:1.171 3:-1.713 4:-0.266 
0 100 1:26 2:7.764 3:1.591 4:0.296 
100 100 1:23 2:-7.72 3:-3.169 4:-0.225 
0 100 1:23 2:6.937 3:1.675 4:0.627 
0 100 1:18 2:8.034 3:1.658 4:0.135 
0 100 1:19 2:3.819 3:0.978 4:0.922 
0 100 1:16 2:2.157 3:1.147 4:0.636 
0 100 1:13 2:5.832 3:1.352 4:0.682 
0 100 1:7 2:6.285 3:3.044 4:0.001 
0 100 1:12 2:9.896 3:2.634 4:1.196 
100 100 1:15 2:-3.131 3:-2.073 4:-0.857 
0 100 1:15 2:2.598 3:1.658 4:-0.672 
0 100 1:13 2:3.797 3:-2.344 4:0.19 
0 100 1:19 2:1.891 3:1.563 4:0.361 
100 100 1:26 2:-11.026 3:-4.999 4:-0.431 
0 100 1:14 2:2.726 3:1.801 4:-0.077 
0 100 1:14 2:3.867 3:2.351 4:0.613 
0 100 1:15 2:8.668 3:2.688 4:-0.054 
0 100 1:13 2:4.188 3:1.301 4:-0.446 
0 100 1:14 2:4.063 3:5 4:0.36 
100 100 1:6 2:1.777 3:0.586 4:-0.539 
31.24673360910884 100 1:17 2:1.636 3:1.384 4:1.06 
100 100 1:7 2:1.519 3:1.03 4:-0.011 
100 100 1:6 2:2.635 3:1.196 4:0.183 
100 100 1:9 2:0.952 3:1.812 4:0.01 
100 100 1:27 2:-3.473 3:-2.004 4:1.131 
0 100 1:17 2:5.92 3:1.253 4:-0.069 
0 100 1:17 2:6.706 3:1.348 4:0.429 
0 100 1:13 2:3.144 3:0.59 4:0.316 
0 100 1:19 2:7.734 3:1.517 4:0.06 
0 100 1:20 2:2.853 3:1.473 4:0.267 
0 100 1:13 2:6.039 3:1.49 4:1.152 
86.49699185168473 100 1:18 2:1.651 3:-0.98 4:0.138 
0 100 1:23 2:3.988 3:1.487 4:0.442 
0 100 1:13 2:4.492 3:1.84 4:0.726 
0 100 1:11 2:4.946 3:1.995 4:1.024 
0 100 1:20 2:7.736 3:1.151 4:0.267 
100 100 1:23 2:-2.924 3:-2.286 4:-0.151 
0 100 1:15 2:2.648 3:1.147 4:0.132 
0 100 1:11 2:7.53 3:1.991 4:-0.115 
0 100 1:21 2:5.574 3:1.92 4:-0.914 
0 100 1:27 2:6.475 3:1.431 4:0.359 
0 100 1:13 2:1.507 3:0.791 4:-0.151 
0 100 1:16 2:2.012 3:1.147 4:0.106 
0 100 1:18 2:2.701 3:1.84 4:-1.673 
0 100 1:22 2:8.201 3:1.313 4:0.226 
0 100 1:12 2:2.456 3:1.063 4:-0.312 
0 100 1:19 2:2.75 3:1.435 4:0.726 
0 100 1:17 2:9.275 3:2.351 4:0.005 
100 100 1:12 2:-0.2 3:-0.435 4:-0.112 
100 100 1:14 2:0.267 3:-1.472 4:-0.956 
100 100 1:8 2:2.301 3:1.435 4:0.19 
0 100 1:9 2:2.09 3:1.201 4:0.73 
0 100 1:21 2:7.137 3:2.614 4:0.837 
0 100 1:20 2:4.883 3:1.399 4:0.169 
0 100 1:14 2:16.745 3:5 4:-0.077 
100 100 1:19 2:-0.449 3:-4.999 4:-0.151 
0 100 1:18 2:5.702 3:1.484 4:0.409 
0 100 1:17 2:3.749 3:1.658 4:0.183 
100 100 1:19 2:-0.823 3:0.844 4:0.138 
100 100 1:6 2:1.403 3:0.699 4:0.135 
100 100 1:14 2:0.219 3:-4.999 4:-0.094 
100 100 1:17 2:1.311 3:0.649 4:-0.072 
0 100 1:19 2:4.05 3:1.36 4:-0.189 
100 100 1:18 2:0.726 3:-2.253 4:-0.866 
0 100 1:16 2:2.297 3:-1.233 4:0.046 
0 100 1:12 2:2.539 3:1.84 4:-0.151 
0 100 1:22 2:9.244 3:2.064 4:0.218 
0 100 1:19 2:4.973 3:1.789 4:0.979 
0 100 1:13 2:3.451 3:1.658 4:0.19 
0 100 1:22 2:14.808 3:5 4:0.537 
100 100 1:16 2:-10.233 3:-4.999 4:-1.64 
0 100 1:14 2:7.891 3:1.359 4:0.46 
0 100 1:17 2:6.918 3:1.544 4:0.495 
100 100 1:15 2:0.928 3:0.813 4:0.135 
0 100 1:13 2:6.144 3:2.757 4:0.268 
100 100 1:11 2:-9.269 3:-4.999 4:-0.151 
0 100 1:15 2:6.922 3:1.224 4:0.094 
0 100 1:13 2:4.389 3:1.521 4:1.313 
0 100 1:12 2:3.372 3:1.536 4:-0.072 
0 100 1:18 2:5.784 3:1.76 4:-0.117 
0 100 1:14 2:2.802 3:-0.878 4:0.359 
0 100 1:19 2:3.398 3:1.435 4:0.569 
0 100 1:13 2:1.997 3:1.348 4:0.1 
0 100 1:12 2:6.347 3:1.319 4:1.226 
0 100 1:16 2:1.547 3:2.128 4:0.56 
0 100 1:20 2:5.374 3:2.128 4:1.735 
0 100 1:18 2:3.683 3:1.373 4:-0.356 
100 100 1:22 2:-3.539 3:2.821 4:-0.036 
0 100 1:18 2:2.605 3:-1.337 4:0.273 
0 100 1:16 2:3.941 3:1.06 4:0.19 
100 100 1:10 2:1.202 3:-1.742 4:0.985 
0 100 1:20 2:7.775 3:5 4:1.916 
0 100 1:23 2:8.673 3:1.92 4:0.089 
100 100 1:19 2:-1.422 3:-4.999 4:0.58 
0 100 1:9 2:2.799 3:1.157 4:1.157 
100 100 1:16 2:-0.756 3:-1.454 4:-0.924 
0 100 1:12 2:5.27 3:1.468 4:1.466 
0 100 1:18 2:4.003 3:1.589 4:-0.373 
100 100 1:19 2:1.396 3:1.388 4:-0.299 
100 100 1:5 2:-0.724 3:1.196 4:-0.411 
100 100 1:10 2:-2.288 3:1.196 4:-0.358 
0 100 1:15 2:3.645 3:0.916 4:0.154 
100 100 1:9 2:0.233 3:1.147 4:-0.673 
0 100 1:20 2:6.92 3:5 4:-0.151 
0 100 1:10 2:3.442 3:-1.337 4:0.58 
0 100 1:21 2:3.302 3:1.789 4:0.141 
0 100 1:16 2:5.907 3:2.574 4:-1.397 
100 100 1:16 2:0.027 3:-4.999 4:-0.151 
100 100 1:6 2:0.519 3:-1.049 4:-0.034 
0 100 1:24 2:9.338 3:1.365 4:0.084 
0 100 1:12 2:5.599 3:1.359 4:0.442 
0 100 1:13 2:5.398 3:1.307 4:0.129 
0 100 1:14 2:6.445 3:1.895 4:-0.099 
100 100 1:20 2:-2.445 3:-1.541 4:-0.151 
100 100 1:13 2:0.766 3:1.152 4:1.152 
100 100 1:7 2:-1.332 3:-0.617 4:0.551 
0 100 1:10 2:4.407 3:1.845 4:0.138 
100 100 1:11 2:0.204 3:-1.337 4:0.129 
0 100 1:22 2:6.388 3:-1.796 4:0.199 
0 100 1:16 2:1.394 3:0.975 4:-0.07 
100 100 1:12 2:0.715 3:0.872 4:0.183 
0 100 1:12 2:3.784 3:1.253 4:-0.015 
0 100 1:12 2:4.431 3:1.117 4:1.012 
0 100 1:16 2:4.301 3:1.783 4:1.196 
0 100 1:20 2:4.295 3:1.294 4:-0.093 
100 100 1:9 2:0.633 3:1.25 4:-0.914 
0 100 1:18 2:2.914 3:1.03 4:-0.151 
100 100 1:15 2:-2.126 3:-4.999 4:-0.144 
100 100 1:15 2:-2.541 3:-1.337 4:1.147 
100 100 1:13 2:0.37 3:-1.609 4:-0.594 
100 100 1:14 2:0.813 3:-1.924 4:0.028 
0 100 1:8 2:5.477 3:1.251 4:1.147 
0 100 1:12 2:7.908 3:1.995 4:-0.077 
0 100 1:18 2:9.027 3:2.688 4:-0.411 
0 100 1:15 2:2.382 3:0.985 4:0.183 
0 100 1:18 2:4.914 3:1.177 4:0.109 
0 100 1:10 2:5.266 3:1.701 4:-0.151 
0 100 1:8 2:2.789 3:0.916 4:0.138 
0 100 1:10 2:2.243 3:2.534 4:-0.29 
0 100 1:23 2:7.469 3:2.128 4:-0.266 
0 100 1:24 2:6.206 3:1.723 4:-0.756 
0 100 1:10 2:2.04 3:0.742 4:-0.287 
100 100 1:26 2:-1.507 3:-1.822 4:0.724 
0 100 1:11 2:10.524 3:1.951 4:1.196 
0 100 1:15 2:3.375 3:1.569 4:1.196 
0 100 1:11 2:5.361 3:2.73 4:-0.356 
0 100 1:10 2:2.435 3:1.393 4:1.393 
100 100 1:24 2:-2.777 3:-2.41 4:0.951 
0 100 1:18 2:1.876 3:1.388 4:0.031 
0 100 1:20 2:4.513 3:1.653 4:0.878 
0 100 1:10 2:4.672 3:1.995 4:-0.285 
0 100 1:9 2:7.37 3:1.435 4:0.674 
0 100 1:13 2:2.596 3:-0.931 4:-0.931 
0 100 1:16 2:2.203 3:1.147 4:0.005 
0 100 1:11 2:2.261 3:1.359 4:0.522 
0 100 1:20 2:6.709 3:1.33 4:0.149 
0 100 1:19 2:2.21 3:-1.896 4:-0.329 
0 100 1:15 2:2.969 3:1.376 4:-0.315 
100 100 1:19 2:-1.013 3:1.104 4:0.183 
100 100 1:10 2:1.717 3:1.783 4:-0.072 
0 100 1:21 2:2.464 3:-1.149 4:0.138 
100 100 1:18 2:-3.668 3:-1.909 4:0.611 
100 100 1:22 2:-10.951 3:-4.999 4:-0.019 
0 100 1:15 2:5.778 3:1.735 4:-0.104 
100 100 1:19 2:-3.221 3:-1.896 4:0.106 
0 100 1:17 2:2.164 3:2.2 4:-0.275 
100 100 1:6 2:0.635 3:0.636 4:-0.151 
100 100 1:12 2:-2.241 3:1.196 4:-0.028 
0 100 1:9 2:2.496 3:0.974 4:-0.155 
100 100 1:12 2:-1.072 3:1.495 4:0.005 
100 100 1:18 2:2.14 3:1.995 4:-0.73 
100 100 1:9 2:0.095 3:1.435 4:0.357 
0 100 1:25 2:6.716 3:-1.581 4:0.076 
100 100 1:11 2:0.768 3:0.742 4:-0.151 
100 100 1:17 2:-0.13 3:1.435 4:-0.266 
100 100 1:15 2:1.04 3:-1.221 4:0.158 
100 100 1:18 2:0.849 3:-1.337 4:0.147 
0 100 1:12 2:2.921 3:-1.277 4:-0.423 
100 100 1:27 2:0.337 3:1.942 4:0.314 
0 100 1:19 2:2.783 3:-2.051 4:0.16 
100 100 1:19 2:-0.126 3:2.128 4:1.196 
100 100 1:5 2:-0.614 3:-0.888 4:0.094 
100 100 1:14 2:-1.261 3:-1.22 4:-1.22 
100 100 1:16 2:-0.591 3:1.162 4:0.569 
0 100 1:19 2:4.586 3:-1.742 4:0.488 
0 100 1:22 2:6.025 3:1.119 4:0.265 
0 100 1:11 2:6.685 3:1.348 4:-0.151 
100 100 1:8 2:0.548 3:0.575 4:0.477 
0 100 1:12 2:3.899 3:1.838 4:1.838 
100 100 1:17 2:0.124 3:0.742 4:0.474 
100 100 1:27 2:1.373 3:-1.268 4:0.183 
84.98111998072058 100 1:26 2:3.999 3:-1.184 4:0.487 
0 30.94331317145686 1:21 2:8.026 3:1.21 4:0.076 
100 100 1:23 2:1.512 3:1.435 4:0.158 
0 100 1:14 2:4.064 3:1.12 4:0.585 
0 100 1:10 2:6.722 3:1.995 4:0.477 
0 100 1:13 2:1.424 3:0.742 4:-0.151 
100 100 1:20 2:1.613 3:-0.915 4:0.58 
100 100 1:20 2:1.163 3:0.983 4:0.519 
0 100 1:25 2:8.953 3:1.49 4:1.152 
100 100 1:17 2:0.961 3:-2.148 4:1.083 
0 100 1:20 2:3.093 3:5 4:0.158 
0 100 1:10 2:7.784 3:2.282 4:1.03 
0 100 1:12 2:9.556 3:5 4:1.152 
0 100 1:11 2:2.153 3:1.589 4:0.211 
100 100 1:10 2:-2.829 3:1.152 4:1.152 
0 100 1:13 2:6.758 3:1.84 4:0.277 
0 100 1:8 2:3.527 3:1.261 4:-0.077 
100 100 1:16 2:1.06 3:1.979 4:-0.77 
0 100 1:20 2:4.923 3:1.92 4:-0.151 
0 100 1:16 2:5.898 3:1.703 4:1.152 
100 100 1:18 2:-4.973 3:-2.215 4:0.328 
100 100 1:17 2:-0.147 3:1.658 4:-0.002 
0 100 1:10 2:9.634 3:1.842 4:1.086 
100 100 1:20 2:-2.929 3:-1.896 4:0.267 
0 100 1:12 2:4.791 3:1.147 4:1.147 
100 100 1:15 2:-1.798 3:-1.447 4:0.137 
0 100 1:10 2:2.781 3:2.064 4:-0.104 
0 100 1:9 2:11.455 3:5 4:1.141 
0 100 1:11 2:5.953 3:1.184 4:0.655 
0 100 1:16 2:3.724 3:0.965 4:0.138 
0 100 1:19 2:6.527 3:1.261 4:0.132 
0 69.3359267752153 1:22 2:8.264 3:2.128 4:0.34 
0 100 1:10 2:3.336 3:-1.337 4:0.24 
100 100 1:13 2:-0.101 3:-1.648 4:-0.356 
100 100 1:17 2:-2.929 3:-1.648 4:0.051 
100 100 1:12 2:0.455 3:-0.761 4:-0.151 
0 100 1:23 2:4.841 3:1.995 4:0.19 
100 100 1:26 2:-11.772 3:-4.999 4:0.276 
100 100 1:10 2:0.483 3:0.965 4:0.438 
100 100 1:16 2:-0.069 3:-0.931 4:0.284 
100 100 1:11 2:0.518 3:1.147 4:-0.278 
0 100 1:16 2:4.917 3:1.521 4:0.231 
0 100 1:10 2:8.332 3:1.951 4:-0.238 
100 100 1:21 2:1.354 3:-1.637 4:0.104 
0 100 1:16 2:6.157 3:1.263 4:0.316 
0 100 1:20 2:5.303 3:1.991 4:-0.074 
100 100 1:12 2:0.258 3:1.226 4:1.226 
0 100 1:18 2:5.942 3:1.147 4:0.599 
100 100 1:16 2:-0.007 3:-1.601 4:-1.601 
0 100 1:15 2:5.686 3:1.378 4:0.58 
100 100 1:14 2:1.286 3:1.522 4:0.077 
0 100 1:16 2:3.877 3:1.752 4:0.727 
0 100 1:17 2:3.404 3:1.569 4:1.196 
0 100 1:19 2:7.479 3:1.92 4:0.185 
0 100 1:24 2:4.011 3:-1.56 4:0.253 
0 100 1:14 2:1.972 3:1.255 4:-0.197 
0 100 1:13 2:7.042 3:1.553 4:1.055 
0 100 1:14 2:9.082 3:2.485 4:-0.364 
100 100 1:3 2:0.925 3:1.147 4:-0.049 
100 100 1:7 2:0.99 3:0.983 4:0.202 
0 100 1:17 2:4.829 3:1.669 4:-0.072 
0 100 1:11 2:2.696 3:0.947 4:0.06 
0 100 1:30 2:12.132 3:2.128 4:0.515 
100 100 1:7 2:1.835 3:1.281 4:-0.269 
100 100 1:6 2:-1.926 3:-1.723 4:0.143 
0 100 1:22 2:5.043 3:1.651 4:1.651 
0 100 1:16 2:3.334 3:1.435 4:0.267 
100 100 1:12 2:-0.99 3:-1.896 4:-0.13 
0 100 1:19 2:6.046 3:-1.655 4:-0.265 
0 100 1:14 2:2.392 3:2.614 4:0.633 
0 100 1:14 2:7.926 3:2.688 4:-0.054 
100 100 1:11 2:1.388 3:2.064 4:-0.458 
0 100 1:21 2:5.635 3:1.095 4:0.498 
100 100 1:8 2:1.563 3:1.313 4:1.313 
100 100 1:7 2:-1.323 3:-0.962 4:0.045 
0 100 1:16 2:4.257 3:1.147 4:0.055 
0 100 1:9 2:3.004 3:1.359 4:-0.193 
100 100 1:6 2:0.843 3:0.512 4:-0.068 
100 100 1:13 2:-0.003 3:-1.742 4:0.26 
0 100 1:16 2:4.004 3:1.392 4:0.109 
0 100 1:22 2:11.469 3:5 4:-0.228 
0 100 1:17 2:6.41 3:1.384 4:1.025 
100 100 1:12 2:0.44 3:0.636 4:0.115 
0 100 1:20 2:6.302 3:1.995 4:1.097 
100 100 1:16 2:-2.055 3:-2.148 4:0.141 
100 100 1:13 2:-1.878 3:-4.999 4:0.131 
0 100 1:21 2:5.542 3:1.468 4:-0.194 
100 100 1:10 2:0.758 3:0.742 4:-0.125 
100 100 1:15 2:-0.199 3:-1.049 4:0.19 
100 100 1:16 2:-2.975 3:-2.302 4:-2.302 
0 100 1:13 2:6.201 3:1.435 4:-0.01 
0 100 1:23 2:4.763 3:1.319 4:0.036 
100 100 1:25 2:1.022 3:-1.742 4:-0.194 
100 100 1:15 2:0.424 3:1.435 4:1.273 
0 100 1:12 2:3.822 3:1.253 4:0.442 
100 100 1:13 2:-1.415 3:-1.578 4:0.736 
0 100 1:12 2:9.947 3:2.919 4:0.489 
0 100 1:8 2:2.821 3:1.776 4:-0.189 
0 100 1:24 2:15.75 3:5 4:0.077 
0 100 1:22 2:4.242 3:1.438 4:0.267 
0 100 1:16 2:4.712 3:1.365 4:0.866 
0 100 1:12 2:4.361 3:1.076 4:1.076 
0 100 1:12 2:5.985 3:2.246 4:0.267 
0 100 1:28 2:10.921 3:1.84 4:0.256 
0 100 1:10 2:3.116 3:1.099 4:-0.151 
0 100 1:17 2:11.825 3:5 4:2.73 
0 100 1:14 2:2.499 3:1.253 4:-0.036 
0 100 1:13 2:7.377 3:1.275 4:1.083 
0 100 1:9 2:5.304 3:1.435 4:0.519 
100 100 1:26 2:-5.011 3:-1.702 4:-1.203 
0 100 1:22 2:6.848 3:1.083 4:0.19 
0 100 1:14 2:3.459 3:1.658 4:0.978 
0 100 1:11 2:2.953 3:-2.148 4:0.487 
0 100 1:12 2:4.752 3:1.253 4:0.022 
0 100 1:12 2:2.455 3:0.965 4:-0.072 
0 100 1:10 2:2.027 3:1.03 4:-0.425 
100 100 1:27 2:3.55 3:2.064 4:0.613 
0 100 1:13 2:1.715 3:0.965 4:-0.001 
0 100 1:20 2:6.781 3:2.905 4:0.183 
100 100 1:25 2:2.281 3:-1.432 4:0.451 
0 100 1:20 2:3.078 3:1.06 4:-0.312 
100 100 1:15 2:1.244 3:-1.049 4:-0.189 
0 100 1:13 2:2.361 3:1.378 4:0.56 
100 100 1:16 2:1.219 3:1.49 4:0.123 
0 100 1:17 2:1.935 3:1.84 4:-0.211 
0 100 1:23 2:4.873 3:-2.658 4:0.014 
0 100 1:16 2:2.545 3:1.207 4:0.215 
100 100 1:9 2:-0.504 3:-0.573 4:-0.573 
0 100 1:13 2:2.602 3:-1.896 4:0.414 
0 100 1:12 2:7.322 3:1.45 4:-0.31 
100 100 1:16 2:0.518 3:1.212 4:-0.446 
0 100 1:13 2:4.625 3:1.273 4:0.623 
100 100 1:22 2:1.761 3:1.355 4:-0.068 
100 100 1:7 2:-0.501 3:-1.896 4:0.037 
0 100 1:8 2:4.226 3:1.559 4:-0.109 
0 100 1:12 2:2.964 3:1.596 4:-0.151 
100 100 1:8 2:-0.229 3:1.313 4:1.313 
0 100 1:20 2:11.144 3:5 4:2.047 
0 100 1:12 2:8.277 3:1.753 4:1.267 
100 100 1:13 2:1.036 3:0.907 4:0.097 
100 100 1:8 2:-1.969 3:-1.742 4:-0.151 
0 100 1:14 2:3.456 3:2.447 4:-0.842 
100 100 1:11 2:-4.021 3:-1.262 4:0.141 
100 100 1:25 2:0.882 3:-2.209 4:-1.648 
100 100 1:23 2:-3.858 3:-1.56 4:-0.877 
0 100 1:12 2:1.758 3:0.583 4:-0.001 
0 100 1:19 2:3.342 3:1.147 4:-0.043 
0 100 1:18 2:2.289 3:-1.301 4:0.06 
0 100 1:10 2:10.251 3:1.435 4:0.461 
0 100 1:13 2:3.509 3:0.896 4:-0.048 
100 100 1:11 2:0.26 3:1.083 4:-0.643 
0 100 1:24 2:7.896 3:1.348 4:0.191 
100 100 1:13 2:-1.973 3:1.196 4:1.196 
0 100 1:17 2:5.637 3:1.292 4:0.267 
19.97800941238481 100 1:20 2:1.908 3:0.898 4:0.014 
0 100 1:21 2:14.06 3:5 4:0.111 
0 100 1:10 2:2.024 3:0.737 4:0.737 
100 100 1:10 2:0.42 3:0.896 4:-0.197 
0 100 1:17 2:4.788 3:2.128 4:0.37 
0 100 1:13 2:5.624 3:5 4:0.399 
0 100 1:19 2:6.408 3:1.515 4:0.041 
100 100 1:15 2:0.646 3:-1.461 4:-1.461 
100 100 1:16 2:-0.168 3:1.658 4:-0.301 
100 100 1:15 2:0.976 3:0.822 4:-0.088 
100 100 1:16 2:-1.935 3:-1.896 4:0.397 
0 100 1:11 2:2.376 3:0.742 4:0.282 
79.51882174058096 100 1:23 2:3.3 3:2.206 4:0.428 
0 100 1:14 2:7.18 3:1.776 4:1.083 
100 100 1:7 2:0.748 3:0.466 4:0.466 
0 100 1:9 2:3.186 3:1.086 4:-0.001 
0 100 1:17 2:5.513 3:1.41 4:-0.194 
0 100 1:21 2:7.444 3:1.371 4:1.196 
0 100 1:16 2:5.905 3:5 4:0.135 
100 100 1:15 2:-0.067 3:-1.664 4:-1.648 
100 100 1:24 2:0.794 3:1.301 4:-0.329 
14.30943874494541 100 1:13 2:1.317 3:-2.03 4:0.182 
0 100 1:20 2:2.591 3:2.757 4:0.345 
100 100 1:22 2:-3.111 3:1.359 4:-0.278 
100 100 1:15 2:-8.414 3:-4.999 4:-1.62 
0 100 1:18 2:3.32 3:1.435 4:0.054 
100 100 1:18 2:1.13 3:-2 4:0.062 
0 100 1:8 2:2.247 3:0.58 4:0.58 
0 100 1:8 2:4.308 3:1.265 4:0.175 
0 100 1:16 2:2.658 3:0.909 4:0.277 
0 100 1:10 2:3.029 3:2.246 4:0.122 
100 100 1:19 2:-4.429 3:1.481 4:0.183 
0 100 1:12 2:2.868 3:1.099 4:-0.538 
0 100 1:12 2:3.338 3:1.147 4:-0.001 
0 100 1:14 2:1.863 3:1.355 4:0.397 
100 100 1:13 2:1.36 3:1.527 4:0.179 
0 100 1:28 2:5.382 3:1.247 4:0.459 
100 100 1:21 2:0.218 3:1.435 4:0.045 
0 100 1:25 2:6.068 3:1.435 4:0.19 
0 100 1:14 2:6.104 3:1.104 4:0.95 
0 100 1:14 2:2.887 3:1.33 4:0.143 
0 100 1:15 2:2.171 3:1.147 4:-0.173 
0 100 1:15 2:7.076 3:1.658 4:-0.074 
100 100 1:17 2:-5.468 3:-1.624 4:0.521 
0 100 1:17 2:2.179 3:1.245 4:1.245 
0 100 1:28 2:13.465 3:2.128 4:0.123 
100 100 1:18 2:0.745 3:1.658 4:-0.151 
0 100 1:9 2:5.26 3:1.359 4:0.049 
100 100 1:14 2:-3.522 3:-1.644 4:0.179 
100 100 1:16 2:-7.935 3:-4.999 4:-0.056 
0 100 1:21 2:6.332 3:1.658 4:-0.375 
0 100 1:15 2:3.415 3:1.114 4:0.317 
0 100 1:6 2:3.255 3:0.974 4:0.685 
100 100 1:13 2:1.157 3:2.386 4:-0.761 
100 100 1:12 2:-0.617 3:-4.999 4:-0.014 
0 100 1:22 2:4.476 3:-1.526 4:1.157 
100 100 1:13 2:0.406 3:0.886 4:-0.019 
0 100 1:15 2:6.45 3:2.128 4:0.077 
0 100 1:20 2:4.389 3:-1.397 4:0.314 
0 100 1:16 2:6.517 3:1.301 4:0.715 
0 100 1:21 2:6.749 3:1.261 4:0.041 
100 100 1:20 2:-3.336 3:-0.956 4:-0.189 
100 100 1:7 2:0.676 3:-0.81 4:-0.81 
100 100 1:16 2:-0.487 3:-0.949 4:-0.416 
23.00139716910543 100 1:22 2:3.087 3:5 4:5 
0 100 1:17 2:4.073 3:1.342 4:0.838 
100 100 1:14 2:0.352 3:-1.664 4:-1.648 
100 100 1:11 2:0.661 3:0.588 4:0.476 
0 100 1:16 2:12.905 3:5 4:0.097 
0 100 1:22 2:6.969 3:1.884 4:1.157 
0 100 1:17 2:6.758 3:2.413 4:0.262 
100 100 1:18 2:-0.222 3:1.359 4:-0.151 
0 100 1:12 2:5.885 3:1.295 4:1.086 
100 100 1:14 2:-3.092 3:-3.534 4:-0.068 
100 100 1:16 2:-2.498 3:-2.302 4:-0.151 
0 100 1:10 2:2.689 3:1.319 4:0.432 
100 100 1:18 2:-3.521 3:-1.346 4:0.183 
0 100 1:20 2:2.117 3:-1.417 4:0.267 
100 100 1:2 2:0.764 3:0.715 4:0.715 
0 100 1:24 2:6.262 3:1.435 4:0.128 
0 100 1:16 2:6.279 3:1.836 4:0.592 
0 100 1:14 2:2.817 3:0.742 4:0.083 
100 100 1:27 2:-5.747 3:-2.038 4:-1.648 
0 100 1:12 2:2.05 3:1.147 4:-0.603 
0 100 1:18 2:1.908 3:1.301 4:0.498 
100 100 1:11 2:-0.196 3:0.742 4:-0.151 
100 100 1:18 2:-1.738 3:-4.999 4:0.07 
0 100 1:16 2:7.708 3:1.84 4:-0.11 
0 100 1:13 2:3.982 3:1.073 4:0.005 
100 100 1:18 2:-2.657 3:-1.908 4:0.659 
0 100 1:15 2:2.07 3:0.949 4:-0.09 
0 100 1:17 2:7.841 3:1.171 4:0.123 
100 100 1:23 2:-2.238 3:-1.337 4:-0.375 
0 100 1:16 2:3.274 3:1.58 4:-0.172 
0 100 1:21 2:6.584 3:5 4:0.183 
100 100 1:16 2:-1.667 3:-2.265 4:-0.866 
100 100 1:17 2:-0.848 3:-1.337 4:1.152 
0 100 1:13 2:5.888 3:2.688 4:-0.086 
0 100 1:8 2:4.184 3:1.607 4:0.691 
0 100 1:19 2:3.225 3:1.268 4:-0.171 
100 100 1:17 2:-1.778 3:-2.209 4:-1.648 
100 100 1:7 2:-0.158 3:0.405 4:-0.002 
0 100 1:16 2:6.536 3:5 4:0.64 
0 100 1:29 2:21.653 3:5 4:0.545 
0 100 1:8 2:5.435 3:1.23 4:-0.028 
0 100 1:19 2:2.99 3:0.965 4:0.132 
0 100 1:15 2:7.598 3:5 4:0.043 
0 100 1:21 2:7.265 3:1.617 4:1.007 
0 100 1:18 2:6.158 3:1.363 4:-0.109 
0 100 1:17 2:2.457 3:1.435 4:0.373 
0 100 1:16 2:4.466 3:1.359 4:1.06 
0 100 1:15 2:5.828 3:2.351 4:-0.437 
64.28856575361952 100 1:14 2:1.155 3:0.611 4:0.183 
100 100 1:14 2:-1.1 3:-1.187 4:-0.304 
0 100 1:25 2:8.916 3:2.386 4:1.979 
0 100 1:18 2:5.619 3:1.268 4:-0.048 
0 100 1:18 2:2.296 3:-1.624 4:-0.433 
100 100 1:19 2:-2.877 3:-1.896 4:-0.287 
0 100 1:10 2:2.568 3:1.083 4:0.267 
0 100 1:25 2:8.443 3:1.899 4:0.005 
0 100 1:11 2:2.686 3:0.78 4:0.65 
0 100 1:18 2:5.174 3:1.082 4:-0.133 
0 100 1:10 2:2.233 3:1.253 4:-0.141 
100 100 1:15 2:-4.856 3:-3.707 4:0.443 
0 100 1:16 2:2.908 3:-1.896 4:-0.631 
0 100 1:13 2:3.003 3:1.147 4:0.006 
0 100 1:13 2:2.451 3:1.313 4:-0.077 
100 100 1:16 2:0.657 3:-1.049 4:0.64 
0 100 1:17 2:5.216 3:1.272 4:1.21 
100 100 1:17 2:-0.132 3:-0.923 4:-0.923 
100 100 1:15 2:-1.439 3:-1.648 4:-0.423 
0 100 1:8 2:4.508 3:2.688 4:0.454 
100 100 1:12 2:0.589 3:0.742 4:-0.104 
0 100 1:10 2:2.37 3:-1.203 4:0.341 
0 100 1:19 2:13.87 3:5 4:-0.03 
0 100 1:13 2:4.184 3:1.06 4:0.296 
0 100 1:18 2:5.241 3:1.435 4:-0.072 
0 100 1:11 2:5.824 3:1.658 4:0.627 
0 100 1:11 2:5.744 3:1.852 4:0.276 
0 100 1:18 2:5.56 3:-1.896 4:0.901 
0 100 1:17 2:4.782 3:1.147 4:1.055 
0 100 1:24 2:6.948 3:1.119 4:0.334 
100 100 1:19 2:0.322 3:-2.33 4:-0.392 
100 100 1:7 2:1.298 3:0.636 4:0.135 
0 100 1:15 2:6.245 3:5 4:-0.162 
0 100 1:14 2:3.985 3:1.016 4:0.211 
0 100 1:15 2:7.06 3:1.435 4:0.993 
0 100 1:13 2:1.8 3:1.589 4:0.138 
100 100 1:17 2:-3.799 3:-2.895 4:-0.573 
0 100 1:21 2:7.615 3:1.991 4:0.029 
0 100 1:12 2:6.96 3:1.658 4:0.838 
0 100 1:18 2:7.453 3:1.553 4:1.007 
0 100 1:14 2:6.035 3:2.246 4:0.551 
0 100 1:15 2:2.625 3:0.686 4:0.686 
100 100 1:14 2:-2.465 3:-1.508 4:-0.127 
0 100 1:11 2:13.134 3:5 4:1.141 
0 100 1:16 2:10.667 3:5 4:-1.31 
0 100 1:13 2:13.115 3:2.976 4:0.005 
100 100 1:14 2:-2.551 3:-1.896 4:0.183 
100 100 1:12 2:-1.205 3:-1.175 4:-1.175 
100 100 1:5 2:2.883 3:1.201 4:-0.151 
100 100 1:16 2:0.883 3:-1.742 4:-0.077 
0 100 1:11 2:6.668 3:1.76 4:1.723 
100 100 1:5 2:1.834 3:0.711 4:0.498 
100 100 1:2 2:0.141 3:0.292 4:-0.151 
0 100 1:15 2:13.644 3:5 4:-0.072 
0 100 1:19 2:2.353 3:1.297 4:0.599 
0 100 1:13 2:3.177 3:1.658 4:-0.192 
0 100 1:19 2:2.227 3:-1.185 4:0.58 
100 100 1:21 2:-0.83 3:-1.965 4:0.64 
100 100 1:11 2:1.294 3:0.896 4:0.58 
100 100 1:11 2:-0.529 3:-1.049 4:0.139 
0 100 1:12 2:5.464 3:2.23 4:1.083 
0 100 1:24 2:10.122 3:2.064 4:0.827 
100 100 1:13 2:-2.79 3:-1.337 4:0.206 
100 100 1:18 2:-1.363 3:-4.999 4:-0.007 
100 100 1:10 2:-2.414 3:-2.148 4:0.949 
100 100 1:8 2:-2.92 3:-4.999 4:0.51 
100 100 1:11 2:0.227 3:-2.03 4:-0.151 
100 100 1:9 2:-0.161 3:-1.049 4:0.19 
0 100 1:12 2:4.223 3:1.84 4:-0.107 
0 100 1:21 2:5.013 3:1.658 4:0.785 
0 100 1:8 2:3.757 3:1.675 4:0.06 
0 100 1:20 2:6.134 3:2.35 4:-0.221 
0 100 1:16 2:3.932 3:1.06 4:0.014 
100 100 1:18 2:-10.564 3:-2.03 4:-0.59 
100 100 1:7 2:0.748 3:0.611 4:-0.117 
100 100 1:17 2:-2.811 3:-1.742 4:-0.502 
100 100 1:18 2:-6.838 3:-4.999 4:0.742 
0 100 1:12 2:2.723 3:-1.655 4:-0.251 
0 100 1:9 2:2.172 3:1.049 4:-0.358 
0 100 1:10 2:5.49 3:2.246 4:0.542 
0 100 1:16 2:2.455 3:0.742 4:0.276 
0 100 1:11 2:1.602 3:0.746 4:0.19 
0 100 1:16 2:1.835 3:1.435 4:0.183 
100 100 1:10 2:1.445 3:1.06 4:0.306 
100 100 1:8 2:1.653 3:1.285 4:-0.248 
0 100 1:14 2:5.505 3:1.272 4:-0.077 
100 100 1:9 2:-2.528 3:-4.999 4:-0.151 
100 100 1:10 2:0.68 3:0.699 4:-0.423 
0 100 1:10 2:3.383 3:1.575 4:0.83 
0 100 1:22 2:3.875 3:1.078 4:0.01 
0 100 1:15 2:2.894 3:1.569 4:0.474 
0 100 1:11 2:3.647 3:1.238 4:1.238 
100 100 1:19 2:0.252 3:-2.621 4:-1.31 
0 100 1:13 2:4.436 3:2.545 4:0.43 
0 100 1:14 2:3.323 3:1.174 4:-0.297 
0 100 1:15 2:6.377 3:1.147 4:-0.125 
100 100 1:7 2:1.943 3:2.218 4:0.267 
0 100 1:26 2:9.232 3:3.093 4:1.264 
0 100 1:19 2:9.307 3:2.205 4:-0.643 
0 100 1:11 2:2.946 3:0.993 4:0.151 
0 100 1:15 2:4.44 3:1.658 4:-0.001 
0 100 1:18 2:2.222 3:1.095 4:0.107 
0 100 1:11 2:4.248 3:1.702 4:-0.037 
100 100 1:11 2:1.229 3:0.695 4:0.515 
100 100 1:14 2:-1.228 3:-1.013 4:0.87 
100 100 1:17 2:-10.749 3:-4.999 4:0.215 
0 100 1:11 2:3.522 3:0.65 4:0.474 
100 100 1:18 2:0.522 3:-1.56 4:-0.171 
0 100 1:18 2:5.661 3:2.351 4:-0.133 
0 100 1:19 2:6.968 3:-1.454 4:0.272 
100 100 1:25 2:-7.851 3:-3.588 4:-0.304 
0 100 1:24 2:9.547 3:5 4:0.837 
100 100 1:6 2:-0.924 3:-1.049 4:-0.109 
0 100 1:9 2:2.92 3:0.979 4:-0.003 
0 100 1:14 2:3.742 3:1.435 4:-0.001 
0 100 1:17 2:3.583 3:2.379 4:1.838 
100 100 1:8 2:1.639 3:1.355 4:0.041 
0 100 1:15 2:7.54 3:1.51 4:-0.077 
100 100 1:22 2:-0.545 3:-1.259 4:0.58 
0 100 1:15 2:6.649 3:1.396 4:0.19 
0 100 1:20 2:6.023 3:1.177 4:-0.074 
0 100 1:21 2:4.199 3:1.873 4:-0.671 
0 100 1:13 2:6.966 3:5 4:1.216 
100 100 1:6 2:0.223 3:1.267 4:0.191 
100 100 1:3 2:2.017 3:1.435 4:-0.151 
0 100 1:17 2:4.217 3:1.653 4:0.165 
0 100 1:13 2:5.81 3:1.253 4:1.012 
0 100 1:24 2:4.57 3:-1.337 4:0.181 
0 100 1:12 2:1.537 3:-1.965 4:0.267 
0 100 1:27 2:11.901 3:2.428 4:0.256 
100 100 1:8 2:0.771 3:0.498 4:0.498 
100 100 1:20 2:-4.758 3:-1.172 4:0.58 
100 100 1:14 2:-1.296 3:1.147 4:-0.928 
100 100 1:28 2:1.187 3:1.147 4:-0.569 
0 100 1:20 2:2.44 3:1.083 4:1.083 
0 100 1:17 2:4.67 3:1.899 4:1.457 
0 100 1:9 2:2.479 3:0.866 4:-0.077 
0 100 1:9 2:3.032 3:0.667 4:0.397 
100 100 1:13 2:0.942 3:-1.337 4:0.381 
0 100 1:7 2:3.735 3:1.435 4:0.433 
100 100 1:18 2:-1.631 3:-1.644 4:-0.072 
0 100 1:11 2:6.485 3:1.147 4:0.58 
100 100 1:14 2:1.205 3:1.049 4:0.244 
100 100 1:29 2:0.259 3:1.515 4:-0.133 
0 100 1:30 2:11.375 3:1.658 4:0.094 
0 100 1:14 2:2.346 3:2.089 4:-0.516 
100 100 1:7 2:1.37 3:0.924 4:0.128 
0 100 1:18 2:5.158 3:1.254 4:0.119 
0 100 1:29 2:6.114 3:1.753 4:0.019 
0 100 1:16 2:5.542 3:1.226 4:-0.151 
0 100 1:14 2:5.962 3:1.831 4:-0.279 
0 100 1:13 2:1.681 3:-1.688 4:-0.809 
0 100 1:14 2:5.166 3:1.14 4:0.276 
0 100 1:13 2:4.252 3:2.197 4:-0.151 
100 100 1:19 2:-0.072 3:1.895 4:-0.064 
100 100 1:25 2:-3.09 3:-1.049 4:0.19 
100 100 1:19 2:-4.951 3:-1.536 4:-0.277 
0 100 1:15 2:2.902 3:-2.754 4:0.039 
0 100 1:16 2:7.39 3:2.054 4:0.58 
100 100 1:11 2:1.513 3:1.499 4:1.313 
0 100 1:12 2:7.01 3:1.951 4:-0.104 
0 100 1:16 2:2.729 3:-0.804 4:-0.131 
0 100 1:14 2:2.894 3:1.045 4:1.045 
100 100 1:19 2:-2.644 3:-1.56 4:-0.149 
100 100 1:15 2:-1.613 3:-1.337 4:0.58 
100 100 1:19 2:-2.322 3:-0.798 4:0.195 
100 100 1:10 2:-4.632 3:-1.896 4:0.267 
0 100 1:13 2:8.102 3:2.246 4:0.535 
100 100 1:10 2:0.935 3:-1.301 4:-0.151 
0 100 1:15 2:1.725 3:0.919 4:-0.001 
0 100 1:18 2:6.751 3:1.836 4:0.601 
100 100 1:15 2:-5.099 3:-1.56 4:-1.203 
0 100 1:16 2:4.531 3:1.274 4:0.106 
0 100 1:13 2:6.982 3:1.84 4:0.464 
100 100 1:19 2:-8.399 3:-1.772 4:0.256 
0 100 1:14 2:15.244 3:5 4:0.683 
0 100 1:19 2:7.652 3:1.74 4:0.821 
0 100 1:14 2:3.956 3:0.94 4:0.223 
0 100 1:14 2:7.103 3:1.093 4:-0.151 
100 100 1:18 2:1.534 3:1.147 4:0.138 
0 100 1:13 2:3.7 3:1.899 4:-0.151 
0 100 1:19 2:4.887 3:1.544 4:0.464 
0 100 1:19 2:4.1 3:1.295 4:0.423 
0 100 1:19 2:8.189 3:1.92 4:0.419 
0 100 1:9 2:7.284 3:5 4:0.071 
0 100 1:8 2:3.914 3:1.658 4:1.042 
0 100 1:10 2:2.527 3:1.359 4:0.791 
100 100 1:8 2:1.808 3:0.78 4:0.586 
0 100 1:15 2:6.46 3:1.553 4:0.3 
0 100 1:14 2:2.926 3:-1.172 4:0.669 
100 100 1:10 2:-0.14 3:-2.33 4:-2.33 
0 100 1:19 2:4.28 3:1.84 4:0.285 
0 100 1:17 2:5.982 3:1.76 4:0.163 
0 100 1:13 2:5.712 3:-1.923 4:1.283 
0 100 1:17 2:4.388 3:1.147 4:-0.51 
0 100 1:16 2:5.481 3:1.75 4:-0.151 
100 100 1:23 2:0.92 3:1.468 4:-0.056 
0 100 1:14 2:5.055 3:1.76 4:0.017 
0 100 1:15 2:2.979 3:1.355 4:-0.172 
0 100 1:14 2:6.172 3:5 4:1.196 
0 100 1:10 2:2.107 3:0.796 4:0.796 
0 100 1:11 2:3.972 3:1.147 4:0.87 
0 100 1:8 2:3.789 3:1.173 4:-0.077 
0 100 1:10 2:3.514 3:1.086 4:0.58 
0 100 1:13 2:6.151 3:1.202 4:0.742 
0 100 1:14 2:1.624 3:1.448 4:-0.064 
100 100 1:24 2:-1.778 3:-1.934 4:-0.151 
0 100 1:15 2:4.449 3:1.481 4:-0.293 
0 100 1:13 2:11.541 3:5 4:0.267 
0 100 1:13 2:7.359 3:2.246 4:0.786 
100 100 1:16 2:-4.757 3:-0.931 4:-0.712 
0 100 1:14 2:10.854 3:2.322 4:0.316 
100 100 1:8 2:-1.144 3:-1.003 4:-0.151 
100 100 1:17 2:-3.18 3:-2.164 4:-0.389 
0 100 1:25 2:4.687 3:-1.307 4:-1.307 
0 100 1:15 2:8.959 3:2.771 4:0.34 
0 100 1:16 2:8.129 3:2.688 4:-0.133 
0 100 1:28 2:8.171 3:1.359 4:1.083 
100 100 1:5 2:0.674 3:0.397 4:0.135 
0 100 1:11 2:3.237 3:1.607 4:0.017 
100 100 1:16 2:-1.384 3:1.212 4:-0.277 
0 100 1:17 2:4.961 3:1.75 4:0.482 
91.28869140031165 100 1:12 2:1.257 3:0.54 4:-0.014 
100 100 1:23 2:-2.88 3:-1.812 4:0.148 
0 100 1:7 2:3.641 3:1.152 4:-0.151 
0 100 1:11 2:9.491 3:1.651 4:1.273 
100 100 1:12 2:0.743 3:-1.648 4:-1.648 
100 100 1:19 2:1.856 3:-0.877 4:-0.475 
0 100 1:12 2:4.691 3:1.147 4:-0.133 
0 100 1:14 2:5.723 3:1.571 4:1.08 
0 100 1:16 2:5.883 3:-1.742 4:0.542 
100 100 1:10 2:0.184 3:-1.049 4:-0.151 
100 100 1:13 2:0.247 3:1.188 4:0.143 
0 100 1:15 2:6.704 3:2.128 4:-0.151 
0 100 1:14 2:5.406 3:1.542 4:0.569 
0 100 1:14 2:3.82 3:-1.203 4:1.083 
0 100 1:20 2:4.538 3:1.313 4:-0.075 
100 100 1:19 2:0.396 3:-1.642 4:0.423 
100 100 1:10 2:0.093 3:-0.643 4:0.328 
0 100 1:19 2:2.597 3:0.811 4:0.243 
100 100 1:18 2:-1.061 3:-1.101 4:0.045 
0 100 1:14 2:3.147 3:1.407 4:1.226 
100 100 1:25 2:-1.737 3:-1.56 4:0.87 
100 100 1:26 2:0.026 3:1.243 4:-0.186 
0 100 1:12 2:3.74 3:1.261 4:0.141 
100 100 1:9 2:1.446 3:0.851 4:0.336 
0 100 1:17 2:7.863 3:1.147 4:0.24 
0 100 1:13 2:7.117 3:1.915 4:1.334 
0 100 1:18 2:6.014 3:2.128 4:-0.409 
100 100 1:11 2:-3.895 3:-1.262 4:-0.562 
100 100 1:10 2:1.461 3:1.656 4:0.329 
0 100 1:11 2:1.529 3:0.891 4:-0.416 
0 100 1:12 2:8.592 3:2.79 4:-0.26 
100 100 1:3 2:0.277 3:0.145 4:0.145 
0 100 1:16 2:5.483 3:1.301 4:0.045 
100 100 1:17 2:1.156 3:-1.491 4:0.464 
0 100 1:20 2:4.473 3:1.435 4:-0.467 
0 100 1:16 2:8.545 3:1.595 4:-0.358 
0 100 1:16 2:3.55 3:-1.685 4:0.726 
0 100 1:19 2:5.351 3:1.658 4:0.276 
100 100 1:24 2:1.507 3:1.063 4:-0.151 
0 100 1:18 2:2.319 3:0.764 4:-0.356 
0 100 1:16 2:8.339 3:5 4:0.183 
0 100 1:19 2:4.12 3:2.688 4:0.65 
0 100 1:19 2:6.325 3:1.403 4:0.64 
0 100 1:14 2:5.306 3:5 4:-0.142 
0 100 1:27 2:6.284 3:1.247 4:0.612 
0 100 1:6 2:3.907 3:1.435 4:-0.345 
0 100 1:14 2:5.592 3:2.4 4:1.76 
0 100 1:17 2:5.421 3:-1.56 4:-0.857 
0 100 1:12 2:4.56 3:1.703 4:1.152 
100 100 1:9 2:1.869 3:0.812 4:0.046 
0 100 1:20 2:4.495 3:1.384 4:-0.037 
0 100 1:13 2:5.369 3:1.84 4:0.6 
0 100 1:12 2:5.85 3:0.936 4:0.464 
0 100 1:14 2:2.693 3:1.201 4:-0.356 
0 100 1:16 2:5.394 3:2.534 4:0.492 
0 100 1:8 2:2.764 3:0.882 4:0.66 
100 100 1:18 2:0.34 3:-1.154 4:0.454 
100 100 1:18 2:0.309 3:0.742 4:-0.232 
0 100 1:34 2:14.895 3:5 4:0.077 
0 100 1:12 2:4.26 3:1.515 4:0.179 
0 100 1:15 2:5.225 3:1.06 4:0.048 
100 100 1:10 2:0.271 3:-0.723 4:-0.032 
100 100 1:16 2:-0.069 3:-0.931 4:0.284 
0 100 1:17 2:5.139 3:2.384 4:0.147 
0 100 1:11 2:8.633 3:1.355 4:0.135 
100 100 1:27 2:-1.047 3:1.476 4:-0.021 
100 100 1:8 2:-0.085 3:-0.712 4:-0.151 
0 100 1:18 2:6.911 3:1.84 4:0.726 
0 100 1:20 2:8.053 3:2.171 4:0.431 
0 100 1:22 2:5.953 3:2.386 4:1.979 
0 100 1:23 2:6.731 3:1.219 4:0.496 
100 100 1:24 2:-3.066 3:-1.896 4:0.574 
0 100 1:17 2:7.834 3:2.534 4:-0.029 
0 100 1:16 2:4.989 3:1.852 4:0.135 
0 100 1:17 2:6.388 3:1.871 4:0.694 
100 100 1:11 2:-0.271 3:-1.534 4:0.336 
0 100 1:7 2:5.869 3:1.119 4:0.359 
0 100 1:16 2:7.196 3:1.359 4:0.569 
100 100 1:11 2:-0.801 3:-1.56 4:0.42 
0 100 1:22 2:4.173 3:0.742 4:0.123 
0 100 1:27 2:6.889 3:1.725 4:0.183 
0 100 1:18 2:5.002 3:1.553 4:-0.028 
0 100 1:21 2:5.011 3:1.334 4:0.657 
0 100 1:18 2:6.637 3:1.186 4:0.464 
100 100 1:18 2:-4.468 3:-2.117 4:-0.151 
0 100 1:12 2:6.997 3:2.386 4:0.404 
0 100 1:8 2:3.368 3:1.253 4:0.135 
0 100 1:12 2:3.393 3:5 4:0.378 
0 100 1:14 2:5.682 3:1.147 4:0.338 
100 100 1:16 2:0.913 3:1.03 4:-0.475 
100 100 1:23 2:2.86 3:-4.999 4:0.232 
0 100 1:18 2:3.6 3:-2.03 4:-0.369 
0 100 1:8 2:10.556 3:5 4:0.762 
0 100 1:21 2:7.656 3:1.147 4:-0.032 
100 100 1:9 2:-0.564 3:-1.049 4:0.901 
100 100 1:15 2:0.844 3:-1.837 4:-1.167 
0 100 1:13 2:2.187 3:-1.742 4:0.183 
0 100 1:21 2:8.415 3:2.993 4:1.253 
0 100 1:17 2:4.753 3:1.84 4:0.341 
0 100 1:28 2:16.763 3:3.345 4:0.315 
0 100 1:16 2:2.501 3:1.519 4:-0.373 
0 100 1:26 2:5.422 3:1.34 4:0.153 
0 100 1:10 2:2.574 3:2.128 4:0.049 
0 100 1:19 2:3.172 3:1.024 4:1.024 
0 100 1:13 2:3.32 3:1.275 4:0.249 
0 100 1:13 2:2.508 3:1.37 4:0.085 
0 100 1:16 2:3.433 3:1.553 4:0.26 
100 100 1:14 2:0.059 3:-1.337 4:0.154 
0 100 1:14 2:4.662 3:1.946 4:0.405 
0.2669965400603768 100 1:10 2:1.778 3:0.867 4:-0.231 
0 100 1:25 2:6.886 3:1.825 4:1.407 
0 100 1:26 2:20.318 3:5 4:-0.077 
100 100 1:16 2:-5.428 3:-1.502 4:-0.151 
100 100 1:12 2:1.13 3:-1.337 4:-0.065 
100 100 1:19 2:0.003 3:-2.302 4:0.135 
0 100 1:20 2:6.474 3:3.14 4:-0.692 
0 100 1:15 2:14.84 3:5 4:0.951 
0 100 1:13 2:5.106 3:1.4 4:0.47 
0 100 1:19 2:3.567 3:1.273 4:0.545 
100 100 1:6 2:-0.32 3:0.588 4:-0.278 
100 100 1:15 2:-2.424 3:-1.642 4:0.19 
100 100 1:19 2:-0.087 3:1.34 4:-0.343 
100 100 1:19 2:0.585 3:-1.337 4:-0.194 
100 100 1:13 2:0.014 3:-1.861 4:1.12 
100 100 1:13 2:-5.742 3:-1.812 4:-0.071 
100 100 1:18 2:-1.269 3:-2.03 4:0.157 
100 100 1:11 2:-0.62 3:-0.643 4:-0.151 
0 100 1:14 2:5.623 3:5 4:-0.261 
0 100 1:17 2:4.692 3:1.76 4:-0.877 
0 100 1:17 2:4.101 3:-1.405 4:-0.151 
100 100 1:3 2:2.71 3:1.658 4:0.263 
0 100 1:16 2:2.662 3:1.227 4:0.276 
0 100 1:16 2:5.771 3:1.658 4:0.621 
0 100 1:23 2:7.919 3:1.84 4:0.66 
0 100 1:28 2:15.696 3:5 4:0.442 
0 100 1:10 2:4.935 3:1.658 4:0.049 
0 100 1:25 2:11.666 3:2.79 4:-0.142 
100 100 1:16 2:0.497 3:-1.648 4:-1.648 
0 100 1:7 2:4.934 3:2.232 4:-0.077 
0 100 1:10 2:7.556 3:5 4:-0.151 
0 100 1:17 2:3.364 3:1.147 4:0.261 
0 100 1:18 2:2.841 3:2.809 4:0.216 
100 100 1:11 2:-0.824 3:0.979 4:-0.503 
0 100 1:20 2:2.403 3:0.822 4:0.221 
0 100 1:17 2:7.412 3:2.397 4:0.185 
0 100 1:18 2:2.773 3:1.435 4:0.432 
0 100 1:21 2:4.594 3:1.063 4:0.521 
0 100 1:20 2:3.685 3:2.511 4:0.054 
0 100 1:12 2:3.756 3:1.359 4:0.433 
100 100 1:20 2:-2.118 3:-2.673 4:0.451 
0 100 1:18 2:2.271 3:1.435 4:0.454 
100 100 1:11 2:0.181 3:-4.999 4:0.56 
0 100 1:20 2:4.877 3:1.281 4:0.299 
0 100 1:9 2:6.644 3:2.634 4:0.724 
100 100 1:20 2:-2.89 3:-1.454 4:1.413 
30.17140866017668 100 1:13 2:1.465 3:1.995 4:0.054 
0 100 1:20 2:7.594 3:1.229 4:-0.077 
100 100 1:5 2:1.838 3:1.049 4:1.049 
0 100 1:19 2:2.983 3:1.703 4:1.152 
100 100 1:19 2:0.723 3:-1.049 4:-0.035 
100 100 1:12 2:-1.066 3:-1.337 4:-0.177 
0 100 1:15 2:6.307 3:1.055 4:0.338 
0 100 1:21 2:4.777 3:1.147 4:0.267 
0 100 1:16 2:8.938 3:1.995 4:-0.185 
100 100 1:7 2:1.935 3:0.636 4:-0.151 
0 100 1:14 2:6.328 3:1.615 4:1.313 
100 100 1:15 2:1.25 3:-1.742 4:0.221 
0 100 1:23 2:13.639 3:5 4:0.3 
0 100 1:13 2:2.672 3:1.658 4:0.6 
0 100 1:19 2:5.035 3:1.575 4:-0.98 
0 100 1:14 2:3.04 3:1.991 4:1.801 
0 100 1:20 2:19.829 3:5 4:0.866 
0 100 1:18 2:2.52 3:-1.432 4:0.454 
0 100 1:23 2:4.754 3:1.435 4:0.584 
0 100 1:8 2:5.052 3:1.971 4:-0.373 
0 100 1:16 2:4.725 3:1.435 4:-0.22 
0 100 1:15 2:2.316 3:1.301 4:-0.229 
0 100 1:20 2:7.712 3:1.991 4:-0.312 
0 100 1:17 2:17.834 3:5 4:1.086 
100 100 1:14 2:0.56 3:0.633 4:-0.157 
0 100 1:14 2:4.784 3:1.147 4:1.147 
100 100 1:18 2:-5.127 3:-1.472 4:-0.199 
0 100 1:19 2:6.15 3:5 4:0.142 
0 100 1:29 2:12.213 3:2.159 4:1.194 
0 100 1:12 2:4.599 3:3.039 4:-0.108 
0 100 1:17 2:7.02 3:2.023 4:-0.077 
0 100 1:11 2:3.371 3:1.296 4:-0.402 
0 100 1:11 2:3.764 3:1.435 4:0.305 
100 100 1:19 2:1.21 3:-1.841 4:0.398 
0 100 1:26 2:11.808 3:1.84 4:0.263 
0 100 1:15 2:10.427 3:5 4:0.34 
0 100 1:14 2:5.276 3:1.334 4:0.263 
0 100 1:13 2:4.827 3:1.466 4:0.781 
100 100 1:14 2:1.065 3:1.278 4:-0.173 
0 100 1:20 2:5.767 3:2.159 4:-0.074 
0 100 1:17 2:2.246 3:1.936 4:-0.269 
100 100 1:11 2:0.135 3:0.662 4:-0.223 
100 100 1:8 2:-0.961 3:-1.896 4:0.742 
0 100 1:13 2:8.717 3:5 4:1.206 
0 100 1:9 2:3.352 3:1.063 4:0.246 
0 100 1:24 2:7.311 3:2.241 4:0.267 
0 100 1:11 2:3.708 3:1.34 4:0.19 
100 100 1:14 2:-1.035 3:-1.503 4:1.083 
0 100 1:25 2:15.207 3:2.128 4:0.106 
0 100 1:17 2:4.863 3:2.064 4:-0.151 
74.37590611457452 100 1:15 2:1.596 3:-4.999 4:0.041 
0 100 1:12 2:7.458 3:1.534 4:0.501 
0 100 1:10 2:1.851 3:1.359 4:-0.151 
100 100 1:7 2:0.106 3:-1.154 4:-0.389 
0 100 1:14 2:8.676 3:2.633 4:1.087 
0 100 1:19 2:12.463 3:5 4:0.011 
0 100 1:13 2:3.672 3:-1.56 4:0.846 
100 100 1:13 2:-0.787 3:-1.285 4:-1.285 
0 100 1:22 2:7.55 3:1.553 4:0.879 
0 100 1:23 2:8.13 3:1.596 4:1.196 
0 100 1:15 2:1.531 3:0.965 4:-0.286 
0 100 1:21 2:8.268 3:2.08 4:-0.23 
0 100 1:14 2:3.242 3:1.2 4:-0.538 
100 100 1:16 2:1.313 3:-1.149 4:0.627 
100 100 1:10 2:-4.383 3:-4.999 4:-4.999 
0 100 1:13 2:6.935 3:2.128 4:-0.42 
100 100 1:21 2:1.36 3:0.655 4:0.28 
0 100 1:18 2:3.633 3:5 4:5 
100 100 1:16 2:-4.866 3:-3.534 4:0.56 
100 100 1:7 2:2.104 3:1.247 4:-0.002 
0 100 1:11 2:2.996 3:1.147 4:1.147 
0 100 1:12 2:6.727 3:1.403 4:1.182 
100 100 1:28 2:0.571 3:2.246 4:0.838 
0 100 1:11 2:3.033 3:1.03 4:0.316 
0 100 1:12 2:4.834 3:1.147 4:0.847 
0 100 1:16 2:6.502 3:1.365 4:0.115 
0 100 1:9 2:5.833 3:2.08 4:-0.962 
100 100 1:13 2:-0.78 3:-0.776 4:0.385 
0 100 1:15 2:3.484 3:1.831 4:-0.503 
100 100 1:17 2:-10.136 3:-1.993 4:-0.188 
0 100 1:11 2:3.884 3:1.063 4:-0.177 
0 100 1:13 2:8.257 3:1.236 4:0.19 
0 100 1:17 2:4.699 3:1.658 4:-0.223 
100 100 1:14 2:-3.699 3:-1.742 4:0.551 
0 100 1:24 2:12.271 3:5 4:0.338 
0 100 1:15 2:5.213 3:1.29 4:0.52 
100 100 1:12 2:-9.448 3:-4.999 4:-0.766 
0 100 1:16 2:3.285 3:1.703 4:0.306 
0 100 1:24 2:13.45 3:5 4:-0.133 
0 100 1:20 2:7.592 3:1.895 4:0.378 
100 100 1:28 2:-2.002 3:-2.148 4:0.58 
0 100 1:19 2:4.101 3:1.205 4:-0.253 
0 100 1:18 2:6.487 3:5 4:-0.512 
0 100 1:13 2:5.521 3:1.783 4:0.08 
0 100 1:15 2:2.551 3:2.08 4:0.267 
0 100 1:10 2:4.179 3:1.571 4:0.08 
100 100 1:25 2:-3.522 3:-1.655 4:0.583 
0 100 1:18 2:5.423 3:0.91 4:0.185 
100 100 1:22 2:-3.005 3:-1.378 4:0.144 
0 100 1:18 2:1.895 3:1.348 4:0.221 
0 100 1:12 2:5.076 3:1.435 4:0.039 
0 100 1:19 2:5.637 3:1.553 4:-0.151 
0 100 1:18 2:6.297 3:1.84 4:0.501 
100 100 1:13 2:0.943 3:1.723 4:-0.197 
100 100 1:20 2:2.019 3:1.624 4:-0.278 
100 100 1:2 2:-0.108 3:-0.151 4:-0.151 
0 100 1:11 2:5.109 3:1.84 4:1.84 
0 100 1:12 2:8.483 3:2.08 4:0.674 
100 100 1:15 2:0.148 3:-1.896 4:-1.745 
0 100 1:16 2:2.616 3:-1.742 4:-0.151 
0 100 1:18 2:2.903 3:-1.454 4:-0.151 
0 0.06539254096014915 1:16 2:8.518 3:1.84 4:0.93 
100 100 1:23 2:1.87 3:2.151 4:-0.378 
100 100 1:13 2:-0.432 3:-0.739 4:-0.194 
0 100 1:13 2:4.284 3:-1.896 4:0.608 
100 100 1:15 2:0.012 3:1.556 4:0.726 
0 100 1:19 2:6.873 3:2.688 4:-0.57 
100 100 1:23 2:2.305 3:1.76 4:0.507 
0 100 1:16 2:7.907 3:1.989 4:0.183 
100 100 1:12 2:-1.062 3:-1.119 4:-0.254 
0 100 1:12 2:4.386 3:1.336 4:0.39 
0 100 1:18 2:7.622 3:1.884 4:-0.133 
0 100 1:11 2:5.764 3:1.852 4:0.135 
100 100 1:22 2:-1.21 3:-1.896 4:-0.214 
100 100 1:14 2:0.545 3:1.301 4:-0.151 
100 100 1:9 2:1.453 3:1.658 4:-0.045 
0 100 1:28 2:16.204 3:5 4:1.083 
0 100 1:25 2:5.276 3:1.035 4:1.03 
0 100 1:29 2:10.255 3:2.614 4:0.317 
100 100 1:23 2:0.238 3:-2.148 4:-0.51 
0 100 1:17 2:6.331 3:1.147 4:0.488 
0 100 1:10 2:2.063 3:1.334 4:0.216 
0 100 1:9 2:4.198 3:0.908 4:-0.172 
0 100 1:20 2:2.881 3:1.624 4:-0.077 
0 100 1:18 2:4.916 3:1.589 4:-0.37 
0 100 1:9 2:9.352 3:5 4:-0.285 
100 100 1:16 2:-1.837 3:-1.397 4:-0.151 
0 100 1:23 2:4.985 3:1.083 4:-0.569 
100 100 1:21 2:2.547 3:1.209 4:0.58 
0 100 1:28 2:14.628 3:1.686 4:0.138 
0 100 1:16 2:2.331 3:0.742 4:0.099 
100 100 1:17 2:-6.057 3:-1.049 4:0.376 
0 100 1:15 2:3.887 3:1.37 4:0.005 
0 100 1:14 2:2.495 3:1.301 4:0.406 
0 100 1:12 2:5.46 3:1.435 4:-0.887 
0 100 1:16 2:3.051 3:1.771 4:-0.093 
100 100 1:17 2:-1.33 3:-1.82 4:1.076 
9.778915210989881 100 1:15 2:1.299 3:1.84 4:1.059 
0 100 1:23 2:7.458 3:2.351 4:-0.562 
0 100 1:19 2:2.42 3:1.104 4:-0.264 
0 100 1:13 2:6.753 3:2.295 4:-0.643 
0 100 1:15 2:3.152 3:1.378 4:-0.576 
100 100 1:12 2:-1.272 3:-1.812 4:-0.037 
100 100 1:11 2:0.589 3:0.902 4:0.06 
0 100 1:19 2:5.175 3:1.658 4:0.109 
0 100 1:18 2:2.276 3:1.725 4:-0.189 
100 100 1:16 2:-2.164 3:-4.999 4:0.033 
0 100 1:26 2:13.876 3:2.757 4:0.902 
0 100 1:21 2:6.279 3:1.435 4:1.005 
0 100 1:14 2:2.002 3:0.8 4:0.502 
100 100 1:18 2:-0.787 3:5 4:0.045 
0 100 1:21 2:4.511 3:1.355 4:0.442 
0 100 1:17 2:3.019 3:1.895 4:0.005 
100 100 1:5 2:-0.137 3:-0.643 4:0.574 
0 100 1:14 2:3.484 3:1.658 4:-1.648 
0 100 1:22 2:3.92 3:1.658 4:1.658 
0 100 1:15 2:9.229 3:2.306 4:0.837 
0 100 1:12 2:2.144 3:0.988 4:0.202 
0 100 1:12 2:5.699 3:1.359 4:-0.962 
0 100 1:12 2:1.928 3:1.658 4:0.714 
0 100 1:17 2:2.002 3:1.658 4:1.658 
0 100 1:27 2:9.386 3:5 4:0.442 
100 100 1:14 2:-4.429 3:-2.326 4:0.636 
0 100 1:11 2:1.792 3:1.007 4:0.08 
0 100 1:17 2:2.71 3:1.104 4:-0.019 
100 100 1:19 2:-1.177 3:-4.999 4:0.135 
0 100 1:18 2:7.14 3:2.081 4:-0.25 
0 100 1:12 2:7.401 3:1.484 4:0.622 
0 100 1:17 2:6.549 3:1.348 4:0.191 
0 100 1:23 2:9.77 3:1.703 4:-0.177 
0 100 1:19 2:4.133 3:1.253 4:-0.278 
0 100 1:19 2:5.144 3:2.554 4:0.06 
0 100 1:15 2:5.684 3:5 4:1.007 
0 100 1:17 2:4.063 3:1.658 4:0.29 
0 100 1:14 2:9.739 3:2.128 4:-0.115 
0 100 1:15 2:5.984 3:0.854 4:-0.162 
0 100 1:14 2:5.531 3:1.991 4:-0.094 
0 100 1:10 2:12.861 3:5 4:0.135 
0 100 1:16 2:3.025 3:0.777 4:0.535 
0 100 1:20 2:3.271 3:2.189 4:-0.004 
0 100 1:16 2:3.365 3:1.962 4:1.152 
0 100 1:14 2:8.887 3:3.044 4:0.77 
0 100 1:7 2:3.14 3:1.364 4:-0.962 
100 100 1:10 2:0.508 3:-0.643 4:0.627 
0 100 1:8 2:3.326 3:1.261 4:-0.151 
0 100 1:11 2:3.322 3:1.147 4:0.943 
100 100 1:16 2:0.874 3:-1.664 4:-1.648 
100 100 1:12 2:-2.432 3:-1.966 4:0.035 
0 100 1:20 2:4.064 3:5 4:0.135 
0 100 1:12 2:3.267 3:1.056 4:-0.028 
100 100 1:11 2:0.912 3:1.147 4:-0.263 
100 100 1:4 2:2.104 3:1.253 4:0.388 
0 100 1:19 2:5.842 3:1.575 4:-0.173 
0 100 1:16 2:5.419 3:1.725 4:0.185 
0 100 1:13 2:9.676 3:5 4:0.347 
0 100 1:16 2:7.071 3:5 4:5 
0 100 1:15 2:2.021 3:1.113 4:-0.001 
100 100 1:13 2:-3.065 3:-0.643 4:0.486 
0 100 1:12 2:1.581 3:1.227 4:0.648 
100 100 1:13 2:-0.685 3:-2.03 4:-0.537 
100 100 1:9 2:-0.53 3:-0.704 4:-0.151 
100 100 1:19 2:-0.905 3:-1.56 4:-0.337 
0 100 1:23 2:4.659 3:1.49 4:1.152 
100 100 1:12 2:0.355 3:1.435 4:-0.251 
0 100 1:18 2:2.939 3:1.553 4:-0.37 
100 100 1:12 2:1.18 3:1.03 4:-0.402 
100 100 1:7 2:2.42 3:0.699 4:0.466 
100 100 1:12 2:1.384 3:1.229 4:-0.065 
0 100 1:15 2:4.679 3:1.521 4:0.29 
0 100 1:25 2:3.966 3:1.34 4:0.588 
100 100 1:20 2:0.874 3:1.263 4:-0.269 
100 100 1:10 2:0.155 3:-1.101 4:0.314 
0 100 1:13 2:4.103 3:1.658 4:0.879 
0 100 1:27 2:5.202 3:-1.337 4:1.025 
100 100 1:23 2:0.907 3:-4.999 4:-0.151 
100 100 1:4 2:-1.276 3:-1.049 4:0.28 
0 100 1:18 2:2.973 3:1.991 4:-0.019 
100 100 1:22 2:2.576 3:-4.999 4:-0.172 
0 100 1:15 2:2.807 3:0.941 4:-0.266 
0 100 1:18 2:4.816 3:2.246 4:0.267 
0 100 1:10 2:2.21 3:1.086 4:0.52 
100 100 1:6 2:0.84 3:1.147 4:-0.481 
0 100 1:22 2:4.739 3:1.842 4:-0.323 
0 100 1:11 2:2.939 3:1.435 4:0.039 
0 100 1:21 2:6.157 3:2.614 4:0.06 
100 100 1:11 2:-0.168 3:-1.337 4:-0.151 
0 100 1:19 2:4.794 3:-1.337 4:0.06 
0 100 1:15 2:3.688 3:1.658 4:-0.176 
100 100 1:15 2:1.121 3:-1.049 4:0.183 
0 100 1:14 2:5.439 3:1.435 4:-0.146 
0 100 1:14 2:3.838 3:-1.56 4:0.153 
100 100 1:5 2:0.933 3:0.694 4:0.263 
0 100 1:20 2:10.075 3:2.993 4:0.182 
0 100 1:12 2:8.85 3:2.386 4:0.569 
0 100 1:27 2:6.742 3:-1.822 4:1.083 
100 100 1:16 2:-2.272 3:-4.999 4:-0.065 
0 100 1:20 2:7.111 3:1.703 4:0.276 
0 100 1:27 2:7.506 3:5 4:0.183 
0 100 1:14 2:6.642 3:2.458 4:0.139 
0 100 1:16 2:7.835 3:2.386 4:1.979 
0 100 1:13 2:1.488 3:-2.044 4:0.821 
0 100 1:12 2:2.098 3:0.742 4:0.138 
0 100 1:11 2:1.491 3:1.134 4:0.65 
0 100 1:15 2:4.749 3:1.359 4:1.152 
0 100 1:20 2:2.949 3:0.894 4:-0.133 
0 100 1:17 2:4.058 3:0.804 4:0.049 
0 100 1:15 2:6.673 3:1.553 4:0.676 
0 100 1:16 2:6.746 3:1.658 4:0.19 
0 100 1:18 2:2.27 3:1.147 4:0.474 
0 100 1:13 2:8.936 3:1.779 4:1.263 
100 100 1:18 2:2.262 3:5 4:-0.401 
0 100 1:14 2:2.239 3:1.461 4:0.284 
0 100 1:13 2:4.409 3:1.435 4:0.005 
0 100 1:14 2:12.287 3:5 4:0.153 
0 100 1:19 2:4.244 3:2.534 4:0.381 
0 100 1:20 2:5.839 3:1.435 4:0.919 
0 100 1:15 2:4.344 3:1.846 4:-0.278 
100 100 1:9 2:-0.395 3:-0.813 4:-0.011 
0 100 1:17 2:7.64 3:1.49 4:0.52 
100 100 1:7 2:2.441 3:0.866 4:-0.151 
100 100 1:14 2:-5.203 3:-1.966 4:0.276 
0 100 1:20 2:5.517 3:-1.678 4:-0.923 
0 100 1:16 2:4.479 3:1.991 4:-0.176 
100 100 1:27 2:-5.215 3:-1.534 4:0.135 
0 100 1:30 2:15.766 3:2.899 4:0.19 
100 100 1:6 2:-2.583 3:-1.896 4:-0.151 
0 100 1:11 2:2.088 3:1.147 4:-0.159 
0 100 1:18 2:6.015 3:1.575 4:0.866 
100 100 1:17 2:-3.32 3:-2.895 4:0.919 
0 100 1:17 2:6.387 3:1.435 4:0.1 
0 100 1:13 2:6.354 3:1.92 4:0.659 
0 100 1:16 2:7.805 3:1.58 4:0.336 
100 100 1:16 2:0.967 3:-2.014 4:-0.336 
0 100 1:10 2:8.572 3:1.592 4:0.95 
0 100 1:23 2:3.564 3:1.281 4:0.51 
0 100 1:13 2:5.099 3:1.542 4:0.569 
0 100 1:17 2:5.299 3:1.703 4:1.152 
100 100 1:6 2:0.145 3:-1.176 4:-0.437 
0 100 1:14 2:8.986 3:1.705 4:0.181 
0 100 1:24 2:3.675 3:1.658 4:-0.109 
0 100 1:15 2:2.642 3:0.951 4:0.243 
0 100 1:17 2:2.422 3:1.995 4:0.014 
100 100 1:5 2:1.442 3:0.52 4:0.52 
100 100 1:21 2:-2.583 3:-1.896 4:1.76 
0 100 1:26 2:9.176 3:2.351 4:0.046 
0 100 1:13 2:5.336 3:1.75 4:0.886 
0 100 1:9 2:4.138 3:1.414 4:-0.151 
0 100 1:18 2:6.563 3:1.553 4:0.103 
100 100 1:12 2:-1.268 3:1.435 4:0.012 
0 100 1:21 2:5.373 3:1.11 4:-0.151 
0 100 1:16 2:8.936 3:2.391 4:0.16 
0 100 1:37 2:24.584 3:5 4:0.135 
0 100 1:14 2:5.967 3:5 4:-0.672 
100 100 1:21 2:2.167 3:1.337 4:-0.017 
0 100 1:14 2:6.142 3:2.03 4:-0.109 
0 100 1:26 2:6.732 3:1.825 4:1.407 
100 100 
100 100 1:5 2:0.933 3:0.694 4:0.263 
100 100 1:13 2:-1.926 3:-1.624 4:-0.373 
100 100 1:13 2:-6.271 3:-2.409 4:0.64 
0 100 1:15 2:6.352 3:1.658 4:0.116 
100 100 1:15 2:-0.521 3:-1.319 4:0.483 
0 100 1:12 2:6.226 3:1.85 4:0.138 
0 100 1:14 2:4.48 3:1.435 4:0.045 
100 100 1:16 2:1.103 3:2.633 4:-2.2 
0 100 1:14 2:4.896 3:1.807 4:0.045 
47.83731721280208 100 1:7 2:2.457 3:1.301 4:0.308 
0 100 1:18 2:6.334 3:1.435 4:0.012 
0 100 1:10 2:2.084 3:1.435 4:-0.055 
0 100 1:18 2:2.87 3:5 4:-0.923 
0 100 1:18 2:4.508 3:1.147 4:0.93 
0 100 1:16 2:7.325 3:5 4:-0.151 
0 100 1:24 2:4.074 3:1.658 4:0.046 
0 100 1:10 2:2.023 3:1.147 4:0.535 
0 100 1:18 2:2.408 3:0.77 4:0.014 
0 100 1:13 2:7.38 3:2.614 4:0.811 
100 100 1:14 2:0.865 3:2.4 4:-1.861 
0 100 1:13 2:6.623 3:1.714 4:0.838 
0 100 1:14 2:6.512 3:1.348 4:1.095 
0 100 1:20 2:7.047 3:2.08 4:0.474 
100 100 1:18 2:-0.502 3:-1.322 4:-0.077 
0 100 1:26 2:5.341 3:0.86 4:-0.798 
100 100 1:18 2:1.202 3:-4.999 4:-1.648 
100 100 1:11 2:-8.442 3:-1.812 4:-0.297 
100 100 1:10 2:0.846 3:0.959 4:0.19 
0 100 1:16 2:5.654 3:1.348 4:0.13 
0 100 1:23 2:11.995 3:5 4:0.394 
0 100 1:26 2:14.354 3:5 4:-0.51 
0 100 1:14 2:5.033 3:1.669 4:-0.177 
100 100 1:28 2:3.833 3:-1.293 4:-0.072 
0 100 1:20 2:6.468 3:1.84 4:1.84 
0 100 1:15 2:4.08 3:1.658 4:-0.358 
100 100 1:28 2:-5.638 3:-4.999 4:0.045 
0 100 1:34 2:22.174 3:2.899 4:0.316 
100 100 1:15 2:-7.008 3:-1.7 4:-0.072 
100 100 1:6 2:0.918 3:0.636 4:-0.151 
0 100 1:6 2:2.825 3:1.157 4:1.157 
0 100 1:17 2:7.912 3:1.697 4:0.039 
0 100 1:11 2:6.714 3:1.658 4:0.183 
100 100 1:20 2:-0.228 3:1.33 4:0.726 
100 100 1:20 2:-2.98 3:-1.965 4:-0.265 
0 100 1:22 2:6.313 3:1.879 4:0.866 
100 100 1:19 2:-0.594 3:1.838 4:-1.609 
0 100 1:16 2:3.611 3:-1.742 4:-1.742 
100 100 1:10 2:-0.527 3:0.896 4:-0.072 
0 100 1:15 2:6.453 3:1.658 4:1.196 
0 100 1:24 2:7.515 3:2.023 4:0.267 
0 100 1:16 2:7.808 3:1.613 4:-0.29 
0 100 1:19 2:7.984 3:1.435 4:0.844 
0 100 1:17 2:6.57 3:1.758 4:-0.537 
0 100 1:27 2:4.811 3:-1.337 4:1.264 
0 100 1:19 2:3.349 3:1.147 4:-0.036 
100 100 1:21 2:1.125 3:1.34 4:0.58 
0 100 1:20 2:6.474 3:3.14 4:-0.692 
100 100 1:17 2:1.014 3:1.147 4:0.045 
0 100 1:20 2:5.431 3:2.963 4:-0.072 
100 100 1:12 2:1.107 3:1.37 4:0.263 
0 100 1:15 2:7.566 3:1.343 4:0.358 
0 100 1:19 2:3.862 3:1.669 4:-0.597 
0 100 1:13 2:9.786 3:1.995 4:1.085 
0 100 1:20 2:6.277 3:-2.009 4:-0.297 
100 100 1:15 2:-0.697 3:-1.049 4:-0.109 
100 100 1:7 2:-3.006 3:-4.999 4:0.08 
86.86972335886824 100 1:7 2:2.562 3:1.255 4:-0.151 
0 100 1:15 2:1.952 3:-0.91 4:0.19 
0 100 1:36 2:7.237 3:1.895 4:0.474 
0 100 1:17 2:2.259 3:-1.337 4:-0.411 
0 100 1:11 2:4.59 3:2.128 4:0.311 
0 100 1:23 2:4.425 3:1.356 4:0.19 
0 100 1:23 2:4.071 3:1.614 4:-0.329 
0 100 1:16 2:11.158 3:5 4:0.535 
100 100 1:8 2:-1.787 3:-1.584 4:0.569 
0 100 1:15 2:4.173 3:0.93 4:-0.172 
100 100 1:11 2:-0.455 3:1.493 4:0.52 
0 100 1:15 2:2.247 3:1.147 4:0.376 
100 100 1:9 2:0.967 3:0.742 4:-0.039 
100 100 1:24 2:-0.454 3:-1.847 4:0.58 
0 100 1:19 2:3.738 3:1.11 4:-0.065 
0 100 1:14 2:3.992 3:1.435 4:0.58 
0 100 1:20 2:7.426 3:1.771 4:1.297 
100 100 1:21 2:-0.294 3:-0.959 4:0.604 
100 100 1:16 2:-0.173 3:-1.818 4:-0.151 
0 100 1:16 2:2.982 3:1.278 4:0.512 
100 100 1:18 2:-1.36 3:-0.962 4:-0.353 
100 100 1:12 2:-0.261 3:-1.049 4:0.19 
0 100 1:15 2:8.072 3:1.885 4:0.049 
0 100 1:15 2:3.972 3:1.435 4:0.135 
100 100 1:30 2:0.903 3:1.147 4:0.442 
0 100 1:15 2:4.552 3:1.301 4:-0.191 
0 100 1:9 2:2.487 3:1.2 4:0.101 
0 7.952152661662654 1:18 2:8.822 3:1.49 4:-0.032 
100 100 1:7 2:1.086 3:0.848 4:-0.077 
100 100 1:27 2:-2.438 3:-2.217 4:0.452 
0 100 1:11 2:7.124 3:5 4:-0.097 
0 100 1:7 2:2.643 3:0.814 4:0.814 
0 100 1:13 2:5.264 3:1.243 4:0.599 
3.252128245476976 100 1:11 2:1.978 3:-1.049 4:-0.003 
100 100 1:16 2:0.219 3:-1.508 4:0.021 
0 100 1:15 2:5.148 3:1.157 4:1.157 
0 100 1:24 2:7.364 3:1.658 4:-0.132 
100 100 1:9 2:1.42 3:0.742 4:-0.287 
0 100 1:23 2:8.206 3:5 4:0.276 
0 100 1:26 2:5.897 3:1.435 4:0.023 
100 100 1:13 2:-0.135 3:0.86 4:-0.411 
100 100 1:6 2:-1.275 3:-0.643 4:-0.285 
0 100 1:12 2:6.933 3:1.301 4:0.265 
0 100 1:19 2:5.087 3:1.147 4:0.109 
100 100 1:11 2:-1.673 3:-2.253 4:-0.437 
100 100 1:23 2:0.907 3:-4.999 4:-0.151 
100 100 1:21 2:-16.459 3:-4.999 4:-0.686 
0 100 1:15 2:10.15 3:3.227 4:0.688 
0 100 1:18 2:11.269 3:5 4:0.964 
0 100 1:15 2:4.762 3:0.985 4:0.684 
0 100 1:5 2:3.341 3:1.147 4:0.931 
0 100 1:21 2:4.935 3:1.435 4:0.431 
0 100 1:17 2:3.359 3:1.61 4:0.542 
0 100 1:18 2:6.659 3:2.026 4:0.358 
0 100 1:13 2:7.036 3:2.899 4:-0.077 
0 100 1:19 2:2.42 3:1.104 4:-0.264 
100 100 1:11 2:1.624 3:1.027 4:0.267 
100 100 1:17 2:-0.296 3:1.836 4:-0.155 
0 100 1:12 2:5.494 3:1.473 4:-0.363 
0 100 1:12 2:6.043 3:1.229 4:1.212 
100 100 1:9 2:1.536 3:2.386 4:-0.151 
0 100 1:14 2:3.561 3:1.54 4:1.54 
0 100 1:14 2:5.7 3:1.147 4:-0.31 
100 100 1:10 2:0.695 3:1.84 4:-0.381 
0 100 1:23 2:15.273 3:5 4:0.501 
0 100 1:16 2:3.79 3:1.658 4:0.87 
0 100 1:11 2:5.772 3:1.147 4:0.644 
100 100 1:15 2:-1.705 3:1.658 4:-0.708 
0 100 1:15 2:5.949 3:1.384 4:0.049 
100 100 1:13 2:-1.266 3:1.078 4:0.41 
0 100 1:17 2:5.659 3:1.559 4:-0.093 
0 100 1:9 2:3.15 3:1.776 4:0.307 
0 100 1:16 2:3.499 3:1.38 4:0.336 
100 100 1:27 2:-1.912 3:0.924 4:-0.019 
0 100 1:23 2:7.027 3:1.884 4:1.238 
0 100 1:21 2:7.13 3:1.253 4:0.901 
0 100 1:21 2:15.507 3:5 4:1.282 
0 100 1:12 2:10.539 3:2.766 4:2.299 
0 100 1:15 2:8.024 3:1.624 4:0.315 
0 100 1:24 2:4.52 3:2.025 4:0.017 
0 100 1:16 2:8.198 3:1.375 4:0.517 
0 100 1:20 2:2.944 3:1.315 4:0.51 
10.0448449891537 100 1:15 2:1.247 3:-2.217 4:0.535 
0 100 1:13 2:2.703 3:1.435 4:0.405 
0 100 1:19 2:5.046 3:1.236 4:0.329 
0 100 1:13 2:5.887 3:1.147 4:0.103 
0 100 1:12 2:5.991 3:1.515 4:-0.034 
0 100 1:16 2:5.095 3:1.864 4:1.864 
0 100 1:22 2:5.142 3:1.359 4:-0.06 
0 100 1:8 2:3.385 3:1.359 4:-0.151 
0 100 1:13 2:2.773 3:1.435 4:0.045 
0 100 1:17 2:2.339 3:0.639 4:0.282 
100 100 1:15 2:0.978 3:1.995 4:-0.278 
0 100 1:17 2:8.141 3:2.246 4:0.334 
100 100 1:14 2:-1.5 3:-1.818 4:0.138 
100 100 1:11 2:-0.025 3:-0.528 4:-0.22 
0 100 1:10 2:3.098 3:1.76 4:-0.263 
0 100 1:16 2:4.953 3:1.355 4:0.569 
0 100 1:16 2:3.496 3:0.909 4:0.103 
100 100 1:11 2:-0.933 3:-0.79 4:0.094 
0 100 1:15 2:7.567 3:1.491 4:0.927 
100 100 1:19 2:-1.727 3:-2.302 4:-0.059 
0 100 1:11 2:6.43 3:1.658 4:0.314 
0 100 1:13 2:3.619 3:1.75 4:0.273 
0 100 1:16 2:5.459 3:1.301 4:0.19 
100 100 1:19 2:-0.405 3:-1.209 4:-0.059 
100 100 1:6 2:-0.256 3:-0.931 4:0.085 
0 100 1:24 2:8.242 3:3.066 4:0.183 
0 100 1:20 2:8.031 3:1.51 4:-0.06 
100 100 1:13 2:1.381 3:0.815 4:0.586 
100 100 1:10 2:1.165 3:1.047 4:0.155 
0 100 1:26 2:4.93 3:2.351 4:0.434 
100 100 1:12 2:1.254 3:0.742 4:0.482 
100 100 1:16 2:-5.211 3:-2.995 4:-0.151 
0 100 1:19 2:5.701 3:1.352 4:0.361 
100 100 1:8 2:1.899 3:1.995 4:0.049 
100 100 1:17 2:0.843 3:-1.56 4:-0.878 
0 100 1:17 2:14.249 3:5 4:0.838 
0 100 1:7 2:3.59 3:1.147 4:0.085 
100 100 1:15 2:1.114 3:-2.209 4:-1.648 
0 100 1:19 2:5.691 3:1.519 4:-0.566 
0 100 1:17 2:9.197 3:2.899 4:0.045 
0 100 1:23 2:6.437 3:2.128 4:0.203 
0 100 1:15 2:4.085 3:-1.56 4:0.334 
0 100 1:13 2:2.911 3:1.253 4:-0.893 
100 100 1:7 2:0.107 3:-1.049 4:0.183 
100 100 1:19 2:0.553 3:1.798 4:-0.507 
0 100 1:20 2:4.541 3:1.723 4:-0.603 
0 100 1:11 2:2.46 3:1.007 4:1.007 
0 100 1:6 2:3.995 3:1.359 4:0.045 
0 100 1:17 2:6.582 3:2.206 4:2.206 
0 100 1:20 2:7.827 3:1.84 4:0.132 
0 100 1:16 2:10.076 3:5 4:0.266 
0 100 1:15 2:3.786 3:0.793 4:-0.056 
0 100 1:23 2:6.606 3:1.147 4:0.16 
100 100 1:19 2:-1.323 3:1.086 4:0.726 
100 100 1:9 2:0.273 3:1.651 4:-0.263 
0 100 1:22 2:5.654 3:1.078 4:0.58 
0 100 1:13 2:2.719 3:0.793 4:-0.056 
100 100 1:24 2:1.654 3:1.624 4:0.196 
100 100 1:21 2:0.855 3:1.743 4:-0.744 
0 100 1:15 2:5.124 3:1.47 4:-0.077 
0 100 1:14 2:8.553 3:2.11 4:0.866 
0 100 1:14 2:6.697 3:5 4:-0.151 
0 100 1:9 2:2.697 3:1.035 4:0.153 
0 100 1:11 2:5.703 3:1.47 4:-0.171 
100 100 1:24 2:1.255 3:0.896 4:0.664 
0 100 1:15 2:6.314 3:1.272 4:0.689 
100 100 1:8 2:0.089 3:-1.175 4:-1.175 
0 100 1:24 2:17.205 3:5 4:0.94 
0 100 1:20 2:11.909 3:5 4:0.264 
0 100 1:15 2:5.755 3:1.396 4:0.64 
0 100 1:13 2:4.581 3:-2.004 4:-1.238 
0 100 1:13 2:4.898 3:0.825 4:0.274 
0 100 1:8 2:3.734 3:1.51 4:0.474 
100 100 1:27 2:0.932 3:1.542 4:0.569 
100 100 1:16 2:-1.891 3:-2.111 4:-0.171 
0 100 1:14 2:2.861 3:1.61 4:0.569 
0 100 1:12 2:5.756 3:1.359 4:1.098 
0 100 1:5 2:4.892 3:1.589 4:1.45 
0 100 1:9 2:7.511 3:5 4:5 
0 100 1:12 2:4.546 3:1.881 4:0.154 
0 100 1:12 2:6.6 3:1.51 4:0.633 
100 100 1:27 2:0.764 3:-1.56 4:-0.151 
0 100 1:16 2:2.852 3:-2.171 4:0.569 
0 100 1:10 2:2.964 3:1.157 4:-0.198 
0 100 1:15 2:4.602 3:1.515 4:-0.059 
0 100 1:20 2:3.916 3:1.227 4:0.742 
0 100 1:13 2:1.662 3:-2.018 4:0.58 
0 100 1:11 2:1.899 3:-1.742 4:-0.189 
0 100 1:18 2:16.862 3:5 4:1.109 
100 100 1:29 2:-9.915 3:-2.148 4:-0.301 
0 100 1:14 2:3.751 3:1.147 4:0.434 
0 100 1:15 2:15.401 3:5 4:0.562 
100 100 1:16 2:-4.28 3:-1.454 4:-1.454 
100 100 1:18 2:-4.602 3:-1.812 4:-0.263 
0 100 1:18 2:6.352 3:1.147 4:0.474 
0 100 1:17 2:4.44 3:1.76 4:0.096 
0 100 1:15 2:7.076 3:1.49 4:-0.151 
100 100 1:21 2:-1.89 3:-1.702 4:-1.297 
0 100 1:14 2:5.902 3:-1.547 4:0.65 
100 100 1:6 2:1.251 3:0.835 4:0.129 
100 100 1:17 2:-0.811 3:-1.664 4:0.005 
100 100 1:18 2:-1.146 3:-1.668 4:0.245 
0 100 1:21 2:5.638 3:1.936 4:0.235 
0 100 1:13 2:2.925 3:0.789 4:0.412 
0 100 1:21 2:3.056 3:2.128 4:-0.866 
0 100 1:34 2:6.611 3:1.435 4:1.182 
0 100 1:13 2:6.207 3:1.658 4:0.423 
100 100 1:6 2:1.675 3:1.314 4:0.965 
0 6.703192553154492 1:18 2:8.608 3:1.435 4:0.407 
100 100 1:20 2:-6.923 3:-1.811 4:-1.811 
0 100 1:12 2:8.811 3:1.669 4:0.085 
0 100 1:17 2:2.807 3:1.067 4:1.067 
100 100 1:9 2:0.421 3:1.109 4:0.52 
0 100 1:10 2:7.98 3:1.658 4:0.423 
0 100 1:10 2:4.263 3:1.016 4:0.659 
0 100 1:15 2:4.114 3:2.534 4:0.59 
0 100 1:15 2:6.26 3:1.355 4:0.135 
0 100 1:11 2:5.752 3:1.881 4:0.123 
0 100 1:21 2:14.476 3:5 4:-0.142 
100 100 1:8 2:1.159 3:0.399 4:0.34 
0 100 1:15 2:5.861 3:1.92 4:0.016 
100 100 1:17 2:0.502 3:1.147 4:0.742 
0 100 1:14 2:1.772 3:-2.349 4:0.786 
0 100 1:11 2:1.905 3:1.217 4:1.157 
0 100 1:12 2:2.955 3:1.083 4:-0.001 
100 100 1:29 2:2.524 3:-1.66 4:-0.194 
100 100 1:29 2:-6.66 3:-1.337 4:-0.249 
0 100 1:14 2:2.859 3:1.03 4:-0.266 
0 100 1:16 2:2.453 3:0.733 4:0.39 
0 100 1:21 2:11.394 3:5 4:0.213 
100 100 1:8 2:0.259 3:-0.894 4:0.739 
100 100 1:12 2:0.173 3:1.047 4:-0.276 
100 100 1:24 2:1.838 3:-0.793 4:-0.059 
100 100 1:18 2:-0.084 3:0.993 4:0.356 
100 100 1:25 2:-1.77 3:-4.999 4:-0.157 
0 100 1:12 2:5.553 3:0.86 4:0.153 
100 100 1:19 2:0.861 3:0.686 4:0.474 
100 100 1:14 2:1.145 3:1.264 4:0.447 
0 100 1:10 2:5.992 3:1.212 4:0.085 
0 100 1:21 2:3.739 3:-0.898 4:-0.828 
100 100 1:23 2:-3.381 3:-1.558 4:-0.597 
0 100 1:11 2:8.716 3:5 4:5 
100 100 1:24 2:1.044 3:-4.999 4:0.57 
100 100 1:22 2:-2.836 3:-1.943 4:-0.151 
100 100 1:22 2:-18.223 3:-4.999 4:-2.735 
0 100 1:17 2:4.031 3:1.047 4:-0.059 
0 100 1:17 2:3.968 3:1.995 4:0.19 
100 100 1:21 2:-4.602 3:-2.435 4:0.454 
0 100 1:18 2:2.834 3:-3.051 4:-0.686 
100 100 1:21 2:0.08 3:-0.643 4:-0.198 
0 100 1:25 2:16.509 3:5 4:0.556 
100 100 1:19 2:-18.447 3:-3.534 4:0.535 
0 100 1:15 2:4.017 3:1.624 4:-0.38 
100 100 1:21 2:-0.384 3:-3.575 4:0.64 
0 100 1:21 2:7.596 3:5 4:-0.059 
0 100 1:13 2:14.635 3:5 4:0.254 
100 100 1:26 2:0.256 3:-2.246 4:0.264 
0 100 1:8 2:6.874 3:1.84 4:0.919 
0 100 1:13 2:1.887 3:0.694 4:-0.173 
100 100 1:17 2:1.215 3:-0.98 4:-0.856 
0 100 1:9 2:3.159 3:0.674 4:0.58 
0 100 1:11 2:8.854 3:1.484 4:0.479 
0 100 1:15 2:19.683 3:3.084 4:0.109 
0 100 1:10 2:6.459 3:1.905 4:-0.109 
0 100 1:15 2:2.792 3:1.064 4:0.314 
100 100 1:18 2:0.9 3:-1.049 4:0.328 
100 100 1:20 2:1.388 3:2.639 4:0.736 
0 100 1:21 2:4.133 3:1.083 4:0.433 
100 100 1:18 2:-2.912 3:-0.811 4:-0.003 
0 100 1:16 2:4.002 3:1.147 4:0.381 
100 100 1:6 2:1.051 3:1.242 4:-0.663 
0 100 1:21 2:10.651 3:2.447 4:0.45 
0 100 1:17 2:2.858 3:1.84 4:-0.362 
0 100 1:14 2:3.073 3:1.281 4:-0.189 
0 100 1:13 2:10.365 3:5 4:0.666 
0 100 1:11 2:3.806 3:2.128 4:0.448 
0 100 1:19 2:4.587 3:-1.013 4:0.866 
0 100 1:26 2:8.479 3:2.534 4:-0.06 
0 100 1:14 2:4.493 3:1.624 4:0.049 
100 100 1:15 2:-3.822 3:-1.249 4:-0.321 
100 100 1:12 2:-1.232 3:-0.826 4:0.184 
100 100 1:10 2:-0.37 3:-1.397 4:0.724 
100 100 1:12 2:-6.386 3:-2.11 4:-0.913 
100 100 1:7 2:1.676 3:1.06 4:-0.194 
0 100 1:10 2:9.006 3:1.658 4:0.65 
0 100 1:9 2:6.307 3:5 4:0.528 
100 100 1:11 2:0.02 3:-1.56 4:0.049 
100 100 1:14 2:0.889 3:-1.154 4:-1.154 
0 100 1:15 2:4.516 3:1.995 4:0.122 
0 100 1:15 2:7.118 3:1.227 4:0.554 
100 100 1:7 2:2.175 3:0.682 4:-0.122 
100 100 1:22 2:-2.072 3:1.84 4:0.551 
100 100 1:8 2:0.853 3:1.355 4:-0.213 
0 100 1:19 2:2.042 3:-1.328 4:-0.413 
0 100 1:7 2:3.903 3:1.359 4:0.085 
0 100 1:17 2:3.13 3:1.607 4:1.607 
0 100 1:26 2:11.657 3:2.064 4:0.19 
0 100 1:8 2:9.026 3:2.614 4:0.185 
0 100 1:14 2:3.315 3:1.624 4:1.624 
0 100 1:14 2:11.309 3:5 4:1.634 
0 100 1:21 2:5.072 3:1.84 4:-0.059 
0 100 1:21 2:6.678 3:1.658 4:0.483 
100 100 1:9 2:0.872 3:-0.894 4:0.739 
100 100 1:8 2:0.899 3:2.112 4:-0.867 
0 100 1:10 2:4.903 3:1.251 4:1.227 
0 100 1:16 2:3.695 3:1.314 4:1.314 
0 100 1:17 2:2.719 3:1.29 4:-0.112 
0 100 1:8 2:5.914 3:1.51 4:0.183 
100 100 1:19 2:-2.498 3:-2.624 4:0.338 
100 100 1:20 2:-6.834 3:-4.999 4:-0.151 
0 100 1:17 2:2.39 3:1.164 4:0.183 
100 100 1:5 2:-1.615 3:-0.848 4:-0.848 
100 100 1:15 2:1.057 3:0.822 4:0.451 
0 100 1:13 2:1.817 3:0.867 4:0.65 
100 100 1:9 2:-3.162 3:-1.837 4:0.183 
0 100 1:17 2:12.362 3:4.443 4:0.474 
0 100 1:13 2:4.54 3:1.275 4:0.077 
100 100 1:29 2:3.456 3:1.083 4:0.58 
100 100 1:22 2:-5.458 3:-2.577 4:-0.381 
0 12.87208543693772 1:15 2:8.739 3:1.604 4:1.196 
0 100 1:19 2:14.907 3:5 4:-0.126 
0 100 1:27 2:16.898 3:5 4:0.607 
0 100 1:14 2:8.238 3:2.928 4:0.924 
100 100 1:23 2:1.984 3:2.064 4:0.613 
100 100 1:11 2:-1.952 3:-1.358 4:0.141 
100 100 1:12 2:0.378 3:-1.337 4:0.121 
100 100 1:21 2:-3.585 3:-1.165 4:-1.165 
100 100 1:28 2:-4.589 3:5 4:-1.472 
0 100 1:15 2:7.827 3:5 4:1.189 
0 100 1:13 2:2.63 3:-2.515 4:-0.259 
0 100 1:14 2:5.966 3:-1.337 4:1.157 
100 100 1:6 2:1.292 3:0.636 4:0.636 
0 100 1:16 2:3.627 3:1.3 4:0.049 
0 100 1:19 2:3.974 3:1.157 4:1.157 
100 100 1:11 2:1.043 3:1.435 4:0.245 
0 100 1:14 2:3.472 3:-1.56 4:0.334 
100 100 1:13 2:0.106 3:1.212 4:0.176 
100 100 1:6 2:1.706 3:1.218 4:0.142 
0 100 1:16 2:1.405 3:1.566 4:0.216 
100 100 1:16 2:-0.159 3:-1.049 4:0.203 
0 100 1:11 2:5.433 3:1.147 4:1.083 
100 100 1:20 2:-5.862 3:-1.56 4:0.215 
0 100 1:17 2:4.204 3:1.251 4:-0.151 
0 100 1:20 2:5.328 3:-2.148 4:-0.073 
0 100 1:11 2:3.005 3:0.965 4:-0.125 
100 100 1:4 2:-0.08 3:-0.556 4:0.222 
100 100 1:22 2:-0.643 3:1.435 4:0.522 
100 100 1:17 2:-1.919 3:-1.016 4:-1.016 
100 100 1:15 2:0.653 3:1.14 4:0.613 
100 100 1:22 2:2.196 3:1.273 4:0.376 
0 100 1:12 2:2.092 3:-0.739 4:-0.109 
0 100 1:27 2:12.474 3:2.241 4:1.024 
100 100 1:6 2:-0.462 3:-0.692 4:-0.059 
100 100 1:15 2:0.96 3:1.084 4:-0.073 
0 100 1:10 2:6.607 3:1.435 4:0.54 
0 100 1:11 2:5.609 3:2.299 4:-0.077 
0 100 1:12 2:2.87 3:1.634 4:-0.81 
100 100 1:20 2:-1.759 3:-0.851 4:0.552 
0 100 1:20 2:7.889 3:5 4:-0.024 
0 100 1:6 2:4.85 3:2.534 4:0.51 
0 100 1:16 2:6.459 3:1.753 4:0.809 
0 100 1:16 2:3.727 3:2.128 4:-0.388 
0 100 1:11 2:5.533 3:1.376 4:0.209 
0 100 1:13 2:6.725 3:1.084 4:-0.059 
0 100 1:15 2:2.422 3:1.175 4:-0.012 
0 100 1:16 2:2.066 3:0.912 4:0.19 
0 100 1:13 2:3.474 3:1.84 4:-0.151 
100 100 1:12 2:-2.674 3:-2.164 4:-0.155 
0 100 1:11 2:9.055 3:2.041 4:1.511 
0 100 1:23 2:7.551 3:2.534 4:0.474 
0 100 1:13 2:5.905 3:1.76 4:0.247 
0 100 1:24 2:11.503 3:2.241 4:0.085 
0 100 1:10 2:2.85 3:1.501 4:1.207 
0 100 1:17 2:5.103 3:1.51 4:-0.073 
0 100 1:13 2:9.271 3:1.723 4:-0.171 
0 100 1:15 2:6.006 3:1.633 4:0.109 
100 100 1:8 2:1.894 3:1.261 4:-0.573 
0 100 1:11 2:4.491 3:1.658 4:-0.014 
0 100 1:18 2:5.314 3:1.315 4:0.153 
0 100 1:9 2:4.056 3:1.227 4:-0.033 
0 100 1:18 2:2.688 3:1.301 4:-0.02 
100 100 1:16 2:0.178 3:2.226 4:1.879 
0 100 1:10 2:3.95 3:1.195 4:0.395 
0.05073679681018628 100 1:21 2:2.524 3:-4.999 4:-0.066 
0 100 1:16 2:7.597 3:1.313 4:0.075 
0 100 1:9 2:5.812 3:1.806 4:1.087 
100 100 1:6 2:1.652 3:0.742 4:0.045 
100 100 1:24 2:-0.911 3:-4.999 4:0.896 
0 100 1:10 2:5.75 3:2.541 4:1.879 
0 100 1:10 2:6.614 3:2.688 4:0.095 
0 100 1:18 2:2.277 3:1.435 4:0.101 
0 100 1:24 2:6.069 3:1.696 4:0.066 
100 100 1:16 2:-0.054 3:1.658 4:0.491 
0 100 1:9 2:4.724 3:-1.742 4:0.468 
0 100 1:8 2:3.024 3:1.261 4:-0.008 
0 100 1:21 2:8.399 3:5 4:-0.066 
100 100 1:11 2:1.707 3:1.339 4:-1.203 
0 100 1:7 2:4.584 3:1.658 4:-0.308 
100 100 1:16 2:-0.375 3:-2.565 4:0.317 
100 100 1:11 2:0.084 3:-0.848 4:-0.848 
0 100 1:25 2:3.829 3:-1.337 4:-0.171 
0 100 1:22 2:14.008 3:5 4:0.19 
100 100 1:12 2:-6.562 3:-1.702 4:-0.476 
100 100 1:17 2:0.183 3:1.335 4:-0.536 
100 100 1:22 2:-3.111 3:-1.742 4:-0.163 
100 100 1:20 2:-0.112 3:0.937 4:0.427 
0 100 1:26 2:4.519 3:1.703 4:-0.423 
100 100 1:27 2:1.349 3:-1.56 4:0.669 
0 100 1:19 2:10.771 3:5 4:-0.077 
100 100 1:11 2:-0.54 3:-1.56 4:-0.545 
0 100 1:21 2:11.705 3:4.405 4:1.831 
0 100 1:11 2:8.294 3:1.812 4:0.183 
100 100 1:13 2:1.027 3:1.301 4:-0.194 
0 100 1:16 2:1.964 3:-1.742 4:0.3 
100 100 1:10 2:-0.275 3:-0.978 4:0.58 
0 100 1:14 2:6.91 3:1.371 4:0.19 
0 100 1:24 2:4.08 3:1.658 4:0.586 
0 100 1:14 2:5.581 3:1.51 4:0.284 
100 100 1:16 2:-3.562 3:-4.999 4:0.979 
100 100 1:9 2:-2.41 3:-1.301 4:-1.301 
100 100 1:7 2:2.397 3:0.751 4:-0.151 
100 100 1:21 2:-3.564 3:-2.03 4:0.41 
0 100 1:17 2:4.058 3:1.85 4:1.083 
100 100 1:19 2:0.341 3:-0.753 4:-0.194 
100 100 1:20 2:1.317 3:0.742 4:0.284 
0 100 1:32 2:9.056 3:1.553 4:0.64 
100 100 1:15 2:1.063 4:0.49 
0 100 1:13 2:7.723 3:2.351 4:0.64 
0 100 1:14 2:3.137 3:1.147 4:-0.033 
0 100 1:12 2:1.943 3:-1.185 4:-1.185 
100 100 1:12 2:0.718 3:-2.36 4:-2.36 
100 100 1:13 2:1.156 3:-4.999 4:0.433 
0 100 1:7 2:3.944 3:1.03 4:0.58 
100 100 1:21 2:2.032 3:1.03 4:0.124 
0 100 1:14 2:5.555 3:1.68 4:-0.406 
0 100 1:17 2:11.146 3:5 4:0.56 
100 100 1:12 2:0.819 3:1.262 4:-0.112 
100 100 1:9 2:-1.156 3:-0.761 4:-0.601 
100 100 1:18 2:-5.709 3:-1.684 4:-0.151 
0 100 1:21 2:7.667 3:5 4:-1.648 
0 100 1:19 2:5.799 3:1.658 4:0.674 
100 100 1:19 2:1.828 3:-1.684 4:-1.281 
0 100 1:13 2:5.476 3:5 4:5 
100 100 1:21 2:-6.419 3:-4.999 4:-0.94 
0 100 1:12 2:1.636 3:1.263 4:-0.071 
0 100 1:20 2:6.966 3:1.634 4:-0.194 
100 100 1:10 2:0.763 3:-1 4:0.626 
100 100 1:3 2:-0.82 3:-0.643 4:-0.399 
0 100 1:25 2:6.52 3:1.435 4:1.025 
0 100 1:16 2:5.841 3:1.227 4:1.177 
0 100 1:9 2:2.783 3:1.147 4:-0.269 
100 100 1:21 2:1.479 3:-1.678 4:0.19 
100 100 1:22 2:0.95 3:-1.56 4:0.924 
0 100 1:26 2:10.076 3:2.128 4:2.128 
0 100 1:20 2:7.068 3:1.651 4:1.651 
100 100 1:19 2:1.564 3:-2.515 4:-0.151 
0 100 1:20 2:2.784 3:1.113 4:-0.257 
0 100 1:18 2:6.608 3:1.33 4:0.168 
0 100 1:18 2:6.475 3:2.128 4:-0.109 
0 100 1:14 2:5.13 3:1.798 4:0.183 
100 100 1:15 2:-1.006 3:0.86 4:0.474 
0 4.555248875711619 1:16 2:8.437 3:1.329 4:1.329 
0 100 1:19 2:3.984 3:1.753 4:1.511 
100 100 1:15 2:-2.848 3:-1.337 4:0.334 
100 100 1:19 2:1.07 3:0.857 4:-0.151 
0 100 1:20 2:5.589 3:1.979 4:-0.506 
100 100 1:12 2:-5.125 3:-1.143 4:0.19 
100 100 1:19 2:1.689 3:1.255 4:-0.151 
0 100 1:23 2:4.282 3:1.92 4:0.049 
0 100 1:11 2:5.798 3:1.946 4:1.337 
100 100 1:28 2:2.038 3:-1.049 4:0.144 
100 100 1:14 2:-3.167 3:-1.419 4:0.348 
0 100 1:16 2:5.141 3:1.147 4:-0.077 
10.84283297160079 100 1:20 2:2.43 3:2.4 4:0.243 
0 100 1:18 2:4.373 3:1.658 4:0.276 
0 100 1:23 2:7.131 3:5 4:0.66 
0 100 1:14 2:3.447 3:2.688 4:0.272 
0 100 1:9 2:5.564 3:1.735 4:0.263 
0 100 1:30 2:10.577 3:1.75 4:1.254 
0 100 1:13 2:3.638 3:0.968 4:-0.019 
0 100 1:11 2:3.316 3:0.668 4:-0.109 
0 100 1:23 2:8.988 3:1.918 4:-0.014 
100 100 1:11 2:-0.395 3:-0.923 4:0.266 
0 100 1:15 2:5.789 3:1.753 4:0.028 
100 100 1:17 2:-3.281 3:-2.348 4:-0.337 
0 100 1:13 2:2.72 3:1.063 4:0.012 
0 100 1:30 2:9.621 3:1.84 4:0.243 
100 100 1:14 2:0.197 3:-1.297 4:-1.297 
0 100 1:16 2:7.354 3:5 4:0.183 
0 100 1:9 2:4.987 3:1.763 4:0.919 
0 100 1:14 2:4.034 3:1.806 4:1.087 
0 100 1:17 2:4.096 3:2.282 4:0.64 
0 100 1:24 2:5.181 3:2.757 4:-0.236 
100 100 1:10 2:0.723 3:-1.337 4:0.264 
100 100 1:13 2:-6.013 3:-4.999 4:0.442 
0 100 1:8 2:3.024 3:1.261 4:-0.008 
0 100 1:19 2:7.559 3:1.507 4:0.64 
100 100 1:17 2:0.002 3:1.84 4:-0.099 
0 100 1:15 2:2.783 3:1.247 4:-0.004 
0 100 1:16 2:8.43 3:1.964 4:0.077 
100 100 1:19 2:0.142 3:1.658 4:0.258 
100 100 1:24 2:1.694 3:1.658 4:-0.094 
86.69538547188905 100 1:22 2:3.131 3:1.238 4:0.094 
0 100 1:20 2:5.589 3:1.979 4:-0.506 
100 100 1:26 2:2.604 3:1.51 4:0.133 
0 100 1:18 2:7.807 3:1.51 4:0.097 
0 100 1:13 2:3.697 3:1.348 4:0.56 
0 100 1:22 2:5.083 3:1.553 4:0.465 
0 100 1:17 2:4.127 3:1.442 4:1.442 
100 100 1:6 2:-0.618 3:-1.56 4:-1.56 
100 100 1:29 2:-11.847 3:-4.999 4:-0.86 
0 100 1:29 2:13.701 3:2.235 4:0.599 
100 100 1:22 2:-5.439 3:-2.971 4:0.754 
0 100 1:19 2:2.12 3:-1.56 4:0.045 
0 100 1:11 2:6.953 3:1.658 4:0.316 
0 100 1:8 2:2.984 3:1.147 4:-0.497 
0 100 1:18 2:4.658 3:1.504 4:0.979 
100 100 1:19 2:-5.477 3:-2.803 4:-0.006 
0 100 1:16 2:5.968 3:1.395 4:0.64 
0 100 1:12 2:6.48 3:1.783 4:1.308 
0 100 1:22 2:4.666 3:1.658 4:0.354 
100 100 1:6 2:2.06 3:1.365 4:-0.151 
16.77932849380338 100 1:18 2:1.592 3:0.867 4:-0.356 
0 100 1:16 2:5.007 3:1.322 4:0.41 
0 100 1:25 2:20.031 3:5 4:0.773 
0 100 1:24 2:10.092 3:2.313 4:1.157 
0 100 1:17 2:9.652 3:2.299 4:0.268 
0 100 1:21 2:3.84 3:1.199 4:0.267 
100 100 1:8 2:0.561 3:-0.738 4:0.448 
0 100 1:15 2:3.888 3:1 4:0.65 
100 100 1:11 2:-4.022 3:-1.337 4:0.135 
0 100 1:18 2:4.019 3:1.658 4:0.985 
0 100 1:19 2:4.35 3:1.519 4:1.007 
0 100 1:19 2:7.301 3:1.936 4:-0.215 
0 100 1:29 2:7.248 3:1.995 4:0.406 
0 100 1:15 2:4.823 3:1.261 4:-0.528 
100 100 1:13 2:-0.798 3:-0.643 4:0.138 
100 100 1:17 2:-0.418 3:-1.337 4:0.406 
100 100 1:28 2:0.034 3:-0.91 4:0.139 
100 100 1:9 2:0.579 3:1.658 4:0.629 
0 100 1:16 2:2.471 3:1.147 4:0.58 
0 100 1:11 2:2.264 3:1.735 4:-0.249 
0 100 1:21 2:9.302 3:2.688 4:-0.818 
0 100 1:17 2:2.158 3:2.246 4:-0.804 
100 100 1:11 2:0.89 3:0.742 4:-0.542 
0 100 1:13 2:5.72 3:1.51 4:0.474 
100 100 1:15 2:-0.377 3:-4.999 4:-0.826 
0 100 1:12 2:12.718 3:5 4:0.235 
0 100 1:19 2:4.918 3:5 4:0.19 
0 100 1:20 2:7.043 3:1.37 4:0.468 
0 100 1:12 2:1.727 3:0.464 4:-0.173 
0 100 1:7 2:4.074 3:1.675 4:0.222 
0 100 1:12 2:4.683 3:1.085 4:0.077 
0 100 1:15 2:3.036 3:1.355 4:0.569 
100 100 1:15 2:0.797 3:-1.56 4:-0.313 
0 100 1:18 2:4.234 3:2.08 4:1.196 
0 100 1:20 2:2.316 3:0.978 4:0.777 
0 100 1:29 2:7.57 3:1.387 4:0.19 
100 100 1:16 2:-0.813 3:-4.999 4:-1.049 
100 100 1:11 2:-1.548 3:0.912 4:-0.597 
0 6.699586546212714 1:18 2:7.226 3:1.313 4:1.007 
100 100 1:4 2:-0.555 3:-1.294 4:0.56 
0 100 1:11 2:4.26 3:1.706 4:0.016 
0 100 1:17 2:7.643 3:5 4:1.658 
0 100 1:13 2:5.114 3:0.916 4:0.814 
0 100 1:15 2:5.752 3:1.251 4:0.506 
0 100 1:21 2:15.083 3:5 4:0.59 
100 100 1:21 2:-18.416 3:-4.999 4:-0.025 
0 100 1:20 2:6.445 3:1.435 4:0.225 
0 44.22381621180133 1:18 2:8.485 3:1.686 4:1.226 
0 100 1:6 2:3.839 3:1.113 4:-0.059 
100 100 1:27 2:-1.807 3:-2.241 4:0.442 
100 100 1:26 2:3.638 3:1.095 4:0.122 
100 100 1:14 2:-1.349 3:-1.397 4:-0.038 
100 100 1:13 2:-3.155 3:-1.742 4:0.045 
0 100 1:19 2:3.931 3:2.064 4:0.577 
0 100 1:18 2:6.323 3:1.658 4:-0.231 
0 100 1:26 2:18.853 3:5 4:-0.033 
0 100 1:14 2:5.679 3:1.84 4:-0.878 
100 100 1:5 2:2.756 3:1.016 4:0.276 
0 100 1:12 2:3.272 3:0.965 4:-0.151 
2.249420969189597 100 1:28 2:4.868 3:1.359 4:0.183 
0 100 1:17 2:7.477 3:1.895 4:0.64 
100 100 1:17 2:1.379 3:1.073 4:0.974 
0 100 1:14 2:8.515 3:1.995 4:1.227 
100 100 1:6 2:1.19 3:-1.203 4:0.19 
0 100 1:6 2:6.696 3:2.771 4:1.991 
100 100 1:13 2:-1.83 3:-1.203 4:-0.073 
0 100 1:23 2:5.426 3:1.035 4:0.171 
100 100 1:16 2:-0.054 3:1.658 4:0.491 
0 100 1:20 2:4.441 3:-1.56 4:0.122 
0 100 1:24 2:4.979 3:5 4:-1.203 
100 100 1:23 2:-0.863 3:-1.526 4:0.486 
0 100 1:19 2:4.233 3:2.299 4:0.049 
0 100 1:18 2:5.748 3:1.147 4:0.272 
0 100 1:7 2:4.776 3:1.399 4:0.276 
100 100 1:20 2:-4.353 3:-3.271 4:1.083 
0 100 1:17 2:4.241 3:0.59 4:0.042 
0 100 1:18 2:10.612 3:2.614 4:-0.333 
0 100 1:7 2:4.981 3:1.435 4:0.336 
100 100 1:20 2:1.034 3:-1.534 4:0.314 
0 100 1:19 2:11.289 3:2.574 4:0.09 
100 100 1:6 2:1.219 3:0.746 4:0.19 
0 100 1:8 2:3.743 3:1.238 4:1.196 
0 100 1:18 2:6.643 3:5 4:0.046 
100 100 1:19 2:0.435 3:-1.573 4:-0.338 
100 100 1:27 2:-1.812 3:1.395 4:0.077 
100 100 1:17 2:0.898 3:1.658 4:-0.026 
100 100 1:20 2:1.121 3:1.435 4:0.017 
0 100 1:20 2:13.557 3:5 4:-1.405 
0 11.36150677001527 1:21 2:8.498 3:1.75 4:0.135 
0 100 1:21 2:4.451 3:1.435 4:0.58 
100 100 1:15 2:-0.719 3:-1.049 4:0.58 
0 100 1:15 2:10.038 3:2.386 4:0.021 
0 100 1:16 2:2.997 3:-1.337 4:-0.094 
100 100 1:8 2:0.689 3:-0.573 4:0.34 
100 100 1:6 2:2.752 3:0.886 4:0.19 
0 100 1:9 2:2.538 3:1.278 4:0.08 
0 100 1:18 2:6.693 3:5 4:1.76 
100 100 1:20 2:-1.124 3:1.147 4:-0.045 
0.0113988254885139 100 1:16 2:1.505 3:1.113 4:-0.197 
100 100 1:18 2:-2.429 3:-0.867 4:-0.151 
0 100 1:19 2:2.023 3:1.37 4:-0.29 
0 100 1:17 2:7.651 3:1.147 4:0.104 
100 100 1:15 2:0.07 3:1.025 4:-0.373 
0 100 1:23 2:3.908 3:2.128 4:0.243 
0 100 1:12 2:3.207 3:1.167 4:-0.151 
100 100 1:17 2:1.161 3:1.113 4:0.798 
0 100 1:17 2:10.258 3:3.268 4:-0.151 
100 100 1:17 2:-0.186 3:-1.869 4:-0.715 
0 100 1:25 2:4.526 3:1.75 4:0.883 
0 100 1:22 2:7.929 3:1.987 4:-0.152 
0 100 1:19 2:3.209 3:1.76 4:-0.545 
0 100 1:28 2:4.575 3:1.675 4:0.174 
0 100 1:15 2:7.829 3:2.491 4:0.65 
100 100 1:28 2:3.304 3:1.16 4:-0.749 
0 100 1:26 2:8.304 3:1.743 4:0.52 
100 100 1:17 2:-0.652 3:0.863 4:0.442 
0 100 1:20 2:5.05 3:1.251 4:-0.059 
0 100 1:18 2:4.822 3:1.348 4:0.723 
0 100 1:19 2:17.063 3:5 4:0.243 
100 100 1:6 2:1.711 3:0.58 4:0.58 
0 100 1:15 2:2.269 3:1.301 4:-0.006 
100 100 1:16 2:1.232 3:-1.262 4:0.52 
100 100 1:17 2:-0.831 3:-1.644 4:-0.072 
100 100 1:6 2:-2.069 3:-1.56 4:-0.151 
100 100 1:12 2:0.494 3:1.03 4:-0.059 
100 100 1:11 2:0.086 3:0.78 4:0.25 
100 100 1:5 2:-1.212 3:-0.698 4:0.135 
100 100 1:21 2:-4.229 3:-0.878 4:-0.024 
100 100 1:18 2:-4.246 3:-1.812 4:-0.266 
0 100 1:12 2:1.586 3:0.985 4:0.985 
0 100 1:17 2:7.866 3:1.359 4:-0.003 
0 100 1:14 2:1.845 3:1.46 4:0.926 
100 100 1:7 2:2.217 3:1.085 4:1.085 
0 100 1:24 2:3.971 3:2.108 4:0.014 
100 100 1:5 2:2.38 3:1.416 4:0.714 
0 100 1:17 2:4.717 3:-1.165 4:-0.172 
0 100 1:21 2:4.761 3:1.928 4:0.626 
0 100 1:21 2:2.939 3:1.147 4:0.249 
100 100 1:19 2:1.7 3:-0.643 4:-0.049 
0 100 1:11 2:6.871 3:2.171 4:0.658 
0 100 1:15 2:3.918 3:1.196 4:0.57 
0 100 1:18 2:3.531 3:1.212 4:0.951 
100 100 1:20 2:0.716 3:-0.643 4:0.314 
0 100 1:19 2:3.891 3:2.351 4:-0.104 
0 100 1:22 2:10.246 3:5 4:-0.363 
100 100 1:24 2:-4.822 3:-2.259 4:1.083 
100 100 1:20 2:0.074 3:-1.637 4:0.089 
0 100 1:9 2:4.417 3:1.51 4:-0.177 
100 100 1:22 2:2.887 3:2.206 4:-0.363 
100 100 1:5 2:2.646 3:1.147 4:0.397 
100 100 1:12 2:0.736 3:0.921 4:0.19 
0 100 1:8 2:2.781 3:1.226 4:0.06 
0 100 1:16 2:5.873 3:-1.742 4:0.055 
0 100 1:13 2:3.675 3:1.147 4:0.56 
100 100 1:25 2:0.351 3:-4.999 4:0.372 
0 100 1:21 2:3.691 3:1.197 4:0.174 
0 100 1:13 2:5.812 3:1.117 4:0.376 
0 100 1:16 2:2.635 3:1.435 4:-0.188 
0 100 1:20 2:6.196 3:1.359 4:1.012 
0 100 1:8 2:8.765 3:5 4:1.052 
0 100 1:10 2:6.272 3:1.911 4:0.789 
0 100 1:12 2:3.201 3:-1.56 4:-0.001 
0 100 1:10 2:9.634 3:2.171 4:0.316 
0 100 1:26 2:6.265 3:1.653 4:0.111 
0 100 1:16 2:10.329 3:5 4:-1.297 
100 100 1:12 2:0.209 3:-2.515 4:-0.155 
0 100 1:17 2:9.704 3:5 4:-0.507 
100 100 1:9 2:1.976 3:1.147 4:-0.332 
0 100 1:16 2:3.599 3:1.435 4:-0.194 
0 100 1:18 2:6.241 3:-1.851 4:0.19 
100 100 1:17 2:-1.825 3:-4.999 4:-0.272 
100 100 1:10 2:0.74 3:0.742 4:0.367 
0 100 1:18 2:3.39 3:1.979 4:0.762 
100 100 1:22 2:-2.631 3:-1.685 4:0.569 
0 100 1:17 2:7.35 3:2.128 4:-0.151 
0 100 1:22 2:5.139 3:2.491 4:0.522 
0 100 1:14 2:8.796 3:5 4:0.267 
0 100 1:13 2:6.957 3:1.348 4:0.535 
100 100 1:22 2:2.629 3:-1.566 4:0.138 
0 100 1:12 2:5.631 3:2.08 4:-0.915 
100 100 1:13 2:-2.853 3:-2.044 4:0.183 
0 100 1:8 2:3.853 3:1.359 4:-0.151 
0 100 1:14 2:3.49 3:-1.337 4:1.297 
100 100 1:7 2:-1.113 3:-1.337 4:-0.107 
0 100 1:14 2:2.519 3:-1.547 4:-0.003 
100 100 1:14 2:-3.713 3:-1.049 4:-0.172 
100 100 1:13 2:0.16 3:-2.03 4:-0.299 
0 100 1:18 2:2.267 3:-1.648 4:-1.648 
100 100 1:25 2:-1.274 3:-4.999 4:-0.467 
0 100 1:16 2:1.605 3:1 4:0.081 
100 100 1:28 2:-1.642 3:1.147 4:-0.074 
100 100 1:11 2:-2.069 3:-1.851 4:-0.151 
0 100 1:15 2:3.224 3:0.872 4:0.52 
0 100 1:17 2:2.813 3:-1.896 4:1.086 
100 100 1:17 2:-2.565 3:5 4:0.266 
0 100 1:27 2:4.524 3:1.355 4:-0.151 
0 100 1:11 2:2.634 3:1.007 4:1.007 
100 100 1:3 2:0.451 3:0.224 4:0.045 
0 100 1:14 2:9.62 3:5 4:-0.423 
100 100 1:16 2:-0.198 3:0.707 4:0.306 
0 100 1:11 2:8.164 3:3.345 4:-0.151 
0 100 1:20 2:12.329 3:5 4:0.109 
0 100 1:9 2:3.209 3:2.246 4:2.246 
100 100 1:26 2:1.355 3:1.658 4:-0.066 
0 100 1:12 2:7.657 3:1.435 4:0.764 
0 100 1:11 2:11.237 3:2.026 4:0.855 
100 100 1:6 2:1.181 3:0.674 4:0.005 
100 100 1:10 2:0.802 3:0.847 4:-0.201 
100 100 1:10 2:1.286 3:1.81 4:0.58 
0 100 1:13 2:1.518 3:0.814 4:0.814 
0 100 1:12 2:2.688 3:1.247 4:-0.25 
100 100 1:20 2:-5.856 3:-2.565 4:-0.266 
100 100 1:10 2:-0.756 3:-1.397 4:-0.503 
0 100 1:12 2:6.518 3:1.359 4:0.535 
100 100 1:14 2:-1.336 3:-2.253 4:-0.173 
0 100 1:21 2:5.298 3:1.359 4:0.109 
100 100 1:8 2:-0.473 3:0.742 4:-0.077 
100 100 1:23 2:-6.256 3:-1.723 4:0.08 
0 100 1:11 2:3.4 3:1.651 4:-0.479 
0 100 1:16 2:5.754 3:2.3 4:0.243 
100 100 1:21 2:1.263 3:1.995 4:0.794 
100 100 1:10 2:0.831 3:0.965 4:-0.151 
0 100 1:18 2:3.863 3:1.31 4:-0.106 
100 100 1:19 2:2.013 3:1.147 4:0.335 
0 100 1:13 2:5.626 3:1.355 4:-0.94 
0 100 1:13 2:1.978 3:0.965 4:-0.274 
0 100 1:13 2:2.648 3:1.06 4:0.267 
100 100 1:25 2:2.085 3:1.435 4:-0.151 
0 100 1:20 2:3.764 3:-1.851 4:1.083 
0 100 1:8 2:5.732 3:1.435 4:0.051 
100 100 1:10 2:1.898 3:-2.148 4:1.334 
0 100 1:14 2:1.374 3:0.471 4:0.323 
0 100 1:15 2:8.05 3:1.951 4:-1.31 
0 100 1:22 2:13.125 3:5 4:2.339 
0 100 1:11 2:3.925 3:1.007 4:-0.151 
0 100 1:12 2:11.52 3:5 4:-0.125 
0 100 1:17 2:6.468 3:2.008 4:-0.312 
100 100 1:10 2:0.461 3:-0.931 4:-0.151 
0 100 1:13 2:6.216 3:1.825 4:1.407 
0 100 1:13 2:6.151 3:1.199 4:0.405 
0 100 1:14 2:9.74 3:2.189 4:1.084 
100 100 1:22 2:0.198 3:1.359 4:0.267 
0 100 1:15 2:2.016 3:1.147 4:0.392 
0 100 1:29 2:7.532 3:1.09 4:0.491 
0 100 1:21 2:4.072 3:-1.203 4:0.221 
0 100 1:18 2:4.488 3:1.995 4:0.164 
100 100 1:19 2:1.905 3:1.92 4:0.06 
0 100 1:19 2:8.685 3:2.386 4:-0.975 
0 100 1:18 2:4.321 3:1.041 4:0.19 
100 100 1:20 2:-1.93 3:-4.999 4:-1.648 
100 100 1:28 2:2.425 3:-2.1 4:-0.515 
0 100 1:8 2:5.012 3:1.84 4:-0.151 
0 100 1:16 2:5.855 3:1.995 4:0.201 
0 100 1:16 2:1.636 3:-0.923 4:-0.923 
100 100 1:20 2:-0.459 3:-2.658 4:-0.072 
100 100 1:16 2:-2.207 3:-4.999 4:0.183 
100 100 1:11 2:1.564 3:-0.81 4:-0.81 
0 100 1:21 2:8.373 3:1.014 4:0.384 
0 100 1:12 2:3.874 3:-1.337 4:-0.277 
100 100 1:12 2:0.76 3:-1.337 4:0.464 
0 100 1:17 2:7.368 3:1.658 4:0.6 
0 100 1:25 2:16.443 3:5 4:0.225 
100 100 1:8 2:1.416 3:0.86 4:-0.151 
0 100 1:18 2:3.518 3:1.753 4:0.323 
0 100 1:16 2:14.221 3:5 4:-0.032 
0 100 1:14 2:3.271 3:2.246 4:0.13 
0 100 1:9 2:4.02 3:0.794 4:0.437 
0 100 1:13 2:5.133 3:1.658 4:-0.856 
0 100 1:21 2:6.652 3:1.669 4:0.664 
100 100 1:15 2:0.574 3:0.697 4:0.183 
100 100 1:18 2:-0.73 3:0.742 4:0.58 
0 100 1:13 2:5.918 3:2.92 4:1.055 
0 100 1:12 2:4.091 3:1.147 4:0.848 
0 100 1:11 2:3.897 3:0.837 4:0.315 
0 100 1:18 2:3.706 3:1.669 4:0.041 
0 100 1:14 2:1.755 3:1.53 4:0.005 
0 100 1:18 2:9.967 3:5 4:0.664 
0 100 1:14 2:5.226 3:0.904 4:0.45 
0 100 1:17 2:1.965 3:0.713 4:0.641 
0 100 1:24 2:7.644 3:1.435 4:-0.329 
0 100 1:18 2:13.651 3:5 4:-0.189 
100 100 1:16 2:-0.763 3:1.083 4:1.083 
0 100 1:8 2:2.333 3:1.255 4:-0.151 
100 100 1:21 2:-0.049 3:-2.148 4:-0.065 
0 100 1:16 2:7.843 3:1.733 4:0.183 
100 100 1:6 2:-1.792 3:-0.935 4:-0.266 
0 100 1:18 2:2.454 3:0.924 4:0.924 
100 100 1:8 2:1.539 3:0.87 4:-0.001 
100 100 1:17 2:0.229 3:1.515 4:0.66 
0 100 1:24 2:4.744 3:1.263 4:-0.182 
100 100 1:18 2:-0.208 3:1.016 4:-0.272 
0 100 1:20 2:2.285 3:-1.742 4:0.405 
0 100 1:16 2:5.231 3:1.908 4:0.896 
0 100 1:9 2:5.268 3:2.039 4:0.394 
0 100 1:19 2:16.698 3:5 4:0.109 
100 100 1:9 2:-4.757 3:-1.761 4:-1.297 
100 100 1:24 2:0.67 3:0.965 4:0.139 
100 100 1:13 2:-0.186 3:-1.812 4:1.131 
100 100 1:13 2:-0.827 3:1.253 4:-0.535 
0 100 1:19 2:3.098 3:1.435 4:0.66 
100 100 1:28 2:-11.145 3:-4.999 4:0.243 
0 100 1:11 2:5.767 3:1.658 4:0.138 
0 100 1:14 2:2.519 3:-1.547 4:-0.003 
0 100 1:13 2:4.892 3:1.379 4:1.379 
0 100 1:9 2:9.162 3:1.913 4:0.135 
0 100 1:16 2:7.864 3:1.707 4:1.024 
0 100 1:14 2:4.868 3:1.895 4:0.378 
0 100 1:16 2:3.62 3:1.49 4:-0.23 
100 100 1:20 2:-2.524 3:-2.038 4:-1.648 
0 100 1:19 2:15.015 3:5 4:-0.541 
100 100 1:14 2:-0.427 3:-1.648 4:-1.648 
0 100 1:11 2:11.204 3:5 4:-1.113 
100 100 1:3 2:0.53 3:0.636 4:-0.151 
100 100 1:12 2:0.98 3:-0.914 4:-0.423 
0 100 1:27 2:12.894 3:3.514 4:0.267 
100 100 1:8 2:-0.177 3:-1.337 4:-1.337 
0 100 1:12 2:4.788 3:1.163 4:0.232 
0 100 1:17 2:6.977 3:1.063 4:0.183 
100 100 1:12 2:-2.531 3:-1.049 4:0.183 
100 100 1:14 2:-5.526 3:-0.836 4:-0.556 
0 100 1:20 2:6.593 3:1.313 4:1.313 
100 100 1:23 2:-3.337 3:-1.508 4:-0.346 
0 100 1:17 2:6.887 3:1.308 4:0.531 
0 100 1:18 2:3.113 3:1.669 4:0.165 
0 100 1:13 2:7.291 3:2.688 4:0.005 
0 100 1:7 2:3.301 3:1.263 4:-0.077 
0 100 1:8 2:2.918 3:1.359 4:0.005 
0 100 1:15 2:3.727 3:0.742 4:-0.077 
100 100 1:13 2:-0.149 3:1.147 4:-0.285 
0 100 1:19 2:3.488 3:1.658 4:-0.643 
100 100 1:8 2:1.105 3:-2.217 4:0.535 
0 100 1:18 2:7.745 3:1.658 4:-0.528 
0 100 1:20 2:2.447 3:2.062 4:0.723 
100 100 1:11 2:-2.286 3:-0.838 4:0.511 
0 100 1:19 2:7.919 3:1.77 4:-0.151 
0 100 1:19 2:2.502 3:-1.943 4:-0.151 
0 100 1:10 2:6.951 3:1.852 4:0.397 
0 100 1:21 2:6.099 3:1.067 4:1.018 
0 100 1:18 2:6.218 3:1.37 4:-0.066 
100 100 1:14 2:0.251 3:-1.608 4:0.412 
0 100 1:11 2:3.932 3:1.127 4:0.904 
100 100 1:21 2:-3.715 3:-1.049 4:-0.475 
100 100 1:11 2:0.252 3:-1.262 4:0.648 
100 100 1:10 2:-0.026 3:-1.685 4:0.135 
100 100 1:9 2:0.973 3:0.909 4:-0.206 
0 100 1:16 2:1.602 3:1.435 4:0.336 
0 100 1:21 2:5.678 3:1.301 4:0.924 
0 100 1:8 2:4.558 3:1.76 4:1.76 
100 100 1:8 2:1.668 3:1.03 4:0.138 
0 100 1:10 2:2.12 3:-1.337 4:0.28 
0 100 1:16 2:6.678 3:1.688 4:0.032 
0 100 1:11 2:2.68 3:1.979 4:0.135 
100 100 1:12 2:0.041 3:-0.542 4:0.267 
0 100 1:15 2:3.019 3:1.105 4:-0.001 
0 100 1:15 2:5.07 3:1.37 4:0.06 
0 100 1:16 2:3.709 3:2.128 4:-0.001 
0 100 1:25 2:6.804 3:5 4:-0.394 
0 100 1:21 2:7.382 3:1.753 4:1.083 
100 100 1:17 2:0.583 3:1.575 4:0.454 
100 100 1:17 2:0.089 3:-0.956 4:0.19 
100 100 1:23 2:2.748 3:-2.36 4:1.083 
0 100 1:9 2:4.36 3:0.909 4:-0.461 
0 100 1:19 2:2.207 3:1.995 4:0.276 
0 100 1:9 2:14.685 3:5 4:0.352 
0 100 1:21 2:7.468 3:1.725 4:0.474 
100 100 1:10 2:1.235 3:0.724 4:0.445 
0 100 1:14 2:1.437 3:0.86 4:0.579 
100 100 1:16 2:0.327 3:1.196 4:0.205 
0 100 1:12 2:6.915 3:2.351 4:-0.16 
100 100 1:6 2:-0.323 3:-1.337 4:-1.337 
0 100 1:14 2:4.789 3:1.247 4:-0.133 
0 100 1:15 2:7.898 3:2.534 4:0.512 
0 100 1:15 2:2.006 3:0.608 4:-0.182 
0 100 1:12 2:2.808 3:1.435 4:0.144 
0 100 1:11 2:3.935 3:-1.668 4:1.607 
100 100 1:20 2:1.67 3:-2.348 4:0.626 
0 100 1:13 2:4.898 3:1.47 4:-1.337 
100 100 1:8 2:2.087 3:1.013 4:-0.684 
0 100 1:12 2:2.054 3:1.058 4:0.742 
100 100 1:4 2:0.498 3:0.742 4:0.183 
0 100 1:7 2:10.398 3:5 4:0.736 
0 100 1:9 2:3.817 3:1.021 4:0.267 
100 100 1:9 2:0.551 3:-0.969 4:0.183 
0 100 1:15 2:6.08 3:-1.748 4:0.323 
100 100 1:18 2:1.202 3:0.896 4:0.049 
0 100 1:14 2:6.024 3:1.018 4:0.58 
0 100 1:18 2:2.585 3:-2.148 4:0.668 
100 100 1:7 2:1.613 3:1.226 4:-0.094 
0 100 1:10 2:3.786 3:1.147 4:0.258 
0 100 1:17 2:4.347 3:1.196 4:-0.248 
100 100 1:17 2:0.949 3:-1.154 4:0.059 
0 100 1:11 2:10.753 3:5 4:0.58 
0 100 1:12 2:5.67 3:5 4:-0.81 
0 100 1:19 2:8.489 3:1.589 4:0.084 
0 100 1:9 2:10.72 3:2.351 4:0.203 
0 100 1:19 2:4.505 3:-1.998 4:0.243 
0 100 1:9 2:5.677 3:2.614 4:0.109 
100 100 1:21 2:-3.034 3:-1.702 4:0.267 
0 100 1:20 2:4.468 3:1.26 4:1.03 
0 100 1:12 2:7.85 3:1.235 4:1.086 
100 100 1:20 2:-0.741 3:-0.815 4:0.58 
100 100 1:20 2:-1.666 3:-1.049 4:-0.074 
0 100 1:8 2:5.926 3:3.044 4:0.001 
0 100 1:18 2:4.403 3:2.128 4:-0.14 
100 100 1:13 2:-1.527 3:-1.337 4:0.197 
100 100 1:14 2:-0.325 3:1.658 4:-0.538 
0 100 1:11 2:5.755 3:5 4:0.2 
100 100 1:26 2:0.228 3:-1.175 4:0.979 
0 100 1:14 2:1.852 3:1.995 4:-0.094 
100 100 1:9 2:-0.336 3:0.636 4:-0.151 
100 100 1:9 2:2.072 3:1.703 4:0.077 
0 100 1:17 2:18.449 3:5 4:0.964 
0 100 1:27 2:5.703 3:0.867 4:0.258 
0 100 1:13 2:6.871 3:1.658 4:1.12 
100 100 1:19 2:-3.676 3:-1.337 4:1.152 
0 100 1:14 2:4.791 3:0.59 4:0.267 
0 100 1:25 2:10.343 3:1.725 4:-0.099 
0 100 1:16 2:5.992 3:0.86 4:0.471 
0 100 1:12 2:4.873 3:5 4:1.083 
0 100 1:16 2:6.697 3:1.995 4:-0.099 
100 100 1:9 2:-3.347 3:-1.297 4:-1.297 
0 100 1:20 2:7.924 3:2.064 4:0.184 
0 100 1:18 2:2.557 3:0.901 4:0.251 
8.346907835057596 100 1:17 2:1.379 3:0.752 4:-0.109 
0 100 1:8 2:5.334 3:5 4:1.087 
0 100 1:30 2:22.704 3:5 4:0.58 
0 100 1:20 2:5.627 3:0.742 4:0.683 
100 100 1:15 2:-1.404 3:-0.732 4:-0.072 
0 100 1:13 2:7.923 3:1.519 4:0.374 
0 100 1:12 2:3.631 3:1.147 4:-0.835 
0 100 1:14 2:4.043 3:1.753 4:0.482 
0 100 1:16 2:3.104 3:1.107 4:1.107 
100 100 1:2 2:0.233 3:0.388 4:-0.155 
0 100 1:12 2:2.079 3:0.794 4:0.78 
0 100 1:21 2:6.979 3:1.493 4:0.547 
0 100 1:15 2:2.329 3:1.247 4:0.582 
100 100 1:11 2:0.533 3:0.965 4:-0.577 
0 100 1:19 2:5.707 3:1.979 4:1.308 
100 100 1:25 2:0.475 3:1.995 4:0.442 
0 100 1:7 2:7.313 3:5 4:0.005 
100 100 1:4 2:-1.219 3:-0.497 4:0.045 
0 100 1:12 2:7.169 3:1.991 4:1.055 
100 100 1:9 2:-2.028 3:-0.989 4:0.385 
0 100 1:8 2:2.816 3:1.164 4:-0.151 
0 100 1:9 2:3.407 3:1.147 4:-0.155 
100 100 1:14 2:-1.445 3:-2.735 4:0.183 
100 100 1:10 2:0.89 3:2.246 4:-0.151 
0 100 1:10 2:4.706 3:2.351 4:0.336 
0 100 1:19 2:6.562 3:1.649 4:1.083 
100 100 1:10 2:1.268 3:0.762 4:-0.228 
0 100 1:17 2:4.575 3:1.251 4:0.636 
100 100 1:16 2:-0.999 3:-1.748 4:0.512 
100 100 1:12 2:-0.091 3:0.965 4:-0.577 
0 100 1:17 2:6.641 3:1.76 4:0.19 
100 100 1:19 2:-0.767 3:-1.049 4:0.19 
100 100 1:19 2:-0.767 3:-1.049 4:0.19 
0 100 1:15 2:5.114 3:1.171 4:0.501 
0 100 1:17 2:3.689 3:-1.203 4:-0.139 
100 100 1:11 2:-2.122 3:-1.337 4:0.235 
0 100 1:12 2:3.572 3:0.59 4:0.399 
100 100 1:14 2:-3.769 3:-1.723 4:-1.019 
100 100 1:11 2:-0.524 3:1.147 4:-0.065 
100 100 1:15 2:-0.338 3:-0.556 4:0.376 
0 100 1:17 2:1.657 3:-1.049 4:0.183 
0 100 1:18 2:14.075 3:5 4:0.354 
0 100 1:15 2:4.424 3:1.617 4:0.404 
100 100 1:20 2:0.444 3:-4.999 4:-0.189 
100 100 1:12 2:-1.389 3:-1.049 4:0.866 
100 100 1:3 2:0.779 3:0.975 4:0.16 
100 100 1:19 2:-2.669 3:-1.742 4:0.332 
100 100 1:6 2:-0.179 3:1.147 4:-1.049 
100 100 1:20 2:-1.422 3:-0.895 4:0.267 
100 100 1:15 2:0.504 3:-1.337 4:-1.337 
100 100 1:9 2:0.035 3:-1.207 4:0.58 
100 100 1:19 2:-8.323 3:-4.999 4:-0.401 
0 100 1:24 2:9.199 3:2.062 4:0.135 
0 100 1:24 2:8.291 3:1.873 4:-0.34 
0 100 1:16 2:1.882 3:1.995 4:-1.393 
100 100 1:12 2:1.777 3:-1.072 4:0.005 
100 100 1:18 2:1.137 3:1.147 4:-0.373 
0 100 1:14 2:7.972 3:1.496 4:-0.151 
0 100 1:9 2:3.216 3:1.658 4:0.257 
100 100 1:13 2:-1.168 3:-1.154 4:0.586 
0 100 1:16 2:4.604 3:-1.203 4:1.055 
100 100 1:2 2:0.175 3:0.528 4:0.528 
0 4.296327866281051 1:14 2:9.79 3:2.023 4:-0.001 
0 100 1:17 2:3.54 3:0.742 4:-0.375 
100 100 1:13 2:0.839 3:-4.999 4:0.097 
0 100 1:16 2:3.536 3:1.435 4:-0.503 
0 100 1:11 2:4.322 3:1.07 4:0.585 
0 100 1:22 2:4.274 3:-1.337 4:0.185 
100 100 1:16 2:-2.396 3:-1.664 4:-0.077 
0 100 1:13 2:8.376 3:5 4:0.419 
0 100 1:17 2:15.085 3:5 4:0.183 
100 100 1:10 2:-0.266 3:1.592 4:-0.766 
100 100 1:13 2:0.792 3:0.58 4:0.276 
100 100 1:16 2:-3.482 3:1.083 4:0.742 
100 100 1:13 2:-0.913 3:-1.337 4:-0.538 
0 100 1:14 2:6.364 3:3.044 4:0.137 
100 100 1:33 2:5.403 3:1.49 4:1.313 
0 100 1:10 2:9.455 3:5 4:0.726 
100 100 1:26 2:-0.216 3:1.658 4:1.243 
0 100 1:13 2:1.771 3:0.838 4:0.838 
0 100 1:13 2:3.134 3:0.695 4:-0.109 
0 100 1:17 2:4.113 3:1.84 4:0.851 
0 100 1:16 2:4.644 3:1.147 4:0.47 
100 100 1:12 2:-0.686 3:-1.337 4:-0.409 
100 100 1:6 2:1.089 3:0.636 4:-0.151 
100 100 1:8 2:1.21 3:0.586 4:-0.151 
0 100 1:13 2:6.224 3:1.836 4:0.924 
0 100 1:15 2:4.664 3:2.786 4:0.341 
100 100 1:11 2:0.507 3:-1.049 4:0.183 
0 100 1:6 2:4.415 3:1.951 4:0.046 
100 100 1:25 2:3.338 3:1.03 4:0.183 
0 100 1:9 2:4.048 3:1.299 4:0.472 
0 100 1:13 2:7.284 3:1.147 4:-0.015 
0 100 1:16 2:3.338 3:-1.668 4:0.315 
0 100 1:21 2:5.867 3:1.974 4:0.926 
0 100 1:17 2:2.718 3:2.246 4:-0.072 
100 100 1:11 2:-4.255 3:-2.148 4:0.535 
0 100 1:18 2:16.765 3:5 4:0.593 
100 100 1:9 2:1.406 3:-1.337 4:-0.043 
0 100 1:13 2:4.217 3:0.854 4:0.554 
0 100 1:9 2:2.563 3:0.824 4:-0.046 
100 100 1:11 2:-4.127 3:-2.17 4:0.215 
100 100 1:7 2:2.266 3:1.283 4:0.135 
0 100 1:16 2:1.55 3:0.822 4:-0.519 
0 100 1:28 2:16.459 3:2.064 4:0.577 
0 100 1:16 2:7.575 3:1.187 4:0.19 
0 100 1:19 2:5.408 3:1.84 4:0.316 
0 100 1:18 2:3.368 3:1.92 4:-0.032 
0 100 1:13 2:5.119 3:-2.056 4:0.19 
100 100 1:12 2:0.077 3:0.54 4:-0.07 
0 100 1:25 2:17.539 3:5 4:0.336 
100 100 1:18 2:-0.021 3:-1.56 4:-0.077 
0 100 1:26 2:12.459 3:1.589 4:0.613 
100 100 1:17 2:-11.41 3:-4.999 4:-0.151 
0 100 1:22 2:5.896 3:5 4:0.482 
100 100 1:6 2:1.755 3:1.464 4:-0.028 
100 100 1:12 2:0.214 3:-1.182 4:0.58 
0 100 1:18 2:3.582 3:2.246 4:0.19 
100 100 1:9 2:1.775 3:0.87 4:-0.045 
100 100 1:10 2:-0.063 3:0.848 4:-0.312 
0 100 1:12 2:3.291 3:1.016 4:-0.005 
0 100 1:18 2:2.438 3:1.171 4:0.138 
100 100 1:24 2:0.602 3:1.725 4:0.185 
0 100 1:13 2:3.615 3:1.624 4:0.454 
0 100 1:12 2:2.231 3:1.261 4:0.627 
100 100 1:14 2:1.088 3:1.658 4:-0.569 
100 100 1:5 2:1.397 3:1.083 4:1.083 
0 100 1:14 2:3.561 3:0.742 4:-0.151 
0 100 1:16 2:7.231 3:1.553 4:0.135 
100 100 1:24 2:2.388 3:1.895 4:0.113 
100 100 1:21 2:0.214 3:-2.278 4:0.152 
0 100 1:7 2:6.02 3:5 4:0.276 
0 100 1:14 2:3.717 3:2.386 4:-0.077 
0 100 1:17 2:5.884 3:1.84 4:-0.18 
100 100 1:26 2:3.499 3:1.435 4:0.284 
0 100 1:14 2:4.583 3:1.481 4:0.156 
100 100 1:10 2:0.708 3:-1.221 4:0.199 
0 100 1:17 2:2.402 3:1.607 4:0.071 
0 100 1:24 2:7.531 3:1.245 4:0.138 
100 100 1:12 2:0.371 3:-2.148 4:-0.077 
100 100 1:15 2:-1.698 3:-4.999 4:0.267 
100 100 1:7 2:0.705 3:1.03 4:-0.151 
100 100 1:20 2:-5.213 3:-1.742 4:-0.682 
0 100 1:17 2:3.962 3:1.741 4:-0.878 
0 100 1:18 2:6.689 3:1.147 4:0.501 
100 100 1:11 2:1.492 3:-0.78 4:0.267 
1.455884845824689 100 1:21 2:2.471 3:1.995 4:0.846 
0 100 1:16 2:3.471 3:-1.896 4:0.464 
0 100 1:14 2:3.597 3:1.147 4:1.113 
100 100 1:23 2:-0.145 3:-2.044 4:0.123 
0 100 1:14 2:3.762 3:-1.301 4:-1.301 
0 100 1:12 2:5.38 3:1.407 4:0.148 
0 100 1:12 2:13.93 3:5 4:-0.036 
0 100 1:11 2:3.754 3:1.147 4:-0.027 
0 100 1:8 2:6.389 3:3.227 4:0.254 
0 100 1:20 2:3.393 3:1.776 4:0.142 
0 100 1:12 2:1.77 3:-1.203 4:0.52 
0 100 1:4 2:3.931 3:2.993 4:1.152 
100 100 1:7 2:1.668 3:0.822 4:0.225 
100 100 1:8 2:2.062 3:1.355 4:-0.25 
100 100 1:9 2:0.445 3:1.951 4:0.202 
100 100 1:11 2:-5.97 3:-4.999 4:-0.281 
0 100 1:21 2:4.743 3:2.169 4:0.19 
0 100 1:10 2:4.507 3:1.46 4:0.926 
0 100 1:19 2:4.773 3:0.902 4:-0.032 
100 100 1:18 2:-8.097 3:-1.983 4:0.54 
100 100 1:10 2:-1.005 3:-1.049 4:-0.028 
0 100 1:8 2:4.094 3:1.951 4:0.183 
0 100 1:16 2:3.653 3:2.305 4:-0.201 
100 100 1:17 2:0.928 3:1.995 4:1.995 
0 100 1:14 2:2.27 3:0.965 4:0.049 
100 100 1:9 2:-3.349 3:-1.09 4:-0.452 
0 100 1:8 2:2.452 3:0.746 4:0.19 
0 100 1:15 2:2.481 3:-1.049 4:0.574 
100 100 1:7 2:-0.873 3:0.937 4:-0.768 
100 100 1:4 2:-2.108 3:-1.049 4:-0.151 
0 100 1:8 2:7.873 3:2.386 4:1.918 
0 100 1:14 2:8.389 3:1.206 4:0.517 
100 100 1:21 2:-0.757 3:1.253 4:-0.475 
0 100 1:16 2:5.411 3:1.407 4:0.135 
0 100 1:19 2:4.249 3:0.977 4:0.364 
0 100 1:12 2:2.246 3:-1.337 4:1.182 
100 100 1:16 2:-1.225 3:-0.535 4:-0.535 
100 100 1:16 2:-2.397 3:-2.219 4:-0.279 
0 100 1:13 2:8.612 3:2.386 4:-0.125 
0 100 1:19 2:8.873 3:2.064 4:0.979 
0 100 1:14 2:3.014 3:1.363 4:-0.058 
0 100 1:17 2:3.223 3:0.811 4:-0.302 
0 100 1:14 2:7.416 3:1.435 4:0.846 
0 100 1:17 2:4.318 3:-1.337 4:0.726 
0 100 1:16 2:3.464 3:1.197 4:0.118 
0 100 1:12 2:3.404 3:0.844 4:0.122 
100 100 1:7 2:0.603 3:0.497 4:0.127 
0 100 1:15 2:2.954 3:-1.301 4:-1.301 
0 100 1:9 2:10.623 3:5 4:0.336 
100 100 1:17 2:-0.375 3:1.658 4:1.12 
0 100 1:10 2:2.057 3:1.84 4:-0.014 
100 100 1:17 2:-1.884 3:-1.234 4:0.119 
0 100 1:8 2:5.487 3:1.359 4:-0.151 
0 100 1:12 2:9.804 3:2.757 4:0.247 
0 100 1:12 2:3.091 3:1.227 4:0.045 
100 100 1:13 2:0.444 3:1.995 4:-0.109 
0 100 1:14 2:1.572 3:0.718 4:0.108 
0 100 1:15 2:4.387 3:5 4:-0.323 
0 100 1:20 2:2.329 3:-1.09 4:0.924 
0 100 1:13 2:5.22 3:1.264 4:0.381 
0 100 1:17 2:3.184 3:0.965 4:-0.866 
0 100 1:19 2:5.658 3:1.29 4:-0.363 
0 100 1:12 2:5.255 3:1.355 4:0.054 
0 100 1:19 2:4.005 3:1.476 4:-0.423 
0 100 1:17 2:3.989 3:1.435 4:-0.045 
100 100 1:14 2:-0.526 3:0.965 4:-0.577 
0 100 1:12 2:6.128 3:1.384 4:-0.992 
100 100 1:9 2:2.152 3:1.84 4:0.221 
0 100 1:12 2:5.699 3:1.753 4:0.26 
0 100 1:24 2:11.033 3:2.171 4:0.336 
100 100 1:22 2:2.504 3:-1.896 4:-0.151 
100 100 1:23 2:2.439 3:1.26 4:-0.684 
0 100 1:17 2:9.586 3:5 4:-1.14 
0 100 1:11 2:2.482 3:0.974 4:0.405 
100 100 1:7 2:0.129 3:-2.607 4:-0.289 
0 100 1:14 2:6.56 3:1.589 4:0.58 
100 100 1:10 2:1.224 3:1.435 4:-0.856 
100 100 1:20 2:0.711 3:-1.851 4:0.123 
0 100 1:24 2:8.815 3:1.987 4:1.273 
0 100 1:21 2:18.262 3:5 4:0.113 
0 100 1:23 2:7.962 3:1.199 4:0.273 
100 100 1:10 2:0.758 3:1.33 4:-1.049 
0 100 1:19 2:15.896 3:5 4:0.569 
100 100 1:11 2:2.437 3:-4.999 4:-4.999 
0 100 1:12 2:5.975 3:1.75 4:0.476 
100 100 1:24 2:-1.269 3:-1.409 4:-0.074 
100 100 1:17 2:0.51 3:0.786 4:-0.363 
100 100 1:15 2:-1.264 3:-1.203 4:-0.956 
0 100 1:16 2:4.313 3:-1.337 4:-0.497 
0 100 1:6 2:4.654 3:1.333 4:0.144 
0 100 1:14 2:6.881 3:1.791 4:1.087 
0 100 1:24 2:9.526 3:2.899 4:0.163 
100 100 1:15 2:-0.981 3:-1.56 4:-0.526 
100 100 1:11 2:0.272 3:-1.644 4:0.191 
0 100 1:15 2:5.777 3:1.669 4:0.642 
100 100 1:24 2:-10.154 3:-2.841 4:0.221 
100 100 1:17 2:0.252 3:-1.234 4:0.359 
0 100 1:15 2:8.132 3:1.995 4:0.264 
0 100 1:10 2:2.277 3:1.157 4:0.306 
0 100 1:14 2:3.833 3:1.359 4:0.265 
0 100 1:17 2:4.653 3:1.396 4:-0.011 
100 100 1:6 2:-1.425 3:-0.643 4:-0.072 
100 100 1:17 2:-1.017 3:-1.305 4:0.359 
0 100 1:15 2:5.177 3:1.725 4:-0.265 
100 100 1:10 2:1.063 3:0.454 4:-0.109 
100 100 1:9 2:0.915 3:0.506 4:-0.151 
100 100 1:7 2:1.211 3:0.75 4:0.19 
100 100 1:19 2:1.802 3:-1.655 4:0.308 
0 100 1:17 2:3.942 3:1.225 4:-0.566 
100 100 1:12 2:-0.212 3:-0.893 4:-0.151 
0 100 1:22 2:8.077 3:1.658 4:0.135 
100 100 1:11 2:1.122 3:0.746 4:-0.243 
0 100 1:13 2:1.901 3:1.147 4:-0.373 
0 100 1:17 2:5.86 3:1.199 4:0.276 
0 100 1:12 2:3.065 3:0.924 4:0.128 
0 100 1:24 2:8.016 3:1.53 4:0.3 
0 100 1:16 2:3.751 3:-1.491 4:0.054 
0 100 1:19 2:10.492 3:2.899 4:0.336 
100 100 1:16 2:-4.338 3:-0.859 4:0.399 
0 100 1:16 2:6.015 3:1.951 4:0.144 
100 100 1:17 2:1.002 3:-1.676 4:0.183 
100 100 1:23 2:-0.57 3:-1.56 4:0.038 
0 100 1:24 2:9.366 3:5 4:-0.539 
100 100 1:13 2:-0.338 3:-0.79 4:-0.304 
100 100 1:21 2:0.935 3:1.147 4:-1.064 
0 100 1:24 2:5.9 3:5 4:-0.312 
100 100 1:15 2:-2.538 3:-0.76 4:-0.375 
0 100 1:14 2:5.031 3:1.484 4:-1.337 
100 100 1:1 2:-0.643 4:-0.643 
100 100 1:27 2:0.052 3:-2.043 4:0.569 
0 72.24387361632878 1:19 2:7.785 3:1.658 4:0.764 
0 100 1:15 2:1.996 3:2.128 4:0.183 
0 100 1:17 2:2.32 3:-1.262 4:0.149 
0 100 1:13 2:7.414 3:1.676 4:1.605 
0 100 1:27 2:11.612 3:1.511 4:0.548 
0 100 1:13 2:5.916 3:2.757 4:1.352 
0 100 1:21 2:4.407 3:1.227 4:-0.189 
0 100 1:15 2:2.006 3:0.608 4:-0.182 
100 100 1:15 2:0.952 3:1.253 4:-1.154 
0 100 1:15 2:7.236 3:1.68 4:-0.254 
0 100 1:18 2:3.18 3:-1.293 4:0.442 
0 100 1:13 2:3.909 3:0.901 4:0.405 
0 100 1:28 2:7.312 3:5 4:-0.389 
0 100 1:10 2:8.39 3:1.699 4:0.267 
100 100 1:15 2:-0.065 3:-1.049 4:-0.094 
0 100 1:14 2:1.416 3:1.147 4:0.138 
15.0034928639558 100 1:19 2:2.127 3:1.147 4:0.608 
100 100 1:12 2:-0.686 3:-1.337 4:-0.409 
0 100 1:14 2:1.766 3:1.301 4:0.612 
100 100 1:16 2:-0.398 3:1.658 4:-0.151 
100 100 1:20 2:1.229 3:-1.337 4:0.671 
0 100 1:19 2:4.842 3:1.995 4:-0.072 
0 100 1:14 2:2.079 3:-0.867 4:0.433 
0 100 1:16 2:3.589 3:2.128 4:0.221 
0 100 1:10 2:4.678 3:1.84 4:0.317 
0 100 1:18 2:4.777 3:1.435 4:1.273 
0 100 1:18 2:14.513 3:5 4:-0.131 
0 100 1:13 2:6.031 3:2.79 4:0.103 
100 100 1:17 2:-9.114 3:-4.999 4:-2.33 
100 100 1:24 2:-5.186 3:-4.999 4:0.314 
100 100 1:13 2:0.682 3:1.296 4:-0.127 
0 100 1:15 2:3.25 3:1.435 4:0.28 
0 100 1:21 2:6.651 3:1.768 4:0.243 
100 100 1:11 2:-3.631 3:-1.337 4:-1.031 
100 100 1:12 2:0.567 3:-2.507 4:-0.94 
0 100 1:16 2:2.044 3:1.317 4:0.306 
100 100 1:8 2:-1.325 3:-1.297 4:-0.072 
100 100 1:17 2:-0.622 3:-1.049 4:-0.007 
100 100 1:6 2:0.141 3:-1.337 4:-0.164 
0 100 1:15 2:5.671 3:1.842 4:1.207 
0 100 1:14 2:6.573 3:2.128 4:1.415 
0 100 1:13 2:3.766 3:1.147 4:-0.014 
0 100 1:9 2:5.093 3:1.384 4:0.683 
0 100 1:12 2:2.864 3:1.147 4:0.683 
0 100 1:20 2:18.692 3:5 4:0.479 
100 100 1:10 2:0.572 3:1.301 4:1.301 
100 100 1:20 2:2.514 3:-4.999 4:0.127 
0 100 1:20 2:6.97 3:1.417 4:0.129 
0 100 1:17 2:2.16 3:-1.337 4:0.243 
0 100 1:23 2:10.872 3:5 4:0.001 
100 100 1:12 2:1.299 3:1.162 4:0.569 
0 100 1:11 2:6.024 3:1.653 4:0.045 
100 100 1:13 2:-6.033 3:-4.999 4:-0.179 
100 100 1:22 2:-1.578 3:-1.742 4:-1.275 
0 100 1:13 2:4.003 3:0.887 4:0.573 
